[
  {
    "mask_number": 9,
    "image_num": 3,
    "contour_noise": false,
    "canny": false,
    "generate_random": false,
    "all_edges_good": true,
    "is_vertical": "True",
    "edges_control": [
      0,
      0,
      0,
      0
    ],
    "no_canny": "True",
    "box_dimensions": [
      0.296,
      0.154,
      0.221
    ],
    "final_weights": [
      0.19999999999999998,
      0.6,
      0.19999999999999998,
      0.0
    ],
    "cntr_line_weights": [
      0.25,
      0.25,
      0.25,
      0.25
    ],
    "canny_seg_weights": [
      0.7,
      0.30000000000000004
    ],
    "init_params": [
      1.0,
      0.0,
      1.0,
      6.123233995736766e-17,
      1.0,
      1.0,
      -1.0,
      1.2246467991473532e-16,
      1.0,
      -1.8369701987210297e-16,
      -1.0,
      1.0,
      1.0,
      0.0,
      0.0,
      0.0,
      0.2960488774491717,
      -0.3193549470569992,
      1.0003320959223556,
      0.0,
      0.0,
      -1.0,
      1.0003320959223556
    ],
    "final_loss": 0.08937028367471582,
    "time_duration": 1.6322414000169374,
    "optimized_parameters": [
      0.02566512318167804,
      0.9996705964813059,
      0.26552074926538943,
      -0.8343163516217058,
      -0.5512859742613071,
      -0.49254097405966746,
      -0.027261943531802602,
      -0.9996283241603653,
      -0.3880643590600781,
      0.9299606576817283,
      0.3676590474457369,
      0.32970401741818867,
      0.6496838174186742,
      -0.2828285081342329,
      -0.2982125875295422,
      -0.6395218721956323,
      0.3044886426228933,
      -0.3296293260907569,
      1.012182525221592,
      0.025738291929352976,
      -0.7489252788448817,
      -0.6621544133146098,
      0.41551640018222336
    ],
    "final_E_line": 2.466983940016404e-06,
    "final_E_plane": 1.9758491690641536e-06,
    "final_E_pose": 8.560363262634311e-09,
    "final_E_centroids": 0.0,
    "final_E_total": 8.937028397736921e-07
  }
]