[
  {
    "mask_number": 9,
    "image_num": 4,
    "contour_noise": false,
    "canny": true,
    "is_vertical": "False",
    "edges_control": [
      1,
      1,
      1,
      1
    ],
    "no_canny": "False",
    "box_dimensions": [
      0.396,
      0.2,
      0.205
    ],
    "final_weights": [
      0.19999999999999998,
      0.6,
      0.19999999999999998,
      0.0
    ],
    "cntr_line_weights": [
      0.25,
      0.25,
      0.25,
      0.25
    ],
    "canny_seg_weights": [
      0.7,
      0.30000000000000004
    ],
    "init_params": [
      1.0,
      0.0,
      1.0,
      6.123233995736766e-17,
      1.0,
      1.0,
      -1.0,
      1.2246467991473532e-16,
      1.0,
      -1.8369701987210297e-16,
      -1.0,
      1.0,
      1.0,
      0.0,
      0.0,
      0.0,
      0.1456180707485268,
      -0.27474797404870266,
      0.9729257148561444,
      0.0,
      0.0,
      -1.0,
      0.9729257148561444
    ],
    "final_loss": 0.5324962912377789,
    "time_duration": 2.7734441999928094,
    "optimized_parameters": [
      -0.021366553277288234,
      0.9997717091421667,
      0.22797485763817868,
      -0.8409045092772331,
      -0.5411835236564592,
      -0.4562130362751715,
      0.017332751849020164,
      -0.9998497765731322,
      -0.32790687881976766,
      0.9992865423981769,
      0.03776779291886718,
      -0.033582237915106894,
      0.6340715417182358,
      -0.2714724598122861,
      -0.28797396907476525,
      -0.6643244513653411,
      0.15433770738518027,
      -0.2784523206245934,
      0.9778255688419787,
      0.004500658044881873,
      -0.7268818821348355,
      -0.6867477509983663,
      0.46842295149433866
    ],
    "final_E_line": 2.1372403274175817e-05,
    "final_E_plane": 4.366038262597984e-06,
    "final_E_pose": 2.954576757159413e-07,
    "final_E_centroids": 0.0,
    "final_E_total": 5.3249629127843245e-06
  }
]