[
  {
    "mask_number": 5,
    "image_num": 5,
    "contour_noise": false,
    "canny": true,
    "generate_random": false,
    "all_edges_good": true,
    "is_vertical": "False",
    "edges_control": [
      1,
      1,
      1,
      1
    ],
    "no_canny": "False",
    "box_dimensions": [
      0.396,
      0.2,
      0.205
    ],
    "final_weights": [
      0.19999999999999998,
      0.6,
      0.19999999999999998,
      0.0
    ],
    "cntr_line_weights": [
      0.25,
      0.25,
      0.25,
      0.25
    ],
    "canny_seg_weights": [
      0.7,
      0.30000000000000004
    ],
    "init_params": [
      1.0,
      0.0,
      1.0,
      6.123233995736766e-17,
      1.0,
      1.0,
      -1.0,
      1.2246467991473532e-16,
      1.0,
      -1.8369701987210297e-16,
      -1.0,
      1.0,
      1.0,
      0.0,
      0.0,
      0.0,
      0.17843677993197385,
      -0.15138482098539838,
      0.7862139893994244,
      0.0,
      0.0,
      -1.0,
      0.7862139893994244
    ],
    "final_loss": 0.5613874688363775,
    "time_duration": 1.7415480999625288,
    "optimized_parameters": [
      -0.012195852403658208,
      0.9999256278264783,
      0.1309400712867085,
      -0.7863524850880836,
      -0.6177780905769522,
      -0.49594727615140866,
      0.008776534227529385,
      -0.9999614854818494,
      -0.2572223674072096,
      0.9995339937556268,
      0.030525322865931927,
      -0.015097227867883724,
      0.6329878808892256,
      -0.2898331031289646,
      -0.302437355677765,
      -0.6510412896806872,
      0.18058865486751552,
      -0.16189669415416047,
      0.7996035422599703,
      0.0054917832223217574,
      -0.7607201871156934,
      -0.6490567288249586,
      0.39483823439362503
    ],
    "final_E_line": 2.1598677540956583e-05,
    "final_E_plane": 5.800195635178159e-06,
    "final_E_pose": 2.2350008883770898e-07,
    "final_E_centroids": 0.0,
    "final_E_total": 5.613874688529573e-06
  }
]