[
  {
    "mask_number": 18,
    "image_num": 3,
    "contour_noise": false,
    "canny": true,
    "is_vertical": "False",
    "edges_control": [
      0,
      0,
      0,
      0
    ],
    "no_canny": "False",
    "box_dimensions": [
      0.296,
      0.154,
      0.221
    ],
    "final_weights": [
      0.19999999999999998,
      0.6,
      0.19999999999999998,
      0.0
    ],
    "cntr_line_weights": [
      0.25,
      0.25,
      0.25,
      0.25
    ],
    "canny_seg_weights": [
      0.7,
      0.30000000000000004
    ],
    "init_params": [
      1.0,
      0.0,
      1.0,
      6.123233995736766e-17,
      1.0,
      1.0,
      -1.0,
      1.2246467991473532e-16,
      1.0,
      -1.8369701987210297e-16,
      -1.0,
      1.0,
      1.0,
      0.0,
      0.0,
      0.0,
      -0.20759637811556686,
      -0.5433121310234212,
      1.2560712697913268,
      0.0,
      0.0,
      -1.0,
      1.2560712697913268
    ],
    "final_loss": 0.39838315131719726,
    "time_duration": 1.5246813999838196,
    "optimized_parameters": [
      0.03401383142975271,
      0.9994213622249182,
      0.4096135894624689,
      -0.9565867158672463,
      0.291447859876045,
      0.19983641031353647,
      -0.03366283061347428,
      -0.9994332463126832,
      -0.44455163489304717,
      0.7158861112714572,
      -0.6982170691765828,
      -0.5299263311250586,
      0.6480290054085884,
      -0.30385104824117465,
      -0.3125498116414936,
      -0.6245362790701706,
      -0.24574896081381506,
      -0.5478128288786087,
      1.2600056725455724,
      0.025550631806702764,
      -0.784206045681261,
      -0.6199742277960759,
      0.3578519597600101
    ],
    "final_E_line": 1.3172068375502251e-05,
    "final_E_plane": 6.6883336313063495e-06,
    "final_E_pose": 1.9585186235109803e-08,
    "final_E_centroids": 0.0,
    "final_E_total": 3.983831513102786e-06
  }
]