[
  {
    "mask_number": 0,
    "image_num": 5,
    "contour_noise": false,
    "canny": true,
    "generate_random": false,
    "all_edges_good": false,
    "is_vertical": "True",
    "edges_control": [
      0,
      1,
      1,
      1
    ],
    "no_canny": "False",
    "box_dimensions": [
      0.396,
      0.2,
      0.205
    ],
    "final_weights": [
      0.19999999999999998,
      0.6,
      0.19999999999999998,
      0.0
    ],
    "cntr_line_weights": [
      0.25,
      0.25,
      0.25,
      0.25
    ],
    "canny_seg_weights": [
      0.7,
      0.30000000000000004
    ],
    "init_params": [
      1.0,
      0.0,
      1.0,
      6.123233995736766e-17,
      1.0,
      1.0,
      -1.0,
      1.2246467991473532e-16,
      1.0,
      -1.8369701987210297e-16,
      -1.0,
      1.0,
      1.0,
      0.0,
      0.0,
      0.0,
      -0.30495756615965447,
      0.0715240957599955,
      0.5256800821370549,
      0.0,
      0.0,
      -1.0,
      0.5256800821370549
    ],
    "final_loss": 0.3252946673215343,
    "time_duration": 1.836242499994114,
    "optimized_parameters": [
      -0.03080559820459943,
      0.9995253949348124,
      -0.38268154775696916,
      -0.9365272726187105,
      0.3505947341911855,
      0.3321453676454625,
      0.02271907206699458,
      -0.9997418885714839,
      -0.1365900533389571,
      0.8005991984247267,
      -0.599200236550637,
      -0.5442115548516757,
      0.6334603928698129,
      -0.294099366156096,
      -0.29409503956905114,
      -0.6524887747644874,
      -0.31397100252638616,
      0.03899523164271312,
      0.5641927669529097,
      -0.011197961594175847,
      -0.756388027836237,
      -0.6540273365881861,
      0.39497718827300543
    ],
    "final_E_line": 7.987518097188374e-06,
    "final_E_plane": 7.888949534037547e-06,
    "final_E_pose": 1.2942191350453825e-07,
    "final_E_centroids": 0.0,
    "final_E_total": 3.2529466743479077e-06
  }
]