[
  {
    "mask_number": 7,
    "image_num": 5,
    "contour_noise": false,
    "canny": true,
    "generate_random": false,
    "all_edges_good": false,
    "is_vertical": "True",
    "edges_control": [
      1,
      1,
      1,
      1
    ],
    "no_canny": "False",
    "box_dimensions": [
      0.396,
      0.2,
      0.205
    ],
    "final_weights": [
      0.19999999999999998,
      0.6,
      0.19999999999999998,
      0.0
    ],
    "cntr_line_weights": [
      0.45,
      0.04999999999999999,
      0.04999999999999999,
      0.45
    ],
    "canny_seg_weights": [
      0.7,
      0.30000000000000004
    ],
    "init_params": [
      1.0,
      0.0,
      1.0,
      6.123233995736766e-17,
      1.0,
      1.0,
      -1.0,
      1.2246467991473532e-16,
      1.0,
      -1.8369701987210297e-16,
      -1.0,
      1.0,
      1.0,
      0.0,
      0.0,
      0.0,
      0.07249472646872719,
      -0.46479812638261114,
      1.1448625222914899,
      0.0,
      0.0,
      -1.0,
      1.1448625222914899
    ],
    "final_loss": 0.3734329203705459,
    "time_duration": 1.649026800005231,
    "optimized_parameters": [
      -0.023867935144673006,
      0.9997151202577886,
      0.3525145465991678,
      -0.9407563354928031,
      -0.3390833485008909,
      -0.2774359688629902,
      0.023703130241682017,
      -0.9997190413395229,
      -0.4707026262772176,
      0.9999614841519422,
      -0.008776685796538631,
      -0.03037066786132864,
      0.6364031829858255,
      -0.29407689800638076,
      -0.2877954836925215,
      -0.6524442706551188,
      0.06847313652888397,
      -0.49679239319734314,
      1.1813408539070724,
      -0.017429614686904356,
      -0.7498439688890861,
      -0.661385085145252,
      0.4099979142296639
    ],
    "final_E_line": 1.533845496950695e-05,
    "final_E_plane": 3.314673260396792e-06,
    "final_E_pose": 6.172596174641205e-09,
    "final_E_centroids": 0.0,
    "final_E_total": 3.734329203685532e-06
  }
]