[
  {
    "mask_number": 22,
    "image_num": 6,
    "contour_noise": false,
    "canny": true,
    "generate_random": false,
    "all_edges_good": true,
    "is_vertical": "False",
    "edges_control": [
      0,
      1,
      1,
      1
    ],
    "no_canny": "False",
    "final_weights": [
      0.19999999999999998,
      0.6,
      0.19999999999999998,
      0.0
    ],
    "cntr_line_weights": [
      0.25,
      0.25,
      0.25,
      0.25
    ],
    "canny_seg_weights": [
      0.7,
      0.30000000000000004
    ],
    "init_params": [
      1.0,
      0.0,
      1.0,
      6.123233995736766e-17,
      1.0,
      1.0,
      -1.0,
      1.2246467991473532e-16,
      1.0,
      -1.8369701987210297e-16,
      -1.0,
      1.0,
      1.0,
      0.0,
      0.0,
      0.0,
      -0.20372407775528548,
      -0.359673967314203,
      1.0325659593676135,
      0.0,
      0.0,
      -1.0,
      1.0325659593676135,
      0.1,
      0.1
    ],
    "final_loss": NaN,
    "time_duration": 8.568994399996882,
    "optimized_parameters": [
      -0.022754071673350987,
      0.9997414297990793,
      12.008839823534899,
      -0.08452903219833609,
      0.9964216178791337,
      7.622754196044696,
      -0.17351050403875548,
      0.9848311275997602,
      -2638428.612405065,
      0.17343881443231648,
      -0.9848455390586418,
      -2638348.504304826,
      0.5260577165117439,
      1.0559974645981327,
      0.17648350174940475,
      -0.08346114020255155,
      -0.6597580090437384,
      -0.281143770963832,
      0.9557876968995349,
      -0.02575133375002041,
      -0.7735457138691418,
      -0.633217752064427,
      0.37078485816059675,
      0.005065749774961506,
      0.005006950033816927
    ],
    "final_E_line": 1.3108873579069746e-05,
    "final_E_plane": NaN,
    "final_E_pose": 0.0,
    "final_E_centroids": -0.0227540716733509,
    "final_E_total": 0.9997414297990792
  }
]