[
  {
    "mask_number": 9,
    "image_num": 4,
    "contour_noise": false,
    "canny": true,
    "is_vertical": "False",
    "edges_control": [
      1,
      1,
      1,
      1
    ],
    "no_canny": "False",
    "box_dimensions": [
      0.396,
      0.2,
      0.205
    ],
    "final_weights": [
      0.3333333333333333,
      0.3333333333333333,
      0.3333333333333333,
      0.0
    ],
    "cntr_line_weights": [
      0.25,
      0.25,
      0.25,
      0.25
    ],
    "canny_seg_weights": [
      0.7,
      0.30000000000000004
    ],
    "init_params": [
      1.0,
      0.0,
      1.0,
      6.123233995736766e-17,
      1.0,
      1.0,
      -1.0,
      1.2246467991473532e-16,
      1.0,
      -1.8369701987210297e-16,
      -1.0,
      1.0,
      1.0,
      0.0,
      0.0,
      0.0,
      0.1454617201768035,
      -0.2747872472149436,
      0.9729581846989425,
      0.0,
      0.0,
      -1.0,
      0.9729581846989425
    ],
    "final_loss": 0.8371455073605403,
    "time_duration": 1.206985500000883,
    "optimized_parameters": [
      -0.021689962891219734,
      0.9997647450824553,
      0.22793435705537193,
      -0.8439906805559491,
      -0.5363578386998928,
      -0.45535312327898536,
      0.01761958745412649,
      -0.9998447630197149,
      -0.3278809050190952,
      0.9992416011593709,
      0.03893870199320358,
      -0.03277205233848779,
      0.6346993951614087,
      -0.2727209171573032,
      -0.2870664810141609,
      -0.6636059181508397,
      0.15402500094846255,
      -0.2783991039433027,
      0.9775788584078172,
      0.0024433990643924737,
      -0.7271896314330354,
      -0.686432276147706,
      0.4682164063120573
    ],
    "final_E_line": 1.9691423799072125e-05,
    "final_E_plane": 3.5314455990856237e-06,
    "final_E_pose": 1.8914958226411365e-06,
    "final_E_centroids": 0.0,
    "final_E_total": 8.371455073599628e-06
  }
]