[
  {
    "mask_number": 5,
    "image_num": 4,
    "contour_noise": false,
    "canny": true,
    "is_vertical": "False",
    "edges_control": [
      1,
      1,
      1,
      1
    ],
    "no_canny": "False",
    "box_dimensions": [
      0.396,
      0.2,
      0.205
    ],
    "final_weights": [
      0.19999999999999998,
      0.6,
      0.19999999999999998,
      0.0
    ],
    "cntr_line_weights": [
      0.25,
      0.25,
      0.25,
      0.25
    ],
    "canny_seg_weights": [
      0.7,
      0.30000000000000004
    ],
    "init_params": [
      1.0,
      0.0,
      1.0,
      6.123233995736766e-17,
      1.0,
      1.0,
      -1.0,
      1.2246467991473532e-16,
      1.0,
      -1.8369701987210297e-16,
      -1.0,
      1.0,
      1.0,
      0.0,
      0.0,
      0.0,
      0.1523072362468314,
      -0.13587815455625557,
      0.8231448587498333,
      0.0,
      0.0,
      -1.0,
      0.8231448587498333
    ],
    "final_loss": 0.6782569694559987,
    "time_duration": 1.642916500044521,
    "optimized_parameters": [
      -0.013680718644206039,
      0.9999064145895845,
      0.09202278103074202,
      -0.8570744809343036,
      -0.5151925214239873,
      -0.4562038879814769,
      0.010331180916712177,
      -0.9999466319263851,
      -0.22989623295926948,
      0.9999648505875819,
      -0.008384365902983644,
      -0.045967821534113454,
      0.6408589529516446,
      -0.2749951881582266,
      -0.2855433875475417,
      -0.6573754047267935,
      0.16041723903585056,
      -0.1404532000658519,
      0.8293726277952839,
      0.004435966452245717,
      -0.7278844961734007,
      -0.685685410689567,
      0.46574340529469377
    ],
    "final_E_line": 2.692256306509833e-05,
    "final_E_plane": 5.221173459049222e-06,
    "final_E_pose": 5.89703981566392e-07,
    "final_E_centroids": 0.0,
    "final_E_total": 6.782569693769345e-06
  }
]