[
  {
    "mask_number": 7,
    "image_num": 6,
    "contour_noise": false,
    "canny": true,
    "generate_random": false,
    "all_edges_good": true,
    "is_vertical": "False",
    "edges_control": [
      1,
      1,
      1,
      1
    ],
    "no_canny": "False",
    "final_weights": [
      0.19999999999999998,
      0.6,
      0.19999999999999998,
      0.0
    ],
    "cntr_line_weights": [
      0.25,
      0.25,
      0.25,
      0.25
    ],
    "canny_seg_weights": [
      0.7,
      0.30000000000000004
    ],
    "init_params": [
      1.0,
      0.0,
      1.0,
      6.123233995736766e-17,
      1.0,
      1.0,
      -1.0,
      1.2246467991473532e-16,
      1.0,
      -1.8369701987210297e-16,
      -1.0,
      1.0,
      1.0,
      0.0,
      0.0,
      0.0,
      -0.8284965207718319,
      -0.30487498973239363,
      0.9091852737626929,
      0.0,
      0.0,
      -1.0,
      0.9091852737626929,
      0.1,
      0.1
    ],
    "final_loss": 6.669318836304863,
    "time_duration": 13.09200079999573,
    "optimized_parameters": [
      0.2734686625292378,
      -0.9618809129068265,
      -0.5406217421146644,
      -0.27248265676302286,
      0.9621606943558673,
      0.5403666821399976,
      0.12184414182892304,
      -0.9925492456810258,
      -0.4953264348964484,
      0.1897577472676402,
      -0.9818309413294686,
      -0.5171558522410491,
      0.222632899119355,
      0.48227448129273903,
      0.7786816747015853,
      -0.333917304743967,
      -0.45053488587943774,
      -0.5223560567292426,
      1.1570640994023602,
      0.012616941253655214,
      -0.7420188431266163,
      -0.670260284694267,
      0.39362051558132016,
      0.005000000000000007,
      0.005000000000000007
    ],
    "final_E_line": 1.2703916829471085e-06,
    "final_E_plane": 6.669318836312816e-05,
    "final_E_pose": 0.0,
    "final_E_centroids": 0.2734686625293696,
    "final_E_total": -0.961880912906789
  }
]