[
  {
    "mask_number": 13,
    "image_num": 3,
    "contour_noise": false,
    "canny": true,
    "is_vertical": "False",
    "edges_control": [
      1,
      1,
      1,
      0
    ],
    "no_canny": "False",
    "box_dimensions": [
      0.296,
      0.154,
      0.221
    ],
    "final_weights": [
      0.3333333333333333,
      0.3333333333333333,
      0.3333333333333333,
      0.0
    ],
    "cntr_line_weights": [
      0.25,
      0.25,
      0.25,
      0.25
    ],
    "canny_seg_weights": [
      0.7,
      0.30000000000000004
    ],
    "init_params": [
      1.0,
      0.0,
      1.0,
      6.123233995736766e-17,
      1.0,
      1.0,
      -1.0,
      1.2246467991473532e-16,
      1.0,
      -1.8369701987210297e-16,
      -1.0,
      1.0,
      1.0,
      0.0,
      0.0,
      0.0,
      -0.23431417422303505,
      -0.22317130419570155,
      0.8734452377426755,
      0.0,
      0.0,
      -1.0,
      0.8734452377426755
    ],
    "final_loss": 0.44468082115431246,
    "time_duration": 1.914284400001634,
    "optimized_parameters": [
      0.01676507081482186,
      0.9998594563241254,
      0.21106755813533967,
      -0.9860703112359667,
      0.16632901521483062,
      0.1469013757091259,
      -0.018233499951510586,
      -0.9998337559213408,
      -0.29372355966539193,
      0.8178025725250611,
      -0.5754988726076008,
      -0.5123124756645207,
      0.6465734984356615,
      -0.2824727536552608,
      -0.2977920993100671,
      -0.6430176670604559,
      -0.2402651806333165,
      -0.22873311031229387,
      0.8800036315384904,
      0.021819005263426495,
      -0.7482499594903597,
      -0.6630580133991721,
      0.417586275746597
    ],
    "final_E_line": 8.712757342952723e-06,
    "final_E_plane": 3.645819744115911e-06,
    "final_E_pose": 9.818475480625906e-07,
    "final_E_centroids": 0.0,
    "final_E_total": 4.446808211710408e-06
  }
]