[
  {
    "mask_number": 26,
    "image_num": 6,
    "contour_noise": false,
    "canny": true,
    "generate_random": false,
    "all_edges_good": true,
    "is_vertical": "False",
    "edges_control": [
      1,
      1,
      1,
      1
    ],
    "no_canny": "False",
    "final_weights": [
      0.19999999999999998,
      0.6,
      0.19999999999999998,
      0.0
    ],
    "cntr_line_weights": [
      0.25,
      0.25,
      0.25,
      0.25
    ],
    "canny_seg_weights": [
      0.7,
      0.30000000000000004
    ],
    "init_params": [
      1.0,
      0.0,
      1.0,
      6.123233995736766e-17,
      1.0,
      1.0,
      -1.0,
      1.2246467991473532e-16,
      1.0,
      -1.8369701987210297e-16,
      -1.0,
      1.0,
      1.0,
      0.0,
      0.0,
      0.0,
      -0.22007737865281973,
      -0.06393738727405376,
      0.7051248004254546,
      0.0,
      0.0,
      -1.0,
      0.7051248004254546,
      0.15,
      0.15
    ],
    "final_loss": 0.1999377864696147,
    "time_duration": 1.9958294999960344,
    "optimized_parameters": [
      -0.001440729927860145,
      0.9999989621481247,
      -0.0017822894152750123,
      -0.9990564216913965,
      0.043431167120017294,
      0.03759972312091598,
      0.0015577872270032293,
      -0.9999987866487554,
      -0.18676562786257922,
      0.8172489442807342,
      -0.5762847933722095,
      -0.5270280659258566,
      0.6467929308928588,
      -0.28600369951330606,
      -0.2846138064711117,
      -0.647190674822942,
      -0.21686263510056653,
      -0.07362045675801608,
      0.7157164397415042,
      -0.0020254498050205024,
      -0.738369140575601,
      -0.6743937349937114,
      0.4278763765737543,
      0.3862994663842135,
      0.22260550007064053
    ],
    "final_E_line": 1.1586807332645929e-06,
    "final_E_plane": 1.999377864680629e-06,
    "final_E_pose": 0.0,
    "final_E_centroids": -0.0014407299278601,
    "final_E_total": 0.9999989621481248
  }
]