[
  {
    "mask_number": 6,
    "image_num": 3,
    "contour_noise": false,
    "canny": true,
    "is_vertical": "True",
    "edges_control": [
      1,
      1,
      0,
      1
    ],
    "no_canny": "False",
    "box_dimensions": [
      0.296,
      0.154,
      0.221
    ],
    "final_weights": [
      0.19999999999999998,
      0.6,
      0.19999999999999998,
      0.0
    ],
    "cntr_line_weights": [
      0.25,
      0.25,
      0.25,
      0.25
    ],
    "canny_seg_weights": [
      0.7,
      0.30000000000000004
    ],
    "init_params": [
      1.0,
      0.0,
      1.0,
      6.123233995736766e-17,
      1.0,
      1.0,
      -1.0,
      1.2246467991473532e-16,
      1.0,
      -1.8369701987210297e-16,
      -1.0,
      1.0,
      1.0,
      0.0,
      0.0,
      0.0,
      -0.016037426367701828,
      -0.12756126406621138,
      0.7724450536620608,
      0.0,
      0.0,
      -1.0,
      0.7724450536620608
    ],
    "final_loss": 0.1297092659378536,
    "time_duration": 1.5478161000064574,
    "optimized_parameters": [
      0.02675009996038526,
      0.9996421520487524,
      0.05765525070326946,
      -0.9971110731799699,
      -0.0759572757776264,
      -0.09056064527376098,
      -0.025144889435966697,
      -0.9996838172821622,
      -0.26732942563845025,
      0.9820845782899554,
      -0.18844065666973805,
      -0.15074632936927926,
      0.6551379000913399,
      -0.28083245876890667,
      -0.288811862112577,
      -0.6391519148601071,
      -0.016262044345332204,
      -0.13950581025093714,
      0.7851806448359889,
      0.019433937253272623,
      -0.7371572912707068,
      -0.6754416703246917,
      0.4278220507528869
    ],
    "final_E_line": 4.886581841534682e-06,
    "final_E_plane": 1.4357863291024376e-06,
    "final_E_pose": 5.436504209311954e-08,
    "final_E_centroids": 0.0,
    "final_E_total": 1.2970926593832955e-06
  }
]