[
  {
    "mask_number": 16,
    "image_num": 3,
    "contour_noise": false,
    "canny": true,
    "is_vertical": "False",
    "edges_control": [
      1,
      0,
      0,
      0
    ],
    "no_canny": "False",
    "box_dimensions": [
      0.296,
      0.154,
      0.221
    ],
    "final_weights": [
      0.3333333333333333,
      0.3333333333333333,
      0.3333333333333333,
      0.0
    ],
    "cntr_line_weights": [
      0.25,
      0.25,
      0.25,
      0.25
    ],
    "canny_seg_weights": [
      0.7,
      0.30000000000000004
    ],
    "init_params": [
      1.0,
      0.0,
      1.0,
      6.123233995736766e-17,
      1.0,
      1.0,
      -1.0,
      1.2246467991473532e-16,
      1.0,
      -1.8369701987210297e-16,
      -1.0,
      1.0,
      1.0,
      0.0,
      0.0,
      0.0,
      -0.23254750426599954,
      -0.44065413903397754,
      1.128440187713324,
      0.0,
      0.0,
      -1.0,
      1.128440187713324
    ],
    "final_loss": 0.3824659079684811,
    "time_duration": 1.578107400011504,
    "optimized_parameters": [
      0.02225244480680771,
      0.9997523836951879,
      0.36074349227533714,
      -0.9900794589158394,
      0.14050859419103756,
      0.13806509803894423,
      -0.023847235474737806,
      -0.9997156142438489,
      -0.4086620742548136,
      0.8158672719471892,
      -0.5782392191519679,
      -0.5116387228311415,
      0.6399058964942125,
      -0.2841135177980781,
      -0.3091773551389821,
      -0.6435909537174022,
      -0.2433294778368188,
      -0.44152202457718476,
      1.1291599747570762,
      0.029983028114849535,
      -0.7615793465321363,
      -0.6473777235601191,
      0.40203471858500767
    ],
    "final_E_line": 7.015652566864687e-06,
    "final_E_plane": 4.25152432714323e-06,
    "final_E_pose": 2.0680034505625925e-07,
    "final_E_centroids": 0.0,
    "final_E_total": 3.824659079688058e-06
  }
]