[
  {
    "mask_number": 20,
    "image_num": 7,
    "contour_noise": false,
    "canny": true,
    "generate_random": false,
    "all_edges_good": true,
    "is_vertical": "False",
    "edges_control": [
      1,
      0,
      1,
      1
    ],
    "no_canny": "False",
    "final_weights": [
      0.19999999999999998,
      0.6,
      0.19999999999999998,
      0.0
    ],
    "cntr_line_weights": [
      0.25,
      0.25,
      0.25,
      0.25
    ],
    "canny_seg_weights": [
      0.7,
      0.30000000000000004
    ],
    "init_params": [
      1.0,
      0.0,
      1.0,
      6.123233995736766e-17,
      1.0,
      1.0,
      -1.0,
      1.2246467991473532e-16,
      1.0,
      -1.8369701987210297e-16,
      -1.0,
      1.0,
      1.0,
      0.0,
      0.0,
      0.0,
      -0.12302504257696739,
      -0.5631558608081358,
      1.1821635710471687,
      0.0,
      0.0,
      -1.0,
      1.1821635710471687,
      0.1,
      0.1
    ],
    "final_loss": 3.396739022269346,
    "time_duration": 7.913310999996611,
    "optimized_parameters": [
      -0.15036035389440192,
      0.9886333755318312,
      0.4685171662520145,
      -0.11375306087835652,
      0.9935116849671131,
      0.47472636725686757,
      -0.025022841181959497,
      -0.9996869412807199,
      -0.49338421731141,
      0.14898830298539065,
      -0.9888409120460621,
      -0.46876225854226733,
      0.8520708640285662,
      -0.47472432301758755,
      -0.10702423040782362,
      -0.19309936606779363,
      0.1300102013021229,
      -0.5900698627205895,
      1.203524655551033,
      -0.031740220314532885,
      -0.7871951012195476,
      -0.615890820834293,
      0.2808763037748247,
      0.005000000000000011,
      0.009683255686361948
    ],
    "final_E_line": 1.684004979343451e-06,
    "final_E_plane": 3.3967685880938635e-05,
    "final_E_pose": 0.0,
    "final_E_centroids": -0.1503603538944019,
    "final_E_total": 0.9886333755318312
  }
]