[
  {
    "mask_number": 10,
    "image_num": 5,
    "contour_noise": false,
    "canny": true,
    "generate_random": false,
    "all_edges_good": true,
    "is_vertical": "False",
    "edges_control": [
      1,
      1,
      1,
      1
    ],
    "no_canny": "False",
    "box_dimensions": [
      0.396,
      0.2,
      0.205
    ],
    "final_weights": [
      0.19999999999999998,
      0.6,
      0.19999999999999998,
      0.0
    ],
    "cntr_line_weights": [
      0.25,
      0.25,
      0.25,
      0.25
    ],
    "canny_seg_weights": [
      0.7,
      0.30000000000000004
    ],
    "init_params": [
      1.0,
      0.0,
      1.0,
      6.123233995736766e-17,
      1.0,
      1.0,
      -1.0,
      1.2246467991473532e-16,
      1.0,
      -1.8369701987210297e-16,
      -1.0,
      1.0,
      1.0,
      0.0,
      0.0,
      0.0,
      -0.21906587773719213,
      -0.4483255824664655,
      1.1277323170052138,
      0.0,
      0.0,
      -1.0,
      1.1277323170052138
    ],
    "final_loss": 6.588839364553929,
    "time_duration": 1.5211553000262938,
    "optimized_parameters": [
      0.0005031096097519936,
      0.9999998734403929,
      0.36496736133198204,
      -0.9982562266475801,
      0.059029704160222025,
      0.04983310102166449,
      2.6529232019636474e-05,
      -0.9999999996481083,
      -0.44252220097533673,
      0.8462012917088303,
      -0.5328633726498511,
      -0.5310022985823413,
      0.6577056584538714,
      -0.2679624292334116,
      -0.26344267456794346,
      -0.6528532458175208,
      -0.22732769855257037,
      -0.46390229030480196,
      1.1420856055257151,
      -0.003344775620190391,
      -0.6964596136124953,
      -0.7175881960314638,
      0.49569759412816317
    ],
    "final_E_line": 0.0002502893822108,
    "final_E_plane": 7.297387628482054e-05,
    "final_E_pose": 2.0595699106499267e-06,
    "final_E_centroids": 0.0,
    "final_E_total": 6.588839364551797e-05
  }
]