[
  {
    "mask_number": 8,
    "image_num": 3,
    "contour_noise": false,
    "canny": true,
    "is_vertical": "False",
    "edges_control": [
      1,
      1,
      1,
      0
    ],
    "no_canny": "False",
    "box_dimensions": [
      0.296,
      0.154,
      0.221
    ],
    "final_weights": [
      0.3333333333333333,
      0.3333333333333333,
      0.3333333333333333,
      0.0
    ],
    "cntr_line_weights": [
      0.25,
      0.25,
      0.25,
      0.25
    ],
    "canny_seg_weights": [
      0.7,
      0.30000000000000004
    ],
    "init_params": [
      1.0,
      0.0,
      1.0,
      6.123233995736766e-17,
      1.0,
      1.0,
      -1.0,
      1.2246467991473532e-16,
      1.0,
      -1.8369701987210297e-16,
      -1.0,
      1.0,
      1.0,
      0.0,
      0.0,
      0.0,
      -0.2338594622662922,
      -0.32391090570652786,
      0.9897906256932906,
      0.0,
      0.0,
      -1.0,
      0.9897906256932906
    ],
    "final_loss": 0.6807061740367544,
    "time_duration": 1.560521500010509,
    "optimized_parameters": [
      0.012317026493595113,
      0.9999241425534132,
      0.29586993208469786,
      -0.9926153261394581,
      0.12130463442032899,
      0.13129984045704252,
      -0.014803788225127405,
      -0.999890417923932,
      -0.3587245827627208,
      0.8410755384600209,
      -0.5409176819574356,
      -0.5079182221090781,
      0.6380756033472705,
      -0.2800688844502517,
      -0.30559264178179785,
      -0.6488713907024498,
      -0.23937031184855367,
      -0.332259677840759,
      0.9995403709296078,
      0.02652507057655486,
      -0.7539910912071465,
      -0.65634888208311,
      0.4118756896978159
    ],
    "final_E_line": 1.355502985550982e-05,
    "final_E_plane": 5.572997882223965e-06,
    "final_E_pose": 1.293157487644528e-06,
    "final_E_centroids": 0.0,
    "final_E_total": 6.80706174179277e-06
  }
]