[
  {
    "mask_number": 8,
    "image_num": 4,
    "contour_noise": false,
    "canny": true,
    "is_vertical": "True",
    "edges_control": [
      1,
      1,
      1,
      1
    ],
    "no_canny": "False",
    "box_dimensions": [
      0.396,
      0.2,
      0.205
    ],
    "final_weights": [
      0.19999999999999998,
      0.6,
      0.19999999999999998,
      0.0
    ],
    "cntr_line_weights": [
      0.25,
      0.25,
      0.25,
      0.25
    ],
    "canny_seg_weights": [
      0.7,
      0.30000000000000004
    ],
    "init_params": [
      1.0,
      0.0,
      1.0,
      6.123233995736766e-17,
      1.0,
      1.0,
      -1.0,
      1.2246467991473532e-16,
      1.0,
      -1.8369701987210297e-16,
      -1.0,
      1.0,
      1.0,
      0.0,
      0.0,
      0.0,
      0.23570592106860772,
      -0.4316413096035346,
      1.132641436668362,
      0.0,
      0.0,
      -1.0,
      1.132641436668362
    ],
    "final_loss": 0.7752927250208776,
    "time_duration": 2.4363206999842077,
    "optimized_parameters": [
      -0.005898138583512497,
      0.9999826058293734,
      0.32479577455131375,
      -0.8474850825486924,
      -0.530819211085718,
      -0.4607064647836543,
      0.003655591603955922,
      -0.9999933183027417,
      -0.4560171919423396,
      0.9579622620875399,
      0.28689423907850536,
      0.23311679361778778,
      0.6404160269621756,
      -0.28018947229540025,
      -0.28914111584314917,
      -0.6540325581757054,
      0.24493286204831347,
      -0.46916070461866255,
      1.1742084220074616,
      0.003835129869680694,
      -0.7370910504778017,
      -0.6757825649456616,
      0.4467560883252795
    ],
    "final_E_line": 1.6638124667500036e-05,
    "final_E_plane": 2.188062883291363e-05,
    "final_E_pose": 8.196084824645369e-08,
    "final_E_centroids": 0.0,
    "final_E_total": 7.752927209030607e-06
  }
]