[
  {
    "mask_number": 9,
    "image_num": 3,
    "contour_noise": false,
    "canny": true,
    "is_vertical": "True",
    "edges_control": [
      0,
      1,
      0,
      1
    ],
    "no_canny": "False",
    "box_dimensions": [
      0.296,
      0.154,
      0.221
    ],
    "final_weights": [
      0.3333333333333333,
      0.3333333333333333,
      0.3333333333333333,
      0.0
    ],
    "cntr_line_weights": [
      0.25,
      0.25,
      0.25,
      0.25
    ],
    "canny_seg_weights": [
      0.7,
      0.30000000000000004
    ],
    "init_params": [
      1.0,
      0.0,
      1.0,
      6.123233995736766e-17,
      1.0,
      1.0,
      -1.0,
      1.2246467991473532e-16,
      1.0,
      -1.8369701987210297e-16,
      -1.0,
      1.0,
      1.0,
      0.0,
      0.0,
      0.0,
      0.2962075854681116,
      -0.319469148846156,
      1.0005122831666782,
      0.0,
      0.0,
      -1.0,
      1.0005122831666782
    ],
    "final_loss": 0.18008939454817008,
    "time_duration": 1.8198848000029102,
    "optimized_parameters": [
      0.02280197999229536,
      0.9997400010544955,
      0.26459073546962736,
      -0.8341430823688156,
      -0.5515481104462504,
      -0.4910484242405383,
      -0.024022365908054427,
      -0.9997114213305867,
      -0.38719211864462755,
      0.9301261084961429,
      0.36724027869224823,
      0.3272718362624009,
      0.6488275543281756,
      -0.283518359058788,
      -0.297803196036968,
      -0.6402760351999812,
      0.30222596028752363,
      -0.32966546366715926,
      1.0121268168939,
      0.02338584028269447,
      -0.7492615519364859,
      -0.6618611857974696,
      0.41581400410174485
    ],
    "final_E_line": 3.081157388943857e-06,
    "final_E_plane": 2.231294147592285e-06,
    "final_E_pose": 9.02303003631602e-08,
    "final_E_centroids": 0.0,
    "final_E_total": 1.8008939456331007e-06
  }
]