[
  {
    "mask_number": 1,
    "image_num": 6,
    "contour_noise": false,
    "canny": true,
    "generate_random": false,
    "all_edges_good": true,
    "is_vertical": "False",
    "edges_control": [
      1,
      1,
      1,
      1
    ],
    "no_canny": "False",
    "final_weights": [
      0.19999999999999998,
      0.6,
      0.19999999999999998,
      0.0
    ],
    "cntr_line_weights": [
      0.25,
      0.25,
      0.25,
      0.25
    ],
    "canny_seg_weights": [
      0.7,
      0.30000000000000004
    ],
    "init_params": [
      1.0,
      0.0,
      1.0,
      6.123233995736766e-17,
      1.0,
      1.0,
      -1.0,
      1.2246467991473532e-16,
      1.0,
      -1.8369701987210297e-16,
      -1.0,
      1.0,
      1.0,
      0.0,
      0.0,
      0.0,
      0.17157718364098729,
      0.0816173049654248,
      0.5557643966564372,
      0.0,
      0.0,
      -1.0,
      0.5557643966564372,
      0.1,
      0.1
    ],
    "final_loss": 0.4919603397265387,
    "time_duration": 4.630598399999144,
    "optimized_parameters": [
      -0.0033614633521815433,
      0.9999943502661072,
      -0.3206568797979389,
      -0.8483264269477033,
      -0.529473581344918,
      -0.477867278901864,
      -0.0054767588437368495,
      -0.999985002443831,
      -0.0002128081200090656,
      0.9998623919791374,
      -0.016589065849904338,
      -0.03837507789042456,
      0.6465467016931808,
      -0.271389170774486,
      -0.29126136930794183,
      -0.6507627027303577,
      0.17257214875206747,
      0.07697047269199585,
      0.5607646995687863,
      0.0234082494314731,
      -0.7300155838060638,
      -0.6830295024806864,
      0.4351688760570434,
      0.39044535218439536,
      0.222919009764717
    ],
    "final_E_line": 1.4532410671694385e-06,
    "final_E_plane": 4.91960339690606e-06,
    "final_E_pose": 0.0,
    "final_E_centroids": -0.0033614633521815,
    "final_E_total": 0.9999943502661072
  }
]