[
  {
    "mask_number": 1,
    "image_num": 3,
    "contour_noise": false,
    "canny": false,
    "generate_random": false,
    "all_edges_good": true,
    "is_vertical": "True",
    "edges_control": [
      0,
      0,
      0,
      0
    ],
    "no_canny": "True",
    "box_dimensions": [
      0.296,
      0.154,
      0.221
    ],
    "final_weights": [
      0.19999999999999998,
      0.6,
      0.19999999999999998,
      0.0
    ],
    "cntr_line_weights": [
      0.25,
      0.25,
      0.25,
      0.25
    ],
    "canny_seg_weights": [
      0.7,
      0.30000000000000004
    ],
    "init_params": [
      1.0,
      0.0,
      1.0,
      6.123233995736766e-17,
      1.0,
      1.0,
      -1.0,
      1.2246467991473532e-16,
      1.0,
      -1.8369701987210297e-16,
      -1.0,
      1.0,
      1.0,
      0.0,
      0.0,
      0.0,
      0.2936141373475153,
      0.09006228643523342,
      0.5465475736181473,
      0.0,
      0.0,
      -1.0,
      0.5465475736181473
    ],
    "final_loss": 0.0735119917686749,
    "time_duration": 1.4623187000397593,
    "optimized_parameters": [
      0.012215475268088529,
      0.9999253882985508,
      -0.3634894783098285,
      -0.8431327280738757,
      -0.5377054982522792,
      -0.4875386332239731,
      -0.021288627187782183,
      -0.999773371495991,
      -0.053056120040715145,
      0.9339934566305584,
      0.35729011037450775,
      0.32219061536932464,
      0.6503230534376105,
      -0.2726387519767132,
      -0.29588232749781984,
      -0.6443614555221665,
      0.2986752429386295,
      0.07051008126843608,
      0.568147793432313,
      0.033482432519938626,
      -0.7359168567671017,
      -0.6762435261343199,
      0.4260954615631887
    ],
    "final_E_line": 2.2958517947843404e-06,
    "final_E_plane": 1.281282120020646e-06,
    "final_E_pose": 3.2821885406457165e-08,
    "final_E_centroids": 0.0,
    "final_E_total": 7.351199142048715e-07
  }
]