[
  {
    "mask_number": 6,
    "image_num": 4,
    "contour_noise": false,
    "canny": true,
    "is_vertical": "False",
    "edges_control": [
      1,
      1,
      0,
      1
    ],
    "no_canny": "False",
    "box_dimensions": [
      0.396,
      0.2,
      0.205
    ],
    "final_weights": [
      0.3333333333333333,
      0.3333333333333333,
      0.3333333333333333,
      0.0
    ],
    "cntr_line_weights": [
      0.25,
      0.25,
      0.25,
      0.25
    ],
    "canny_seg_weights": [
      0.7,
      0.30000000000000004
    ],
    "init_params": [
      1.0,
      0.0,
      1.0,
      6.123233995736766e-17,
      1.0,
      1.0,
      -1.0,
      1.2246467991473532e-16,
      1.0,
      -1.8369701987210297e-16,
      -1.0,
      1.0,
      1.0,
      0.0,
      0.0,
      0.0,
      -0.24179513281893933,
      -0.393541339784185,
      1.098686834738647,
      0.0,
      0.0,
      -1.0,
      1.098686834738647
    ],
    "final_loss": 0.36292048663196763,
    "time_duration": 1.4226870000129566,
    "optimized_parameters": [
      -0.004559113940496129,
      0.9999896071860338,
      0.3198061577694084,
      -0.9978506227418598,
      0.06552964744061611,
      0.07052729762504836,
      0.004679413395713577,
      -0.9999890514852098,
      -0.4018550751047565,
      0.8490677040089231,
      -0.5282840467106844,
      -0.5330715408821449,
      0.6521462664837067,
      -0.27123451929026066,
      -0.2693297635272943,
      -0.6546743932177954,
      -0.24887821401960838,
      -0.40109954793498914,
      1.1067255327147938,
      -0.0038557841760399544,
      -0.70641577668453,
      -0.7077866086466954,
      0.4990228602407437
    ],
    "final_E_line": 7.320419056862855e-06,
    "final_E_plane": 2.640820675752564e-06,
    "final_E_pose": 9.263748661247876e-07,
    "final_E_centroids": 0.0,
    "final_E_total": 3.629204866246735e-06
  }
]