[
  {
    "mask_number": 0,
    "image_num": 3,
    "contour_noise": false,
    "canny": true,
    "generate_random": false,
    "all_edges_good": true,
    "is_vertical": "True",
    "edges_control": [
      1,
      1,
      1,
      1
    ],
    "no_canny": "False",
    "box_dimensions": [
      0.296,
      0.154,
      0.221
    ],
    "final_weights": [
      0.19999999999999998,
      0.6,
      0.19999999999999998,
      0.0
    ],
    "cntr_line_weights": [
      0.25,
      0.25,
      0.25,
      0.25
    ],
    "canny_seg_weights": [
      0.7,
      0.30000000000000004
    ],
    "init_params": [
      1.0,
      0.0,
      1.0,
      6.123233995736766e-17,
      1.0,
      1.0,
      -1.0,
      1.2246467991473532e-16,
      1.0,
      -1.8369701987210297e-16,
      -1.0,
      1.0,
      1.0,
      0.0,
      0.0,
      0.0,
      0.14075266444141962,
      0.08464554185401546,
      0.5428950807033515,
      0.0,
      0.0,
      -1.0,
      0.5428950807033515
    ],
    "final_loss": 0.2454339235572173,
    "time_duration": 1.529137400095351,
    "optimized_parameters": [
      0.021670176037780535,
      0.9997651741637499,
      -0.35908051277060504,
      -0.9393845175102827,
      -0.3428654667099763,
      -0.32060313029122034,
      -0.025572058850512357,
      -0.9996729814325228,
      -0.05748574199719747,
      0.9948361209767856,
      0.1014942973768231,
      0.09934695677331999,
      0.6532413631552039,
      -0.27434935836836016,
      -0.29201606892418325,
      -0.6424443684211898,
      0.1398940235340625,
      0.06556899397578832,
      0.5629906927243891,
      0.02900564477277961,
      -0.7336408616481128,
      -0.6789180795144286,
      0.4262709447609173
    ],
    "final_E_line": 1.066183400014173e-05,
    "final_E_plane": 1.008673183899118e-06,
    "final_E_pose": 2.0039637286217934e-07,
    "final_E_centroids": 0.0,
    "final_E_total": 2.454339260525477e-06
  }
]