[
  {
    "mask_number": 3,
    "image_num": 6,
    "contour_noise": false,
    "canny": true,
    "generate_random": false,
    "all_edges_good": true,
    "is_vertical": "False",
    "edges_control": [
      1,
      1,
      1,
      1
    ],
    "no_canny": "False",
    "final_weights": [
      0.19999999999999998,
      0.6,
      0.19999999999999998,
      0.0
    ],
    "cntr_line_weights": [
      0.25,
      0.25,
      0.25,
      0.25
    ],
    "canny_seg_weights": [
      0.7,
      0.30000000000000004
    ],
    "init_params": [
      1.0,
      0.0,
      1.0,
      6.123233995736766e-17,
      1.0,
      1.0,
      -1.0,
      1.2246467991473532e-16,
      1.0,
      -1.8369701987210297e-16,
      -1.0,
      1.0,
      1.0,
      0.0,
      0.0,
      0.0,
      0.16208505724924263,
      -0.06517590530451839,
      0.7118930951114177,
      0.0,
      0.0,
      -1.0,
      0.7118930951114177,
      0.15,
      0.15
    ],
    "final_loss": 0.15150600482845275,
    "time_duration": 3.183047099999385,
    "optimized_parameters": [
      0.007413220642118223,
      0.9999725217029382,
      -0.0013929523100708106,
      -0.8465890641939723,
      -0.532247082086467,
      -0.47674457766886874,
      -0.01255950862631341,
      -0.9999211262612283,
      -0.1880303985787831,
      0.9998395031611176,
      -0.017915577733395253,
      -0.034227131608591595,
      0.6466234260123731,
      -0.273048569011479,
      -0.29274281536266555,
      -0.649326010527282,
      0.1703135636154522,
      -0.07329412313972596,
      0.7209441757783669,
      0.023993633501168777,
      -0.7332899914384825,
      -0.6794925268232181,
      0.43204389185301845,
      0.3871018402076606,
      0.221981763551482
    ],
    "final_E_line": 9.427534684181444e-07,
    "final_E_plane": 1.515060048342086e-06,
    "final_E_pose": 0.0,
    "final_E_centroids": 0.0074132206422021,
    "final_E_total": 0.9999725217029376
  }
]