[
  {
    "mask_number": 4,
    "image_num": 7,
    "contour_noise": false,
    "canny": true,
    "generate_random": false,
    "all_edges_good": true,
    "is_vertical": "False",
    "edges_control": [
      1,
      1,
      1,
      1
    ],
    "no_canny": "False",
    "final_weights": [
      0.19999999999999998,
      0.6,
      0.19999999999999998,
      0.0
    ],
    "cntr_line_weights": [
      0.25,
      0.25,
      0.25,
      0.25
    ],
    "canny_seg_weights": [
      0.7,
      0.30000000000000004
    ],
    "init_params": [
      1.0,
      0.0,
      1.0,
      6.123233995736766e-17,
      1.0,
      1.0,
      -1.0,
      1.2246467991473532e-16,
      1.0,
      -1.8369701987210297e-16,
      -1.0,
      1.0,
      1.0,
      0.0,
      0.0,
      0.0,
      -0.27859115721370403,
      -0.09925611759805472,
      0.6302918393216704,
      0.0,
      0.0,
      -1.0,
      0.6302918393216704,
      0.1,
      0.1
    ],
    "final_loss": 1.023570283851425,
    "time_duration": 2.173680699997931,
    "optimized_parameters": [
      -0.004528964722036871,
      0.9999897441867036,
      0.07677117013575582,
      -0.9395991516016264,
      0.34227683869923287,
      0.28020414589599335,
      0.007115710823369581,
      -0.9999746830092725,
      -0.24658193055491903,
      0.7197735872066711,
      -0.69420889014749,
      -0.5877044673703519,
      0.6446779161983763,
      -0.30071086685378146,
      -0.2880779323138674,
      -0.6410729005628554,
      -0.286035029580953,
      -0.10855844873879272,
      0.641234716220662,
      -0.014120202121912636,
      -0.7570812140453521,
      -0.6531681676505585,
      0.332607681439264,
      0.2705119677850703,
      0.20373221600640795
    ],
    "final_E_line": 1.0352589072022994e-06,
    "final_E_plane": 1.0235702838510467e-05,
    "final_E_pose": 0.0,
    "final_E_centroids": -0.0045289647220368,
    "final_E_total": 0.9999897441867036
  }
]