[
  {
    "mask_number": 12,
    "image_num": 3,
    "contour_noise": false,
    "canny": false,
    "generate_random": false,
    "all_edges_good": true,
    "is_vertical": "True",
    "edges_control": [
      0,
      0,
      0,
      0
    ],
    "no_canny": "True",
    "box_dimensions": [
      0.296,
      0.154,
      0.221
    ],
    "final_weights": [
      0.19999999999999998,
      0.6,
      0.19999999999999998,
      0.0
    ],
    "cntr_line_weights": [
      0.25,
      0.25,
      0.25,
      0.25
    ],
    "canny_seg_weights": [
      0.7,
      0.30000000000000004
    ],
    "init_params": [
      1.0,
      0.0,
      1.0,
      6.123233995736766e-17,
      1.0,
      1.0,
      -1.0,
      1.2246467991473532e-16,
      1.0,
      -1.8369701987210297e-16,
      -1.0,
      1.0,
      1.0,
      0.0,
      0.0,
      0.0,
      -0.013061568122930883,
      -0.3319027287529117,
      1.0060573587038906,
      0.0,
      0.0,
      -1.0,
      1.0060573587038906
    ],
    "final_loss": 0.28535590559870117,
    "time_duration": 1.3043073000153527,
    "optimized_parameters": [
      -0.0036264434453668355,
      0.999993424432794,
      0.2680960430853757,
      -0.9883677620796031,
      -0.15208276329452117,
      -0.11291948766535168,
      0.0019455495998571429,
      -0.9999981074174902,
      -0.3897900419678646,
      0.9928176304505802,
      -0.11963758891556472,
      -0.12890439548130803,
      0.6400239799854667,
      -0.28624816864351466,
      -0.2939325281713146,
      -0.6496421783381435,
      -0.01354149212162015,
      -0.3408215446251478,
      1.015712781188582,
      0.004329646418180777,
      -0.748313238575616,
      -0.6633314037025642,
      0.4187715459027553
    ],
    "final_E_line": 1.0901398834291505e-05,
    "final_E_plane": 3.17646748644005e-06,
    "final_E_pose": 6.330965316212692e-08,
    "final_E_centroids": 0.0,
    "final_E_total": 2.853559056043588e-06
  }
]