[
  {
    "mask_number": 0,
    "image_num": 6,
    "contour_noise": false,
    "canny": true,
    "generate_random": false,
    "all_edges_good": true,
    "is_vertical": "False",
    "edges_control": [
      1,
      1,
      1,
      1
    ],
    "no_canny": "False",
    "final_weights": [
      0.19999999999999998,
      0.6,
      0.19999999999999998,
      0.0
    ],
    "cntr_line_weights": [
      0.25,
      0.25,
      0.25,
      0.25
    ],
    "canny_seg_weights": [
      0.7,
      0.30000000000000004
    ],
    "init_params": [
      1.0,
      0.0,
      1.0,
      6.123233995736766e-17,
      1.0,
      1.0,
      -1.0,
      1.2246467991473532e-16,
      1.0,
      -1.8369701987210297e-16,
      -1.0,
      1.0,
      1.0,
      0.0,
      0.0,
      0.0,
      -0.6456800216092401,
      -0.0408199076086303,
      0.6173306760216547,
      0.0,
      0.0,
      -1.0,
      0.6173306760216547,
      0.1,
      0.1
    ],
    "final_loss": 27.892700935674544,
    "time_duration": 13.305066900000384,
    "optimized_parameters": [
      0.17053812943784144,
      -0.9853510777422656,
      -0.17010516947946203,
      -0.025449028570106322,
      0.9996761210236241,
      0.09912541639122058,
      -0.12031273866988659,
      0.9927360398986999,
      0.2614081102512564,
      0.025419987404144286,
      -0.9996768599104281,
      -0.09896912405813718,
      -0.030035647897440933,
      0.026813442363981213,
      -0.4113143678282517,
      -0.9106038600741941,
      -0.6707638909431516,
      -0.04438389644212802,
      0.6202096360252034,
      0.02418071812675443,
      -0.750218292165049,
      -0.6607479148448768,
      0.392724176782827,
      0.005000000000000014,
      0.7
    ],
    "final_E_line": 3.214701532625872e-06,
    "final_E_plane": 0.0002789270093567,
    "final_E_pose": 0.0,
    "final_E_centroids": 0.1705381075208335,
    "final_E_total": -0.9853510815355182
  }
]