[
  {
    "mask_number": 20,
    "image_num": 6,
    "contour_noise": false,
    "canny": true,
    "generate_random": false,
    "all_edges_good": true,
    "is_vertical": "False",
    "edges_control": [
      1,
      1,
      1,
      1
    ],
    "no_canny": "False",
    "final_weights": [
      0.19999999999999998,
      0.6,
      0.19999999999999998,
      0.0
    ],
    "cntr_line_weights": [
      0.25,
      0.25,
      0.25,
      0.25
    ],
    "canny_seg_weights": [
      0.7,
      0.30000000000000004
    ],
    "init_params": [
      1.0,
      0.0,
      1.0,
      6.123233995736766e-17,
      1.0,
      1.0,
      -1.0,
      1.2246467991473532e-16,
      1.0,
      -1.8369701987210297e-16,
      -1.0,
      1.0,
      1.0,
      0.0,
      0.0,
      0.0,
      -0.2099698419256093,
      0.08794985785419168,
      0.540013304911144,
      0.0,
      0.0,
      -1.0,
      0.540013304911144,
      0.1,
      0.1
    ],
    "final_loss": 92.18707206362585,
    "time_duration": 4.5375786000004155,
    "optimized_parameters": [
      0.14212322473566905,
      -0.9898489728189545,
      0.24141904282126095,
      -0.0721236304698447,
      0.9973956997741003,
      -0.14975351970122833,
      -0.03340886628094541,
      -0.9994417680154382,
      0.012112029868798316,
      0.05310234567690333,
      -0.998589075087254,
      0.1249055088301072,
      0.018046458233798964,
      0.024415522806827912,
      0.09991480308228681,
      -0.9945326740579962,
      0.75,
      0.0317364800975118,
      0.5726326218656969,
      -0.020570387246514974,
      -0.7444488726594048,
      -0.6673625215463426,
      0.4212088077874688,
      0.005000000000036065,
      0.005985675700197662
    ],
    "final_E_line": 9.898149601376042e-06,
    "final_E_plane": 0.0009218707206362,
    "final_E_pose": 0.0,
    "final_E_centroids": 0.142123224735669,
    "final_E_total": -0.9898489728189545
  }
]