[
  {
    "mask_number": 2,
    "image_num": 3,
    "contour_noise": false,
    "canny": true,
    "is_vertical": "True",
    "edges_control": [
      1,
      1,
      1,
      1
    ],
    "no_canny": "False",
    "box_dimensions": [
      0.296,
      0.154,
      0.221
    ],
    "final_weights": [
      0.3333333333333333,
      0.3333333333333333,
      0.3333333333333333,
      0.0
    ],
    "cntr_line_weights": [
      0.25,
      0.25,
      0.25,
      0.25
    ],
    "canny_seg_weights": [
      0.7,
      0.30000000000000004
    ],
    "init_params": [
      1.0,
      0.0,
      1.0,
      6.123233995736766e-17,
      1.0,
      1.0,
      -1.0,
      1.2246467991473532e-16,
      1.0,
      -1.8369701987210297e-16,
      -1.0,
      1.0,
      1.0,
      0.0,
      0.0,
      0.0,
      -0.0171372572484648,
      0.08042431227223755,
      0.542340759223547,
      0.0,
      0.0,
      -1.0,
      0.542340759223547
    ],
    "final_loss": 0.4541877298984167,
    "time_duration": 1.4805052999872714,
    "optimized_parameters": [
      0.025792666675287457,
      0.9996673138329243,
      -0.35690636536879355,
      -0.9952402555259372,
      -0.09745169973245457,
      -0.09689668453860183,
      -0.02569669823811067,
      -0.9996697853290446,
      -0.05768576464166202,
      0.9857734546829701,
      -0.16807943372877893,
      -0.1468546153725844,
      0.6533978987982808,
      -0.27717781921934054,
      -0.28967149354686256,
      -0.6421324382130749,
      -0.016432479299545028,
      0.06128229476949934,
      0.5629357130775156,
      0.022571766903394685,
      -0.7342297274265772,
      -0.6785257715831597,
      0.4273325882525229
    ],
    "final_E_line": 1.1019415567797595e-05,
    "final_E_plane": 1.985716988202434e-06,
    "final_E_pose": 6.204993406814951e-07,
    "final_E_centroids": 0.0,
    "final_E_total": 4.541877298893841e-06
  }
]