[
  {
    "mask_number": 7,
    "image_num": 3,
    "contour_noise": false,
    "canny": true,
    "is_vertical": "False",
    "edges_control": [
      1,
      1,
      1,
      1
    ],
    "no_canny": "False",
    "box_dimensions": [
      0.296,
      0.154,
      0.221
    ],
    "final_weights": [
      0.3333333333333333,
      0.3333333333333333,
      0.3333333333333333,
      0.0
    ],
    "cntr_line_weights": [
      0.25,
      0.25,
      0.25,
      0.25
    ],
    "canny_seg_weights": [
      0.7,
      0.30000000000000004
    ],
    "init_params": [
      1.0,
      0.0,
      1.0,
      6.123233995736766e-17,
      1.0,
      1.0,
      -1.0,
      1.2246467991473532e-16,
      1.0,
      -1.8369701987210297e-16,
      -1.0,
      1.0,
      1.0,
      0.0,
      0.0,
      0.0,
      -0.23792504608060655,
      -0.01916951827589055,
      0.6474773520558238,
      0.0,
      0.0,
      -1.0,
      0.6474773520558238
    ],
    "final_loss": 0.36098715207620397,
    "time_duration": 1.1438683000160381,
    "optimized_parameters": [
      0.005416580687275906,
      0.9999853302192291,
      -0.04912863052620355,
      -0.9845867392313976,
      0.17489697804648952,
      0.1504435255376562,
      -0.004685707462535198,
      -0.9999890220125344,
      -0.10364000453030786,
      0.8205680867517698,
      -0.5715487861981243,
      -0.5117022401672614,
      0.6468206467748645,
      -0.2893536407045209,
      -0.2895663751482438,
      -0.6434662663266262,
      -0.24296228793446215,
      -0.023417353364456515,
      0.6525282067140488,
      0.002216441725878734,
      -0.7469721093656475,
      -0.6648516791104077,
      0.4168808825273778
    ],
    "final_E_line": 8.636263383771566e-06,
    "final_E_plane": 1.5521756208544316e-06,
    "final_E_pose": 6.411755577793286e-07,
    "final_E_centroids": 0.0,
    "final_E_total": 3.609871520801775e-06
  }
]