[
  {
    "mask_number": 10,
    "image_num": 3,
    "contour_noise": false,
    "canny": true,
    "is_vertical": "True",
    "edges_control": [
      0,
      1,
      0,
      1
    ],
    "no_canny": "False",
    "box_dimensions": [
      0.296,
      0.154,
      0.221
    ],
    "final_weights": [
      0.3333333333333333,
      0.3333333333333333,
      0.3333333333333333,
      0.0
    ],
    "cntr_line_weights": [
      0.25,
      0.25,
      0.25,
      0.25
    ],
    "canny_seg_weights": [
      0.7,
      0.30000000000000004
    ],
    "init_params": [
      1.0,
      0.0,
      1.0,
      6.123233995736766e-17,
      1.0,
      1.0,
      -1.0,
      1.2246467991473532e-16,
      1.0,
      -1.8369701987210297e-16,
      -1.0,
      1.0,
      1.0,
      0.0,
      0.0,
      0.0,
      0.14599408608556905,
      -0.3249330531484343,
      1.0015194304043171,
      0.0,
      0.0,
      -1.0,
      1.0015194304043171
    ],
    "final_loss": 0.9092231269232272,
    "time_duration": 2.4897259999997914,
    "optimized_parameters": [
      0.02868405274962777,
      0.9995885279043132,
      0.26445654989321304,
      -0.9352908555375583,
      -0.35387994510577014,
      -0.32102181657855366,
      -0.027448532143329783,
      -0.9996232180593743,
      -0.390876998296644,
      0.9942309780131398,
      0.10726025526413747,
      0.10065799582482815,
      0.6510021765725812,
      -0.27749680821218875,
      -0.2945851304566609,
      -0.6421925633671676,
      0.14380468600768165,
      -0.33437718248621423,
      1.0111528692219813,
      0.027138234859531037,
      -0.7396628444828683,
      -0.6724302140003201,
      0.42870076797530626
    ],
    "final_E_line": 1.7613003051222383e-05,
    "final_E_plane": 8.046502122310345e-06,
    "final_E_pose": 1.6171886341998858e-06,
    "final_E_centroids": 0.0,
    "final_E_total": 9.092231269244204e-06
  }
]