[
  {
    "mask_number": 4,
    "image_num": 6,
    "contour_noise": false,
    "canny": true,
    "generate_random": false,
    "all_edges_good": true,
    "is_vertical": "False",
    "edges_control": [
      1,
      1,
      1,
      1
    ],
    "no_canny": "False",
    "final_weights": [
      0.19999999999999998,
      0.6,
      0.19999999999999998,
      0.0
    ],
    "cntr_line_weights": [
      0.25,
      0.25,
      0.25,
      0.25
    ],
    "canny_seg_weights": [
      0.7,
      0.30000000000000004
    ],
    "init_params": [
      1.0,
      0.0,
      1.0,
      6.123233995736766e-17,
      1.0,
      1.0,
      -1.0,
      1.2246467991473532e-16,
      1.0,
      -1.8369701987210297e-16,
      -1.0,
      1.0,
      1.0,
      0.0,
      0.0,
      0.0,
      -0.652102862730772,
      -0.1592713090854174,
      0.7486424202579305,
      0.0,
      0.0,
      -1.0,
      0.7486424202579305,
      0.15,
      0.15
    ],
    "final_loss": 1.1314452290770245,
    "time_duration": 3.3219040999974823,
    "optimized_parameters": [
      -0.01419391668332138,
      0.9998992612905183,
      0.16460971819479558,
      -0.7388684564707885,
      0.6738496894950282,
      0.6551722131030656,
      0.013258568205023889,
      -0.9999121013215878,
      -0.2958204392470094,
      0.5856348738500634,
      -0.8105749777354032,
      -0.7787403669666324,
      0.6417665212274233,
      -0.2788057904795794,
      -0.2824051915846939,
      -0.6562395684449804,
      -0.6472919775291909,
      -0.17098162151315602,
      0.7610714037652987,
      -0.003450391454236122,
      -0.7285073232868906,
      -0.6850293239829323,
      0.3945614610011474,
      0.25780953629515935,
      0.19418414119548977
    ],
    "final_E_line": 8.396649541817254e-07,
    "final_E_plane": 1.1314452161157656e-05,
    "final_E_pose": 0.0,
    "final_E_centroids": -0.0141939166833213,
    "final_E_total": 0.9998992612905184
  }
]