[
  {
    "mask_number": 4,
    "image_num": 3,
    "contour_noise": false,
    "canny": true,
    "is_vertical": "True",
    "edges_control": [
      1,
      1,
      0,
      1
    ],
    "no_canny": "False",
    "box_dimensions": [
      0.296,
      0.154,
      0.221
    ],
    "final_weights": [
      0.3333333333333333,
      0.3333333333333333,
      0.3333333333333333,
      0.0
    ],
    "cntr_line_weights": [
      0.25,
      0.25,
      0.25,
      0.25
    ],
    "canny_seg_weights": [
      0.7,
      0.30000000000000004
    ],
    "init_params": [
      1.0,
      0.0,
      1.0,
      6.123233995736766e-17,
      1.0,
      1.0,
      -1.0,
      1.2246467991473532e-16,
      1.0,
      -1.8369701987210297e-16,
      -1.0,
      1.0,
      1.0,
      0.0,
      0.0,
      0.0,
      0.2927734855413753,
      -0.11660970271158866,
      0.7711380302326767,
      0.0,
      0.0,
      -1.0,
      0.7711380302326767
    ],
    "final_loss": 110.0516043805443,
    "time_duration": 4.716400500008604,
    "optimized_parameters": [
      -0.05642542406034758,
      -0.9984068166536515,
      -0.06900467567736665,
      0.41486139845277753,
      0.9098846190996253,
      0.3012378147098318,
      -0.4882119590161391,
      -0.8727250902068034,
      -0.3896649089544018,
      -0.41251595511081196,
      -0.9109503755853117,
      -0.3043684874289364,
      0.7159681178829324,
      -0.585260602383824,
      0.04340071905018449,
      0.3781217516679279,
      0.6927921589901224,
      0.04458716973668993,
      0.8119429598649279,
      0.38045258042234875,
      -0.8708774570366885,
      -0.31117244235037417,
      0.027909778734657838
    ],
    "final_E_line": 0.0021165737674958,
    "final_E_plane": 0.0011810322702088,
    "final_E_pose": 3.942093713013605e-06,
    "final_E_centroids": 0.0,
    "final_E_total": 0.0011005160438059
  }
]