[
  {
    "mask_number": 11,
    "image_num": 3,
    "contour_noise": false,
    "canny": true,
    "is_vertical": "False",
    "edges_control": [
      1,
      1,
      1,
      1
    ],
    "no_canny": "False",
    "box_dimensions": [
      0.296,
      0.154,
      0.221
    ],
    "final_weights": [
      0.3333333333333333,
      0.3333333333333333,
      0.3333333333333333,
      0.0
    ],
    "cntr_line_weights": [
      0.25,
      0.25,
      0.25,
      0.25
    ],
    "canny_seg_weights": [
      0.7,
      0.30000000000000004
    ],
    "init_params": [
      1.0,
      0.0,
      1.0,
      6.123233995736766e-17,
      1.0,
      1.0,
      -1.0,
      1.2246467991473532e-16,
      1.0,
      -1.8369701987210297e-16,
      -1.0,
      1.0,
      1.0,
      0.0,
      0.0,
      0.0,
      -0.22937998808373375,
      -0.12297628717955694,
      0.7652346323547919,
      0.0,
      0.0,
      -1.0,
      0.7652346323547919
    ],
    "final_loss": 0.2898590565530676,
    "time_duration": 1.3970978999859653,
    "optimized_parameters": [
      0.018094705691784913,
      0.9998362774104445,
      0.09891961782317943,
      -0.9815809252447142,
      0.19104681938160278,
      0.15293748271185792,
      -0.01541067658713456,
      -0.9998812484726531,
      -0.21296693706808317,
      0.8144375563239568,
      -0.5802512101228805,
      -0.5116964092787605,
      0.6556236702098129,
      -0.2838440858014269,
      -0.28177107837620524,
      -0.6404648291724592,
      -0.24367396316543785,
      -0.12734432590079198,
      0.7696701823135441,
      0.005887300490400639,
      -0.7331186319680131,
      -0.6800752981503653,
      0.4315097722148667
    ],
    "final_E_line": 6.582819466633926e-06,
    "final_E_plane": 1.940920554215179e-06,
    "final_E_pose": 1.720316757536926e-07,
    "final_E_centroids": 0.0,
    "final_E_total": 2.8985905655342657e-06
  }
]