[
  {
    "mask_number": 8,
    "image_num": 3,
    "contour_noise": false,
    "canny": true,
    "is_vertical": "False",
    "edges_control": [
      1,
      1,
      1,
      0
    ],
    "no_canny": "False",
    "box_dimensions": [
      0.296,
      0.154,
      0.221
    ],
    "final_weights": [
      0.19999999999999998,
      0.6,
      0.19999999999999998,
      0.0
    ],
    "cntr_line_weights": [
      0.25,
      0.25,
      0.25,
      0.25
    ],
    "canny_seg_weights": [
      0.7,
      0.30000000000000004
    ],
    "init_params": [
      1.0,
      0.0,
      1.0,
      6.123233995736766e-17,
      1.0,
      1.0,
      -1.0,
      1.2246467991473532e-16,
      1.0,
      -1.8369701987210297e-16,
      -1.0,
      1.0,
      1.0,
      0.0,
      0.0,
      0.0,
      -0.23367904191917716,
      -0.3243133103986989,
      0.9902064309409961,
      0.0,
      0.0,
      -1.0,
      0.9902064309409961
    ],
    "final_loss": 0.4290017032067886,
    "time_duration": 1.7134293999988586,
    "optimized_parameters": [
      0.012639077878706717,
      0.9999201236650803,
      0.29578759960982937,
      -0.9931534477864832,
      0.11681707559589655,
      0.12951697517779842,
      -0.01481278713420802,
      -0.9998902846499397,
      -0.35867577444135706,
      0.8352254061816343,
      -0.5499077385060116,
      -0.5090219443844082,
      0.6394308224207712,
      -0.2810391166518891,
      -0.3039764954571174,
      -0.6478761675346891,
      -0.23952811307708793,
      -0.3322297962218409,
      0.9995416458608215,
      0.024586822505643823,
      -0.7532882960907287,
      -0.6572307289923432,
      0.41255391609768755
    ],
    "final_E_line": 1.4635960064209548e-05,
    "final_E_plane": 6.233489494885441e-06,
    "final_E_pose": 1.935451734237753e-07,
    "final_E_centroids": 0.0,
    "final_E_total": 4.290017015873262e-06
  }
]