[
  {
    "mask_number": 0,
    "image_num": 3,
    "contour_noise": false,
    "canny": true,
    "is_vertical": "True",
    "edges_control": [
      1,
      1,
      1,
      1
    ],
    "no_canny": "False",
    "box_dimensions": [
      0.296,
      0.154,
      0.221
    ],
    "final_weights": [
      0.3333333333333333,
      0.3333333333333333,
      0.3333333333333333,
      0.0
    ],
    "cntr_line_weights": [
      0.25,
      0.25,
      0.25,
      0.25
    ],
    "canny_seg_weights": [
      0.7,
      0.30000000000000004
    ],
    "init_params": [
      1.0,
      0.0,
      1.0,
      6.123233995736766e-17,
      1.0,
      1.0,
      -1.0,
      1.2246467991473532e-16,
      1.0,
      -1.8369701987210297e-16,
      -1.0,
      1.0,
      1.0,
      0.0,
      0.0,
      0.0,
      0.1405931950703385,
      0.08437396301186703,
      0.543158503922638,
      0.0,
      0.0,
      -1.0,
      0.543158503922638
    ],
    "final_loss": 0.36140155300584337,
    "time_duration": 1.505777299986221,
    "optimized_parameters": [
      0.029326698197933158,
      0.9995698798847654,
      -0.3569834235100071,
      -0.9390822717585633,
      -0.3436924306248064,
      -0.3203991744868479,
      -0.026509816499293588,
      -0.9996485530571237,
      -0.057896658175980185,
      0.9948415891629994,
      0.10144068449915204,
      0.09920012646322487,
      0.6535701965203357,
      -0.2739772275360205,
      -0.29248041858314827,
      -0.6420573819819337,
      0.13990794780770374,
      0.06555437933806693,
      0.5631531378576283,
      0.03049494859919388,
      -0.733705118240908,
      -0.6787833657191642,
      0.4260900854710988
    ],
    "final_E_line": 9.215359995217276e-06,
    "final_E_plane": 8.615384203501974e-07,
    "final_E_pose": 7.651481747836695e-07,
    "final_E_centroids": 0.0,
    "final_E_total": 3.614015530117047e-06
  }
]