[
  {
    "mask_number": 7,
    "image_num": 4,
    "contour_noise": false,
    "canny": true,
    "is_vertical": "True",
    "edges_control": [
      1,
      1,
      1,
      1
    ],
    "no_canny": "False",
    "box_dimensions": [
      0.396,
      0.2,
      0.205
    ],
    "final_weights": [
      0.19999999999999998,
      0.6,
      0.19999999999999998,
      0.0
    ],
    "cntr_line_weights": [
      0.25,
      0.25,
      0.25,
      0.25
    ],
    "canny_seg_weights": [
      0.7,
      0.30000000000000004
    ],
    "init_params": [
      1.0,
      0.0,
      1.0,
      6.123233995736766e-17,
      1.0,
      1.0,
      -1.0,
      1.2246467991473532e-16,
      1.0,
      -1.8369701987210297e-16,
      -1.0,
      1.0,
      1.0,
      0.0,
      0.0,
      0.0,
      0.04983109679873941,
      -0.4363694004321564,
      1.1403131612831252,
      0.0,
      0.0,
      -1.0,
      1.1403131612831252
    ],
    "final_loss": 0.6549336281151428,
    "time_duration": 2.179051300045103,
    "optimized_parameters": [
      -0.007726637859886563,
      0.9999701490881788,
      0.3248788507550246,
      -0.9605939086768264,
      -0.2779556486451011,
      -0.23040485393746676,
      0.005216730605343615,
      -0.9999863927683418,
      -0.4580320662739421,
      0.9995219170338674,
      -0.030918236855201175,
      -0.05809803478935464,
      0.6417325454207754,
      -0.2780644652152177,
      -0.28557240487816277,
      -0.6552159147216704,
      0.04620668432031221,
      -0.47097143037122585,
      1.1777423167359453,
      0.0021377147917351967,
      -0.7311091917326787,
      -0.6822571215747912,
      0.4590927776290654
    ],
    "final_E_line": 1.638305412531981e-05,
    "final_E_plane": 1.6191132316194505e-05,
    "final_E_pose": 5.7498321231647314e-08,
    "final_E_centroids": 0.0,
    "final_E_total": 6.549336281041851e-06
  }
]