[
  {
    "mask_number": 2,
    "image_num": 5,
    "contour_noise": false,
    "canny": true,
    "generate_random": false,
    "all_edges_good": true,
    "is_vertical": "False",
    "edges_control": [
      1,
      1,
      1,
      1
    ],
    "no_canny": "False",
    "box_dimensions": [
      0.396,
      0.2,
      0.205
    ],
    "final_weights": [
      0.19999999999999998,
      0.6,
      0.19999999999999998,
      0.0
    ],
    "cntr_line_weights": [
      0.25,
      0.25,
      0.25,
      0.25
    ],
    "canny_seg_weights": [
      0.7,
      0.30000000000000004
    ],
    "init_params": [
      1.0,
      0.0,
      1.0,
      6.123233995736766e-17,
      1.0,
      1.0,
      -1.0,
      1.2246467991473532e-16,
      1.0,
      -1.8369701987210297e-16,
      -1.0,
      1.0,
      1.0,
      0.0,
      0.0,
      0.0,
      0.19045505565756055,
      -0.02264810583167743,
      0.6371702926045673,
      0.0,
      0.0,
      -1.0,
      0.6371702926045673
    ],
    "final_loss": 0.46094443841428034,
    "time_duration": 1.4917930999654345,
    "optimized_parameters": [
      -0.010869783927686054,
      0.9999409221538316,
      -0.06636079446631842,
      -0.8000049873327972,
      -0.5999933501731666,
      -0.5059772345493413,
      0.006015285411428038,
      -0.9999819080070969,
      -0.1325568824346324,
      0.9997004665286726,
      0.024474011168900377,
      -0.008953813052621482,
      0.6384032397514092,
      -0.28391492293478837,
      -0.29639447367767163,
      -0.6511404886706861,
      0.19083143665339208,
      -0.03049160944587905,
      0.6473336592008484,
      0.008701382392606241,
      -0.7484933138065974,
      -0.6630852472655374,
      0.4047541480005909
    ],
    "final_E_line": 1.49967441085028e-05,
    "final_E_plane": 6.743566940708324e-06,
    "final_E_pose": 4.3563695726010966e-07,
    "final_E_centroids": 0.0,
    "final_E_total": 4.60944438419829e-06
  }
]