[
  {
    "mask_number": 18,
    "image_num": 3,
    "contour_noise": false,
    "canny": true,
    "is_vertical": "False",
    "edges_control": [
      0,
      0,
      0,
      0
    ],
    "no_canny": "False",
    "box_dimensions": [
      0.296,
      0.154,
      0.221
    ],
    "final_weights": [
      0.3333333333333333,
      0.3333333333333333,
      0.3333333333333333,
      0.0
    ],
    "cntr_line_weights": [
      0.25,
      0.25,
      0.25,
      0.25
    ],
    "canny_seg_weights": [
      0.7,
      0.30000000000000004
    ],
    "init_params": [
      1.0,
      0.0,
      1.0,
      6.123233995736766e-17,
      1.0,
      1.0,
      -1.0,
      1.2246467991473532e-16,
      1.0,
      -1.8369701987210297e-16,
      -1.0,
      1.0,
      1.0,
      0.0,
      0.0,
      0.0,
      -0.2079556753133783,
      -0.5471406043412833,
      1.2621652649257051,
      0.0,
      0.0,
      -1.0,
      1.2621652649257051
    ],
    "final_loss": 0.8140457224619009,
    "time_duration": 1.9307872999925166,
    "optimized_parameters": [
      0.028803395710900903,
      0.9995850961254463,
      0.41124358748405426,
      -0.9517507431342457,
      0.306872160588153,
      0.2065184020847774,
      -0.027862255352828,
      -0.9996117720029569,
      -0.44508909625360776,
      0.7031428310223614,
      -0.7110486334857876,
      -0.530946009667921,
      0.6463510416936353,
      -0.3088049474809965,
      -0.3132875281507688,
      -0.6234747468974673,
      -0.24648764364389697,
      -0.5490089646215909,
      1.2629910878883126,
      0.019922869902214705,
      -0.7898470747092826,
      -0.6129801610409896,
      0.3454661128418908
    ],
    "final_E_line": 1.561299038528947e-05,
    "final_E_plane": 8.531609457430225e-06,
    "final_E_pose": 2.7677183113733245e-07,
    "final_E_centroids": 0.0,
    "final_E_total": 8.14045722461901e-06
  }
]