[
  {
    "mask_number": 15,
    "image_num": 6,
    "contour_noise": false,
    "canny": true,
    "generate_random": false,
    "all_edges_good": true,
    "is_vertical": "False",
    "edges_control": [
      1,
      0,
      1,
      0
    ],
    "no_canny": "False",
    "final_weights": [
      0.19999999999999998,
      0.6,
      0.19999999999999998,
      0.0
    ],
    "cntr_line_weights": [
      0.25,
      0.25,
      0.25,
      0.25
    ],
    "canny_seg_weights": [
      0.7,
      0.30000000000000004
    ],
    "init_params": [
      1.0,
      0.0,
      1.0,
      6.123233995736766e-17,
      1.0,
      1.0,
      -1.0,
      1.2246467991473532e-16,
      1.0,
      -1.8369701987210297e-16,
      -1.0,
      1.0,
      1.0,
      0.0,
      0.0,
      0.0,
      -0.6833733404649552,
      -0.5609636298544145,
      1.176826240534478,
      0.0,
      0.0,
      -1.0,
      1.176826240534478,
      0.1,
      0.1
    ],
    "final_loss": 2.7824668125744334,
    "time_duration": 9.661568600000464,
    "optimized_parameters": [
      0.01585311782996013,
      0.9998743314312506,
      0.45306377162775413,
      -0.045338777946200046,
      0.998971668874721,
      0.5055921674510195,
      0.028374302910988886,
      0.9995973684113667,
      0.4831862047009568,
      0.04529643169454268,
      -0.9989735898790025,
      -0.5055277498302692,
      -0.38493026196379476,
      -0.92190671661671,
      -0.01643901611535259,
      0.04057656998404265,
      -0.704543268766723,
      -0.568687941314507,
      1.186865904914327,
      -0.06074086171550298,
      -0.7268959739095768,
      -0.684056131346124,
      0.35571137021605803,
      0.005000000000000012,
      0.7
    ],
    "final_E_line": 1.916608844217816e-06,
    "final_E_plane": 2.7824668125744332e-05,
    "final_E_pose": 0.0,
    "final_E_centroids": 0.0158531178299601,
    "final_E_total": 0.9998743314312506
  }
]