[
  {
    "mask_number": 4,
    "image_num": 4,
    "contour_noise": true,
    "canny": true,
    "is_vertical": "False",
    "edges_control": [
      1,
      1,
      1,
      1
    ],
    "no_canny": "False",
    "box_dimensions": [
      0.396,
      0.2,
      0.205
    ],
    "final_weights": [
      0.19999999999999998,
      0.6,
      0.19999999999999998,
      0.0
    ],
    "cntr_line_weights": [
      0.0833333333333333,
      0.7499999999999999,
      0.0833333333333333,
      0.0833333333333333
    ],
    "canny_seg_weights": [
      0.7,
      0.30000000000000004
    ],
    "init_params": [
      1.0,
      0.0,
      1.0,
      6.123233995736766e-17,
      1.0,
      1.0,
      -1.0,
      1.2246467991473532e-16,
      1.0,
      -1.8369701987210297e-16,
      -1.0,
      1.0,
      1.0,
      0.0,
      0.0,
      0.0,
      -0.24020137228906596,
      -0.25896687618439307,
      0.9558852467392398,
      0.0,
      0.0,
      -1.0,
      0.9558852467392398
    ],
    "final_loss": 1.3747241750892,
    "time_duration": 2.5885916000115685,
    "optimized_parameters": [
      -0.0054361598016694854,
      0.9999852239741415,
      0.22117148916154813,
      -0.9999873764709862,
      0.005024629231902128,
      0.045924222477717554,
      0.002497579096523544,
      -0.9999968810444644,
      -0.32368247081591284,
      0.8537984440766581,
      -0.5206037042633049,
      -0.5336158903339762,
      0.6427104780667757,
      -0.26964386667393586,
      -0.28472571902712446,
      -0.6581388086665639,
      -0.24060432990004071,
      -0.26505648212174465,
      0.9628381417262545,
      0.011066249114450373,
      -0.7213839076446277,
      -0.692446962533908,
      0.4781694698079039
    ],
    "final_E_line": 6.389355900008329e-05,
    "final_E_plane": 4.158340998025505e-06,
    "final_E_pose": 2.2810291878373858e-07,
    "final_E_centroids": 5.384039404664328e-34,
    "final_E_total": 1.3747241750892e-05
  }
]