[
  {
    "mask_number": 5,
    "image_num": 3,
    "contour_noise": false,
    "canny": false,
    "generate_random": false,
    "all_edges_good": true,
    "is_vertical": "True",
    "edges_control": [
      0,
      0,
      0,
      0
    ],
    "no_canny": "True",
    "box_dimensions": [
      0.296,
      0.154,
      0.221
    ],
    "final_weights": [
      0.19999999999999998,
      0.6,
      0.19999999999999998,
      0.0
    ],
    "cntr_line_weights": [
      0.25,
      0.25,
      0.25,
      0.25
    ],
    "canny_seg_weights": [
      0.7,
      0.30000000000000004
    ],
    "init_params": [
      1.0,
      0.0,
      1.0,
      6.123233995736766e-17,
      1.0,
      1.0,
      -1.0,
      1.2246467991473532e-16,
      1.0,
      -1.8369701987210297e-16,
      -1.0,
      1.0,
      1.0,
      0.0,
      0.0,
      0.0,
      0.1419562764154872,
      -0.11745251134377513,
      0.7667253136423275,
      0.0,
      0.0,
      -1.0,
      0.7667253136423275
    ],
    "final_loss": 0.2054063288761789,
    "time_duration": 1.2506648999988101,
    "optimized_parameters": [
      0.03390653902535696,
      0.999425007998014,
      0.05766401450254002,
      -0.9461280653780946,
      -0.3237926557291232,
      -0.3175922546990672,
      -0.03114368544243572,
      -0.9995149177763906,
      -0.2631938495639007,
      0.9978990342821522,
      0.06478825031654707,
      0.09308710601811797,
      0.6562940440205801,
      -0.28597674634897247,
      -0.2926508811784779,
      -0.6339171003185944,
      0.1413879562638058,
      -0.13253654398391454,
      0.7835715304513972,
      0.021558899393923376,
      -0.7464024256858605,
      -0.6651455726288585,
      0.41921537228449585
    ],
    "final_E_line": 9.703961673261205e-06,
    "final_E_plane": 3.0859853699053444e-07,
    "final_E_pose": 8.591874436747357e-08,
    "final_E_centroids": 0.0,
    "final_E_total": 2.054063288670832e-06
  }
]