[
  {
    "mask_number": 15,
    "image_num": 6,
    "contour_noise": false,
    "canny": false,
    "generate_random": false,
    "all_edges_good": true,
    "is_vertical": "False",
    "edges_control": [
      0,
      0,
      0,
      0
    ],
    "no_canny": "True",
    "box_dimensions": [
      0.387,
      0.22,
      0.213
    ],
    "final_weights": [
      0.19999999999999998,
      0.6,
      0.19999999999999998,
      0.0
    ],
    "cntr_line_weights": [
      0.25,
      0.25,
      0.25,
      0.25
    ],
    "canny_seg_weights": [
      0.7,
      0.30000000000000004
    ],
    "init_params": [
      1.0,
      0.0,
      1.0,
      6.123233995736766e-17,
      1.0,
      1.0,
      -1.0,
      1.2246467991473532e-16,
      1.0,
      -1.8369701987210297e-16,
      -1.0,
      1.0,
      1.0,
      0.0,
      0.0,
      0.0,
      -0.6660939429201383,
      -0.5637168883126585,
      1.1786741198233839,
      0.0,
      0.0,
      -1.0,
      1.1786741198233839
    ],
    "final_loss": 1.14384309432974,
    "time_duration": 5.890040300000692,
    "optimized_parameters": [
      -0.017717839367462664,
      0.9998430267637759,
      0.470176944612222,
      -0.40819873052779115,
      0.9128930914381485,
      0.6170554486119635,
      0.03351512591084372,
      -0.9994382103637924,
      -0.5243761735128887,
      0.32671930582671965,
      -0.9451214182315977,
      -0.676356688976195,
      0.7113614970763632,
      -0.3699533332462072,
      -0.2250859586338629,
      -0.5535663130313937,
      -0.6668664610918141,
      -0.5855378952949432,
      1.206519320017289,
      -0.08935242566251296,
      -0.7755411855929457,
      -0.6249416080541551,
      0.24030924515538454
    ],
    "final_E_line": 3.0417233287066155e-05,
    "final_E_plane": 2.670608423223748e-05,
    "final_E_pose": 2.2945732349026656e-08,
    "final_E_centroids": 0.0,
    "final_E_total": 1.143843094327014e-05
  }
]