[
  {
    "mask_number": 0,
    "image_num": 6,
    "contour_noise": false,
    "canny": false,
    "generate_random": false,
    "all_edges_good": true,
    "is_vertical": "False",
    "edges_control": [
      0,
      0,
      0,
      0
    ],
    "no_canny": "True",
    "box_dimensions": [
      0.387,
      0.22,
      0.213
    ],
    "final_weights": [
      0.19999999999999998,
      0.6,
      0.19999999999999998,
      0.0
    ],
    "cntr_line_weights": [
      0.25,
      0.25,
      0.25,
      0.25
    ],
    "canny_seg_weights": [
      0.7,
      0.30000000000000004
    ],
    "init_params": [
      1.0,
      0.0,
      1.0,
      6.123233995736766e-17,
      1.0,
      1.0,
      -1.0,
      1.2246467991473532e-16,
      1.0,
      -1.8369701987210297e-16,
      -1.0,
      1.0,
      1.0,
      0.0,
      0.0,
      0.0,
      -0.6459134818245138,
      -0.041306406292230036,
      0.6178036412607761,
      0.0,
      0.0,
      -1.0,
      0.6178036412607761
    ],
    "final_loss": 6.220056089099661,
    "time_duration": 2.778194700003951,
    "optimized_parameters": [
      -0.061526534037407814,
      0.9981054481412992,
      0.03822252453706886,
      -0.6270807725392353,
      0.7789542378802466,
      0.5711985308977001,
      0.094420711144062,
      -0.9955323848610098,
      -0.24974635024615136,
      0.4809628571969572,
      -0.8767409708670739,
      -0.6689575889911624,
      0.6435244804168215,
      -0.3620859767762917,
      -0.24246423146883087,
      -0.6292702797562012,
      -0.6670966616979236,
      -0.04877325112242972,
      0.6354827363069498,
      -0.14363671571307435,
      -0.7711735455397443,
      -0.6202095263367223,
      0.26070024728511487
    ],
    "final_E_line": 0.000166995293605,
    "final_E_plane": 0.0001410565616345,
    "final_E_pose": 9.836493609167464e-07,
    "final_E_centroids": 0.0,
    "final_E_total": 6.220056066447262e-05
  }
]