[
  {
    "mask_number": 12,
    "image_num": 6,
    "contour_noise": false,
    "canny": false,
    "generate_random": false,
    "all_edges_good": true,
    "is_vertical": "False",
    "edges_control": [
      0,
      0,
      0,
      0
    ],
    "no_canny": "True",
    "box_dimensions": [
      0.387,
      0.22,
      0.213
    ],
    "final_weights": [
      0.19999999999999998,
      0.6,
      0.19999999999999998,
      0.0
    ],
    "cntr_line_weights": [
      0.25,
      0.25,
      0.25,
      0.25
    ],
    "canny_seg_weights": [
      0.7,
      0.30000000000000004
    ],
    "init_params": [
      1.0,
      0.0,
      1.0,
      6.123233995736766e-17,
      1.0,
      1.0,
      -1.0,
      1.2246467991473532e-16,
      1.0,
      -1.8369701987210297e-16,
      -1.0,
      1.0,
      1.0,
      0.0,
      0.0,
      0.0,
      0.15898912359045944,
      -0.3628229032627555,
      1.0323096403404861,
      0.0,
      0.0,
      -1.0,
      1.0323096403404861
    ],
    "final_loss": 0.2076278180863002,
    "time_duration": 1.7276132999977563,
    "optimized_parameters": [
      0.010695492223588537,
      0.9999428015874516,
      0.3108563354191136,
      -0.8206919323646072,
      -0.5713709409511524,
      -0.4852528310791607,
      -0.013639500650690504,
      -0.9999069776845966,
      -0.3967113588824781,
      0.9997606537506901,
      0.02187773339148735,
      -0.015383734126436762,
      0.6405780685955346,
      -0.2767524633846917,
      -0.29929548447531024,
      -0.6507611120975629,
      0.16906932838438452,
      -0.36987582060936847,
      1.0412911770536988,
      0.023244773486464473,
      -0.744102806534602,
      -0.6676606127464082,
      0.41607350187476394
    ],
    "final_E_line": 6.159021492942876e-06,
    "final_E_plane": 3.894959461715929e-06,
    "final_E_pose": 1.091366499109601e-07,
    "final_E_centroids": 0.0,
    "final_E_total": 2.076278180878337e-06
  }
]