[
  {
    "mask_number": 0,
    "image_num": 4,
    "contour_noise": false,
    "canny": true,
    "is_vertical": "True",
    "edges_control": [
      1,
      1,
      1,
      1
    ],
    "no_canny": "False",
    "box_dimensions": [
      0.396,
      0.2,
      0.205
    ],
    "final_weights": [
      0.3333333333333333,
      0.3333333333333333,
      0.3333333333333333,
      0.0
    ],
    "cntr_line_weights": [
      0.25,
      0.25,
      0.25,
      0.25
    ],
    "canny_seg_weights": [
      0.7,
      0.30000000000000004
    ],
    "init_params": [
      1.0,
      0.0,
      1.0,
      6.123233995736766e-17,
      1.0,
      1.0,
      -1.0,
      1.2246467991473532e-16,
      1.0,
      -1.8369701987210297e-16,
      -1.0,
      1.0,
      1.0,
      0.0,
      0.0,
      0.0,
      -0.316764792982307,
      0.10834728236795578,
      0.5484542408830186,
      0.0,
      0.0,
      -1.0,
      0.5484542408830186
    ],
    "final_loss": 1.1811157024405363,
    "time_duration": 1.1721543000021484,
    "optimized_parameters": [
      -0.0416508976152978,
      0.999132224847065,
      -0.4522471649195083,
      -0.9544268160023183,
      0.2984450584206166,
      0.32724523084611123,
      0.0137414365934917,
      -0.9999055820027956,
      -0.08159895836135257,
      0.8428109513688435,
      -0.5382097177241842,
      -0.5460635370157232,
      0.6337953081670915,
      -0.2729967402529551,
      -0.29973461458247286,
      -0.6587377687500106,
      -0.3249373222815966,
      0.07782991275605422,
      0.5821440812007808,
      0.020274244279570006,
      -0.740941103150345,
      -0.6712639098605484,
      0.45502756669948946
    ],
    "final_E_line": 3.0995098036192185e-05,
    "final_E_plane": 3.797736078234084e-06,
    "final_E_pose": 6.406369587189182e-07,
    "final_E_centroids": 0.0,
    "final_E_total": 1.1811157024381729e-05
  }
]