[
  {
    "mask_number": 0,
    "image_num": 3,
    "contour_noise": false,
    "canny": true,
    "generate_random": false,
    "all_edges_good": true,
    "is_vertical": "True",
    "edges_control": [
      1,
      1,
      1,
      1
    ],
    "no_canny": "False",
    "box_dimensions": [
      0.296,
      0.154,
      0.221
    ],
    "final_weights": [
      0.19999999999999998,
      0.6,
      0.19999999999999998,
      0.0
    ],
    "cntr_line_weights": [
      0.25,
      0.25,
      0.25,
      0.25
    ],
    "canny_seg_weights": [
      0.7,
      0.30000000000000004
    ],
    "init_params": [
      1.0,
      0.0,
      1.0,
      6.123233995736766e-17,
      1.0,
      1.0,
      -1.0,
      1.2246467991473532e-16,
      1.0,
      -1.8369701987210297e-16,
      -1.0,
      1.0,
      1.0,
      0.0,
      0.0,
      0.0,
      0.14063023187193555,
      0.08436030153426907,
      0.5431733545151199,
      0.0,
      0.0,
      -1.0,
      0.5431733545151199
    ],
    "final_loss": 0.24336983321265243,
    "time_duration": 4.791921099997126,
    "optimized_parameters": [
      0.02165517292742491,
      0.9997654992476218,
      -0.35907657100557816,
      -0.9393766887427845,
      -0.34288691524562326,
      -0.3206063991234166,
      -0.025491192017848767,
      -0.9996750467674729,
      -0.057450497091829845,
      0.9948405429408843,
      0.10145094440707084,
      0.09934608068977285,
      0.6532168832557728,
      -0.2744627657735304,
      -0.2920040848959134,
      -0.6424262666156507,
      0.1398879399644728,
      0.0655665701638359,
      0.5629721459421594,
      0.028839851406202408,
      -0.7337495801031405,
      -0.6788076433493128,
      0.4262249013918354
    ],
    "final_E_line": 1.0664842516793226e-05,
    "final_E_plane": 9.050536707158342e-07,
    "final_E_pose": 1.995318243402127e-07,
    "final_E_centroids": 0.0,
    "final_E_total": 2.43369833210594e-06
  }
]