[
  {
    "mask_number": 6,
    "image_num": 5,
    "contour_noise": false,
    "canny": true,
    "generate_random": false,
    "all_edges_good": false,
    "is_vertical": "True",
    "edges_control": [
      1,
      1,
      1,
      1
    ],
    "no_canny": "False",
    "box_dimensions": [
      0.396,
      0.2,
      0.205
    ],
    "final_weights": [
      0.19999999999999998,
      0.6,
      0.19999999999999998,
      0.0
    ],
    "cntr_line_weights": [
      0.45,
      0.45,
      0.04999999999999999,
      0.04999999999999999
    ],
    "canny_seg_weights": [
      0.7,
      0.30000000000000004
    ],
    "init_params": [
      1.0,
      0.0,
      1.0,
      6.123233995736766e-17,
      1.0,
      1.0,
      -1.0,
      1.2246467991473532e-16,
      1.0,
      -1.8369701987210297e-16,
      -1.0,
      1.0,
      1.0,
      0.0,
      0.0,
      0.0,
      0.262600640632865,
      -0.45196248497149377,
      1.1271334187709336,
      0.0,
      0.0,
      -1.0,
      1.1271334187709336
    ],
    "final_loss": 0.3019357301814767,
    "time_duration": 3.516152399999555,
    "optimized_parameters": [
      0.003972262662064888,
      0.9999921105335512,
      0.353756633520958,
      -0.78918486776353,
      -0.614155716812291,
      -0.5040560325007172,
      -0.008055309750692928,
      -0.9999675554660916,
      -0.4729105595225971,
      0.9243387674007728,
      0.38157285422360093,
      0.29321393784050975,
      0.6355748480160835,
      -0.2804464503935478,
      -0.30189600451690973,
      -0.6528806962131259,
      0.2680636177287839,
      -0.4921680354076922,
      1.173170222415987,
      0.017558837082673945,
      -0.7506935503320022,
      -0.6604172020247874,
      0.40060755450658053
    ],
    "final_E_line": 9.685010358583907e-06,
    "final_E_plane": 5.370846146562479e-06,
    "final_E_pose": 1.3643334613547734e-08,
    "final_E_centroids": 0.0,
    "final_E_total": 3.0193573017974064e-06
  }
]