[
  {
    "mask_number": 11,
    "image_num": 6,
    "contour_noise": false,
    "canny": true,
    "generate_random": false,
    "all_edges_good": true,
    "is_vertical": "False",
    "edges_control": [
      1,
      1,
      1,
      1
    ],
    "no_canny": "False",
    "final_weights": [
      0.19999999999999998,
      0.6,
      0.19999999999999998,
      0.0
    ],
    "cntr_line_weights": [
      0.25,
      0.25,
      0.25,
      0.25
    ],
    "canny_seg_weights": [
      0.7,
      0.30000000000000004
    ],
    "init_params": [
      1.0,
      0.0,
      1.0,
      6.123233995736766e-17,
      1.0,
      1.0,
      -1.0,
      1.2246467991473532e-16,
      1.0,
      -1.8369701987210297e-16,
      -1.0,
      1.0,
      1.0,
      0.0,
      0.0,
      0.0,
      -1.1752532698101903,
      -0.5506442102280086,
      1.1628302172002607,
      0.0,
      0.0,
      -1.0,
      1.1628302172002607,
      0.15,
      0.15
    ],
    "final_loss": 243765.92990163495,
    "time_duration": 13.019082899998466,
    "optimized_parameters": [
      -0.03249573900226031,
      0.999453227641897,
      -0.6386538244251665,
      0.007151434814868837,
      -0.9999745396090414,
      -0.5265148859810695,
      0.0603501955478911,
      -0.9981580337989084,
      -4.7282893591796995,
      0.05952754205785447,
      -0.9982263902453296,
      3.857782950036689,
      0.4571175180584739,
      0.7568515370033314,
      0.3942784942402331,
      -0.2626845476721477,
      -0.6443202337247218,
      -0.25233046170473633,
      0.5277576006396663,
      0.037061167725554234,
      0.8935058858001791,
      0.447509620947669,
      0.013137760418697677,
      0.10000400057574403,
      0.10000000160930643
    ],
    "final_E_line": 0.0001142878255474,
    "final_E_plane": 2.43765929278212,
    "final_E_pose": 0.0,
    "final_E_centroids": -0.0324957390022603,
    "final_E_total": 0.999453227641897
  }
]