[
  {
    "mask_number": 19,
    "image_num": 6,
    "contour_noise": false,
    "canny": false,
    "generate_random": false,
    "all_edges_good": true,
    "is_vertical": "False",
    "edges_control": [
      0,
      0,
      0,
      0
    ],
    "no_canny": "True",
    "box_dimensions": [
      0.387,
      0.22,
      0.213
    ],
    "final_weights": [
      0.19999999999999998,
      0.6,
      0.19999999999999998,
      0.0
    ],
    "cntr_line_weights": [
      0.25,
      0.25,
      0.25,
      0.25
    ],
    "canny_seg_weights": [
      0.7,
      0.30000000000000004
    ],
    "init_params": [
      1.0,
      0.0,
      1.0,
      6.123233995736766e-17,
      1.0,
      1.0,
      -1.0,
      1.2246467991473532e-16,
      1.0,
      -1.8369701987210297e-16,
      -1.0,
      1.0,
      1.0,
      0.0,
      0.0,
      0.0,
      -0.23193904535940557,
      -0.48465486363019544,
      1.1694120626495779,
      0.0,
      0.0,
      -1.0,
      1.1694120626495779
    ],
    "final_loss": 0.2965119197304194,
    "time_duration": 2.739330999989761,
    "optimized_parameters": [
      -0.020848392973650917,
      0.9997826486344012,
      0.39579424590495677,
      -0.9983879813457397,
      -0.05675771933754139,
      -0.006654046744216259,
      0.019387000164639727,
      -0.9998120544505473,
      -0.4580008702767218,
      0.8362053765733127,
      -0.5484164186000801,
      -0.5179838285227648,
      0.6322796784171721,
      -0.2893766750727896,
      -0.29346556426733694,
      -0.6560194438991536,
      -0.21490171730055663,
      -0.5091321023407299,
      1.1964991526060138,
      -0.008568824136346137,
      -0.7509721946601067,
      -0.6602782277951784,
      0.4058368436529104
    ],
    "final_E_line": 1.0522246986492948e-05,
    "final_E_plane": 4.070115924725707e-06,
    "final_E_pose": 7.774435830142628e-08,
    "final_E_centroids": 0.0,
    "final_E_total": 2.9651191972245864e-06
  }
]