[
  {
    "mask_number": 5,
    "image_num": 7,
    "contour_noise": false,
    "canny": true,
    "generate_random": false,
    "all_edges_good": true,
    "is_vertical": "False",
    "edges_control": [
      1,
      1,
      1,
      1
    ],
    "no_canny": "False",
    "final_weights": [
      0.19999999999999998,
      0.6,
      0.19999999999999998,
      0.0
    ],
    "cntr_line_weights": [
      0.25,
      0.25,
      0.25,
      0.25
    ],
    "canny_seg_weights": [
      0.7,
      0.30000000000000004
    ],
    "init_params": [
      1.0,
      0.0,
      1.0,
      6.123233995736766e-17,
      1.0,
      1.0,
      -1.0,
      1.2246467991473532e-16,
      1.0,
      -1.8369701987210297e-16,
      -1.0,
      1.0,
      1.0,
      0.0,
      0.0,
      0.0,
      -0.1137971146462197,
      -0.2490392347577666,
      0.8027530053602815,
      0.0,
      0.0,
      -1.0,
      0.8027530053602815,
      0.1,
      0.1
    ],
    "final_loss": 0.9880599322683151,
    "time_duration": 2.3536891999974614,
    "optimized_parameters": [
      0.0037316587104562035,
      0.999993037337841,
      0.24854813761351735,
      -0.9988292970346019,
      0.04837391226528794,
      0.03582362865577347,
      -0.003387335941595787,
      -0.9999942629617404,
      -0.370765162764717,
      0.8895695173364243,
      -0.45679981811283943,
      -0.3810668911422442,
      0.6428022243083249,
      -0.2978403413887236,
      -0.2980349648589051,
      -0.6397433791669406,
      -0.11624469829937184,
      -0.257938892940033,
      0.8132907838729184,
      0.002072334608135938,
      -0.7642366906558369,
      -0.6449325438266035,
      0.3276322443482882,
      0.19910943283485102,
      0.24335582818348275
    ],
    "final_E_line": 1.1809977928146988e-06,
    "final_E_plane": 9.880599322649683e-06,
    "final_E_pose": 0.0,
    "final_E_centroids": 0.0037316587104562,
    "final_E_total": 0.999993037337841
  }
]