[
  {
    "mask_number": 2,
    "image_num": 3,
    "contour_noise": false,
    "canny": false,
    "generate_random": false,
    "all_edges_good": true,
    "is_vertical": "True",
    "edges_control": [
      0,
      0,
      0,
      0
    ],
    "no_canny": "True",
    "box_dimensions": [
      0.296,
      0.154,
      0.221
    ],
    "final_weights": [
      0.19999999999999998,
      0.6,
      0.19999999999999998,
      0.0
    ],
    "cntr_line_weights": [
      0.25,
      0.25,
      0.25,
      0.25
    ],
    "canny_seg_weights": [
      0.7,
      0.30000000000000004
    ],
    "init_params": [
      1.0,
      0.0,
      1.0,
      6.123233995736766e-17,
      1.0,
      1.0,
      -1.0,
      1.2246467991473532e-16,
      1.0,
      -1.8369701987210297e-16,
      -1.0,
      1.0,
      1.0,
      0.0,
      0.0,
      0.0,
      -0.016051646255659434,
      0.07842712610672091,
      0.5445988880812304,
      0.0,
      0.0,
      -1.0,
      0.5445988880812304
    ],
    "final_loss": 0.266155040314728,
    "time_duration": 1.556933299987577,
    "optimized_parameters": [
      0.028155642184004993,
      0.9996035513208291,
      -0.3575807078440841,
      -0.9960929976971787,
      -0.0883104746827238,
      -0.09789987174083882,
      -0.020633409618262277,
      -0.999787108542388,
      -0.06133628517359534,
      0.9852969222469019,
      -0.17085073898238434,
      -0.1447577533572433,
      0.6560156078136569,
      -0.2754143100320119,
      -0.2833916926391251,
      -0.64302381657107,
      -0.01601365705078194,
      0.06050122946239621,
      0.5631725170136248,
      0.017622857061045855,
      -0.7258073705700033,
      -0.6876722298706803,
      0.4314725595728169
    ],
    "final_E_line": 9.10730559524666e-06,
    "final_E_plane": 3.175921010766128e-06,
    "final_E_pose": 3.415084678831004e-07,
    "final_E_centroids": 0.0,
    "final_E_total": 2.6615504019324177e-06
  }
]