[
  {
    "mask_number": 6,
    "image_num": 6,
    "contour_noise": false,
    "canny": true,
    "generate_random": false,
    "all_edges_good": true,
    "is_vertical": "True",
    "edges_control": [
      1,
      1,
      1,
      1
    ],
    "no_canny": "False",
    "final_weights": [
      0.19999999999999998,
      0.6,
      0.19999999999999998,
      0.0
    ],
    "cntr_line_weights": [
      0.25,
      0.25,
      0.25,
      0.25
    ],
    "canny_seg_weights": [
      0.7,
      0.30000000000000004
    ],
    "init_params": [
      1.0,
      0.0,
      1.0,
      6.123233995736766e-17,
      1.0,
      1.0,
      -1.0,
      1.2246467991473532e-16,
      1.0,
      -1.8369701987210297e-16,
      -1.0,
      1.0,
      1.0,
      0.0,
      0.0,
      0.0,
      -0.6178939768438694,
      -0.3066791678436759,
      0.9061801984022293,
      0.0,
      0.0,
      -1.0,
      0.9061801984022293,
      0.15,
      0.15
    ],
    "final_loss": 0.636024660799934,
    "time_duration": 2.8496928999957163,
    "optimized_parameters": [
      -0.010001302381558481,
      0.999949985724768,
      0.28776978854043306,
      -0.7048451034237532,
      0.7093612480109259,
      0.6494851638482464,
      0.013359148288520317,
      -0.999910762597083,
      -0.40865223529227124,
      0.5972131041625827,
      -0.8020826068532768,
      -0.7389455545507427,
      0.6518664099778151,
      -0.28975280879516196,
      -0.271780099585822,
      -0.6459481951426118,
      -0.6180087623815668,
      -0.3181938358683941,
      0.9184468308087845,
      -0.020001955910641907,
      -0.7288719481512622,
      -0.6843578047773864,
      0.3842623183293241,
      0.18903047668038028,
      0.25300830858417533
    ],
    "final_E_line": 1.1219652790342895e-06,
    "final_E_plane": 6.36024660689925e-06,
    "final_E_pose": 0.0,
    "final_E_centroids": -0.0100013023815458,
    "final_E_total": 0.999949985724768
  }
]