[
  {
    "mask_number": 10,
    "image_num": 6,
    "contour_noise": false,
    "canny": true,
    "generate_random": false,
    "all_edges_good": true,
    "is_vertical": "False",
    "edges_control": [
      1,
      1,
      1,
      1
    ],
    "no_canny": "False",
    "final_weights": [
      0.19999999999999998,
      0.6,
      0.19999999999999998,
      0.0
    ],
    "cntr_line_weights": [
      0.25,
      0.25,
      0.25,
      0.25
    ],
    "canny_seg_weights": [
      0.7,
      0.30000000000000004
    ],
    "init_params": [
      1.0,
      0.0,
      1.0,
      6.123233995736766e-17,
      1.0,
      1.0,
      -1.0,
      1.2246467991473532e-16,
      1.0,
      -1.8369701987210297e-16,
      -1.0,
      1.0,
      1.0,
      0.0,
      0.0,
      0.0,
      -0.6719358551558728,
      -0.4472381108004279,
      1.0584636535282315,
      0.0,
      0.0,
      -1.0,
      1.0584636535282315,
      0.1,
      0.1
    ],
    "final_loss": 1.0372629906980737,
    "time_duration": 3.2906089999960386,
    "optimized_parameters": [
      0.0064472593123918835,
      0.999979216207703,
      0.39365764226581046,
      -0.6257382378120955,
      0.7800331132329661,
      0.6404475964312384,
      -0.0013749183008338055,
      -0.9999990547994898,
      -0.45166621791434675,
      0.4910616137051609,
      -0.871124842707245,
      -0.73746764174523,
      0.6721276108186218,
      -0.3068586840250843,
      -0.26196693246190095,
      -0.6208506657106124,
      -0.6608333469933549,
      -0.45514027197290285,
      1.0666318034728477,
      -0.028876485579899556,
      -0.7377810925327312,
      -0.6744221290045512,
      0.36448367077797383,
      0.2852870808132794,
      0.16062854605575838
    ],
    "final_E_line": 1.6266501734415371e-06,
    "final_E_plane": 1.0372629907263094e-05,
    "final_E_pose": 0.0,
    "final_E_centroids": 0.0064472590105969,
    "final_E_total": 0.9999792162096488
  }
]