[
  {
    "mask_number": 7,
    "image_num": 3,
    "contour_noise": false,
    "canny": true,
    "is_vertical": "False",
    "edges_control": [
      1,
      1,
      1,
      1
    ],
    "no_canny": "False",
    "box_dimensions": [
      0.296,
      0.154,
      0.221
    ],
    "final_weights": [
      0.3333333333333333,
      0.3333333333333333,
      0.3333333333333333,
      0.0
    ],
    "cntr_line_weights": [
      0.25,
      0.25,
      0.25,
      0.25
    ],
    "canny_seg_weights": [
      0.7,
      0.30000000000000004
    ],
    "init_params": [
      1.0,
      0.0,
      1.0,
      6.123233995736766e-17,
      1.0,
      1.0,
      -1.0,
      1.2246467991473532e-16,
      1.0,
      -1.8369701987210297e-16,
      -1.0,
      1.0,
      1.0,
      0.0,
      0.0,
      0.0,
      -0.23824050982922965,
      -0.019152078453289114,
      0.6474739818840685,
      0.0,
      0.0,
      -1.0,
      0.6474739818840685
    ],
    "final_loss": 0.36291740141478157,
    "time_duration": 1.3863719999790192,
    "optimized_parameters": [
      0.005395056229566964,
      0.9999854465782461,
      -0.049120397332794094,
      -0.9845708150617636,
      0.1749865998544346,
      0.1504531876825639,
      -0.004637077312589802,
      -0.9999892486992046,
      -0.10366020177228845,
      0.8205442360371421,
      -0.5715830269578962,
      -0.511677453778087,
      0.6468406313983807,
      -0.2893975739157304,
      -0.28949179843841294,
      -0.6434599757721942,
      -0.24297306097883747,
      -0.023418719939804464,
      0.6525435992062824,
      0.0020786408399080807,
      -0.7469409240252675,
      -0.6648871598012658,
      0.4168805266225225
    ],
    "final_E_line": 8.629521730522144e-06,
    "final_E_plane": 1.6261237428881646e-06,
    "final_E_pose": 6.318765691711514e-07,
    "final_E_centroids": 0.0,
    "final_E_total": 3.629174014193819e-06
  }
]