[
  {
    "mask_number": 2,
    "image_num": 4,
    "contour_noise": false,
    "canny": true,
    "is_vertical": "False",
    "edges_control": [
      1,
      1,
      1,
      1
    ],
    "no_canny": "False",
    "box_dimensions": [
      0.396,
      0.2,
      0.205
    ],
    "final_weights": [
      0.19999999999999998,
      0.6,
      0.19999999999999998,
      0.0
    ],
    "cntr_line_weights": [
      0.25,
      0.25,
      0.25,
      0.25
    ],
    "canny_seg_weights": [
      0.7,
      0.30000000000000004
    ],
    "init_params": [
      1.0,
      0.0,
      1.0,
      6.123233995736766e-17,
      1.0,
      1.0,
      -1.0,
      1.2246467991473532e-16,
      1.0,
      -1.8369701987210297e-16,
      -1.0,
      1.0,
      1.0,
      0.0,
      0.0,
      0.0,
      0.16570834614347923,
      0.10038397724644012,
      0.5681421300015472,
      0.0,
      0.0,
      -1.0,
      0.5681421300015472
    ],
    "final_loss": 94.74177373498735,
    "time_duration": 2.9057733000372536,
    "optimized_parameters": [
      -0.010876428394591763,
      0.9999408499033234,
      -0.40005962066329437,
      -0.9061520222814715,
      -0.422952139745422,
      -0.5265437422834309,
      -0.042064947163552656,
      -0.9991148783899318,
      -0.01528664711379101,
      0.9999993939018206,
      -0.0011009977327971626,
      -0.03313406842432803,
      0.6757249906756616,
      -0.18832805153519128,
      -0.235062710405209,
      -0.6728103775644414,
      0.17941240870693462,
      0.09555033434054463,
      0.5558671848781802,
      0.06425737987794763,
      -0.5708210342779628,
      -0.8185562509425833,
      0.49802213938508255
    ],
    "final_E_line": 0.0028138498043611,
    "final_E_plane": 0.0007815245209081,
    "final_E_pose": 0.0003805714538266,
    "final_E_centroids": 0.0,
    "final_E_total": 0.0009474177373498
  }
]