[
  {
    "mask_number": 2,
    "image_num": 3,
    "contour_noise": false,
    "canny": true,
    "is_vertical": "True",
    "edges_control": [
      1,
      1,
      1,
      1
    ],
    "no_canny": "False",
    "box_dimensions": [
      0.296,
      0.154,
      0.221
    ],
    "final_weights": [
      0.19999999999999998,
      0.6,
      0.19999999999999998,
      0.0
    ],
    "cntr_line_weights": [
      0.25,
      0.25,
      0.25,
      0.25
    ],
    "canny_seg_weights": [
      0.7,
      0.30000000000000004
    ],
    "init_params": [
      1.0,
      0.0,
      1.0,
      6.123233995736766e-17,
      1.0,
      1.0,
      -1.0,
      1.2246467991473532e-16,
      1.0,
      -1.8369701987210297e-16,
      -1.0,
      1.0,
      1.0,
      0.0,
      0.0,
      0.0,
      -0.01609414111518132,
      0.07986923584077682,
      0.5430685156514602,
      0.0,
      0.0,
      -1.0,
      0.5430685156514602
    ],
    "final_loss": 0.28782484458096325,
    "time_duration": 1.935704600007739,
    "optimized_parameters": [
      0.02236557706690911,
      0.9997498591960671,
      -0.3567745426984433,
      -0.9953558396532921,
      -0.09626397285091695,
      -0.0967083066151898,
      -0.02545822569204499,
      -0.9996758868540587,
      -0.05768342880799946,
      0.9857718534395239,
      -0.16808882463960464,
      -0.14645533552627274,
      0.6536262277817093,
      -0.27605939862944395,
      -0.29078906213513334,
      -0.6418766891921421,
      -0.016370022288181976,
      0.06128036514493482,
      0.5629364880643916,
      0.02574242815331114,
      -0.7341807565283835,
      -0.6784658754475771,
      0.42734548269462497
    ],
    "final_E_line": 1.1568950537764964e-05,
    "final_E_plane": 2.391780080661533e-06,
    "final_E_pose": 1.435038675003082e-07,
    "final_E_centroids": 0.0,
    "final_E_total": 2.8782484441854843e-06
  }
]