[
  {
    "mask_number": 13,
    "image_num": 3,
    "contour_noise": false,
    "canny": true,
    "is_vertical": "False",
    "edges_control": [
      1,
      1,
      1,
      0
    ],
    "no_canny": "False",
    "box_dimensions": [
      0.296,
      0.154,
      0.221
    ],
    "final_weights": [
      0.19999999999999998,
      0.6,
      0.19999999999999998,
      0.0
    ],
    "cntr_line_weights": [
      0.25,
      0.25,
      0.25,
      0.25
    ],
    "canny_seg_weights": [
      0.7,
      0.30000000000000004
    ],
    "init_params": [
      1.0,
      0.0,
      1.0,
      6.123233995736766e-17,
      1.0,
      1.0,
      -1.0,
      1.2246467991473532e-16,
      1.0,
      -1.8369701987210297e-16,
      -1.0,
      1.0,
      1.0,
      0.0,
      0.0,
      0.0,
      -0.2345837252401051,
      -0.2232231941458236,
      0.8734997864718258,
      0.0,
      0.0,
      -1.0,
      0.8734997864718258
    ],
    "final_loss": 0.2821431555577146,
    "time_duration": 1.4249069000361487,
    "optimized_parameters": [
      0.016692927386186638,
      0.9998606633804568,
      0.21111825319453656,
      -0.9860473725633211,
      0.16646494844829057,
      0.14661192481023902,
      -0.01781803807659355,
      -0.9998412461582039,
      -0.2938024692616312,
      0.8159834263798822,
      -0.5780752960241,
      -0.5125669925191514,
      0.6473401767923742,
      -0.2837423588830849,
      -0.2965409170776402,
      -0.6422650961905456,
      -0.24049193527141977,
      -0.22877432135546727,
      0.8801643961247283,
      0.01945002976915035,
      -0.7482713351977381,
      -0.6631076121292249,
      0.41713603540179434
    ],
    "final_E_line": 9.37573647001692e-06,
    "final_E_plane": 4.281475820658594e-06,
    "final_E_pose": 1.4998182908571117e-07,
    "final_E_centroids": 0.0,
    "final_E_total": 2.82143155558653e-06
  }
]