[
  {
    "mask_number": 14,
    "image_num": 6,
    "contour_noise": false,
    "canny": true,
    "generate_random": false,
    "all_edges_good": true,
    "is_vertical": "False",
    "edges_control": [
      1,
      1,
      1,
      1
    ],
    "no_canny": "False",
    "final_weights": [
      0.19999999999999998,
      0.6,
      0.19999999999999998,
      0.0
    ],
    "cntr_line_weights": [
      0.25,
      0.25,
      0.25,
      0.25
    ],
    "canny_seg_weights": [
      0.7,
      0.30000000000000004
    ],
    "init_params": [
      1.0,
      0.0,
      1.0,
      6.123233995736766e-17,
      1.0,
      1.0,
      -1.0,
      1.2246467991473532e-16,
      1.0,
      -1.8369701987210297e-16,
      -1.0,
      1.0,
      1.0,
      0.0,
      0.0,
      0.0,
      -0.9518055410462998,
      -0.5623006452973559,
      1.1841064801462506,
      0.0,
      0.0,
      -1.0,
      1.1841064801462506,
      0.1,
      0.1
    ],
    "final_loss": 4.1614381043761774,
    "time_duration": 13.450708700001996,
    "optimized_parameters": [
      -0.020763920624984698,
      0.9997845466727858,
      0.4919976984874498,
      -0.04453337281206682,
      0.9990080725903259,
      0.4983465958218449,
      -0.026671390251214826,
      -0.9996444742842161,
      -0.47876912856812665,
      0.021729139791372695,
      -0.9997640300439286,
      -0.4922591265465006,
      -0.20504188143611282,
      -0.9257867833746593,
      0.29558881722847224,
      -0.12178844738799414,
      -0.36615440218423545,
      -0.6354100782445931,
      1.3066032389854365,
      0.04220379154468493,
      -0.7559918990867613,
      -0.6532193872091043,
      0.3885842322172129,
      0.005000000000000539,
      0.005000000000000138
    ],
    "final_E_line": 1.7650461039031534e-06,
    "final_E_plane": 4.161447575247667e-05,
    "final_E_pose": 0.0,
    "final_E_centroids": -0.0207639206249846,
    "final_E_total": 0.9997845466727858
  }
]