[
  {
    "mask_number": 0,
    "image_num": 4,
    "contour_noise": false,
    "canny": true,
    "is_vertical": "True",
    "edges_control": [
      1,
      1,
      1,
      1
    ],
    "no_canny": "False",
    "box_dimensions": [
      0.396,
      0.2,
      0.205
    ],
    "final_weights": [
      0.19999999999999998,
      0.6,
      0.19999999999999998,
      0.0
    ],
    "cntr_line_weights": [
      0.25,
      0.25,
      0.25,
      0.25
    ],
    "canny_seg_weights": [
      0.7,
      0.30000000000000004
    ],
    "init_params": [
      1.0,
      0.0,
      1.0,
      6.123233995736766e-17,
      1.0,
      1.0,
      -1.0,
      1.2246467991473532e-16,
      1.0,
      -1.8369701987210297e-16,
      -1.0,
      1.0,
      1.0,
      0.0,
      0.0,
      0.0,
      -0.31794247932486447,
      0.11118542249088444,
      0.5453069560813391,
      0.0,
      0.0,
      -1.0,
      0.5453069560813391
    ],
    "final_loss": 0.7214887697617353,
    "time_duration": 1.6237654000287876,
    "optimized_parameters": [
      -0.041014580717731855,
      0.9991585480637197,
      -0.45279259023972196,
      -0.955123340825716,
      0.29620837903414854,
      0.328060047781018,
      0.01458108937576039,
      -0.9998936902657802,
      -0.08220444545336274,
      0.8418844839210835,
      -0.5396577764969107,
      -0.5450511928330739,
      0.6335119680272164,
      -0.2736673598941664,
      -0.2992194958291357,
      -0.6589662023281909,
      -0.3250711680784615,
      0.07775007127728555,
      0.5823382241719426,
      0.018443234685795434,
      -0.7410941525523976,
      -0.6711477513536607,
      0.4544504852963207
    ],
    "final_E_line": 3.172782853814664e-05,
    "final_E_plane": 4.0231491985427e-06,
    "final_E_pose": 1.0782025046580734e-07,
    "final_E_centroids": 0.0,
    "final_E_total": 7.214887697617351e-06
  }
]