[
  {
    "mask_number": 15,
    "image_num": 6,
    "contour_noise": false,
    "canny": true,
    "generate_random": false,
    "all_edges_good": true,
    "is_vertical": "False",
    "edges_control": [
      1,
      0,
      1,
      0
    ],
    "no_canny": "False",
    "final_weights": [
      0.19999999999999998,
      0.6,
      0.19999999999999998,
      0.0
    ],
    "cntr_line_weights": [
      0.25,
      0.25,
      0.25,
      0.25
    ],
    "canny_seg_weights": [
      0.7,
      0.30000000000000004
    ],
    "init_params": [
      1.0,
      0.0,
      1.0,
      6.123233995736766e-17,
      1.0,
      1.0,
      -1.0,
      1.2246467991473532e-16,
      1.0,
      -1.8369701987210297e-16,
      -1.0,
      1.0,
      1.0,
      0.0,
      0.0,
      0.0,
      -0.676706651099505,
      -0.5603031514647014,
      1.175289031691788,
      0.0,
      0.0,
      -1.0,
      1.175289031691788,
      0.15,
      0.15
    ],
    "final_loss": 0.6111347464697979,
    "time_duration": 2.5180866999944556,
    "optimized_parameters": [
      -0.05319394877370289,
      0.9985841996616412,
      0.49349195555917025,
      -0.7045409846934105,
      0.7096633010719291,
      0.6536074877613005,
      0.05551470544817994,
      -0.9984578696565143,
      -0.5297736031757384,
      0.5637866960494925,
      -0.8259204328248605,
      -0.7719539026806309,
      0.6528497026726927,
      -0.30068259917027973,
      -0.2520463815163796,
      -0.6479582253831533,
      -0.6575113593166441,
      -0.5733409407365031,
      1.1871572419348977,
      -0.060562719563533686,
      -0.7192320705089464,
      -0.6921252673837844,
      0.36947566484378286,
      0.2919752582374508,
      0.1284945078446548
    ],
    "final_E_line": 1.9343857524531224e-06,
    "final_E_plane": 6.111347464695688e-06,
    "final_E_pose": 0.0,
    "final_E_centroids": -0.0531939487737028,
    "final_E_total": 0.9985841996616412
  }
]