[
  {
    "mask_number": 13,
    "image_num": 3,
    "contour_noise": false,
    "canny": false,
    "generate_random": false,
    "all_edges_good": true,
    "is_vertical": "False",
    "edges_control": [
      0,
      0,
      0,
      0
    ],
    "no_canny": "True",
    "box_dimensions": [
      0.296,
      0.154,
      0.221
    ],
    "final_weights": [
      0.19999999999999998,
      0.6,
      0.19999999999999998,
      0.0
    ],
    "cntr_line_weights": [
      0.25,
      0.25,
      0.25,
      0.25
    ],
    "canny_seg_weights": [
      0.7,
      0.30000000000000004
    ],
    "init_params": [
      1.0,
      0.0,
      1.0,
      6.123233995736766e-17,
      1.0,
      1.0,
      -1.0,
      1.2246467991473532e-16,
      1.0,
      -1.8369701987210297e-16,
      -1.0,
      1.0,
      1.0,
      0.0,
      0.0,
      0.0,
      -0.2346957092402263,
      -0.22321740904247503,
      0.8734941886062276,
      0.0,
      0.0,
      -1.0,
      0.8734941886062276
    ],
    "final_loss": 0.2948577214539647,
    "time_duration": 1.3840067000128329,
    "optimized_parameters": [
      0.014536266066965845,
      0.9998943429027192,
      0.20886242109970082,
      -0.985312583928483,
      0.17076039339721943,
      0.14944355746108326,
      -0.015173427491950895,
      -0.9998848769224193,
      -0.29398496151426445,
      0.8210357650354888,
      -0.5708767577443052,
      -0.5135777382611982,
      0.6495013717079084,
      -0.28190689836253385,
      -0.2909131857971196,
      -0.6434640527135499,
      -0.24187399664156123,
      -0.22677344195001803,
      0.8778980428168807,
      0.015103102777765467,
      -0.7405821881878041,
      -0.671796039602394,
      0.4254771150236333
    ],
    "final_E_line": 7.992258988908333e-06,
    "final_E_plane": 6.001854935847506e-06,
    "final_E_pose": 2.495907160108804e-07,
    "final_E_centroids": 0.0,
    "final_E_total": 2.948577214557696e-06
  }
]