[
  {
    "mask_number": 4,
    "image_num": 3,
    "contour_noise": false,
    "canny": false,
    "generate_random": false,
    "all_edges_good": true,
    "is_vertical": "True",
    "edges_control": [
      0,
      0,
      0,
      0
    ],
    "no_canny": "True",
    "box_dimensions": [
      0.296,
      0.154,
      0.221
    ],
    "final_weights": [
      0.19999999999999998,
      0.6,
      0.19999999999999998,
      0.0
    ],
    "cntr_line_weights": [
      0.25,
      0.25,
      0.25,
      0.25
    ],
    "canny_seg_weights": [
      0.7,
      0.30000000000000004
    ],
    "init_params": [
      1.0,
      0.0,
      1.0,
      6.123233995736766e-17,
      1.0,
      1.0,
      -1.0,
      1.2246467991473532e-16,
      1.0,
      -1.8369701987210297e-16,
      -1.0,
      1.0,
      1.0,
      0.0,
      0.0,
      0.0,
      0.29228083108191155,
      -0.11656247124927346,
      0.771019327070854,
      0.0,
      0.0,
      -1.0,
      0.771019327070854
    ],
    "final_loss": 0.21446306809169924,
    "time_duration": 1.7626114999875426,
    "optimized_parameters": [
      0.038225868605646286,
      0.9992691243950971,
      0.06155250809010614,
      -0.854571710127736,
      -0.5193334114510504,
      -0.49108329462469835,
      -0.038327135171988644,
      -0.9992652454226255,
      -0.2703027348895496,
      0.9420833674738901,
      0.3353787839578941,
      0.3222059392873165,
      0.6563120585049954,
      -0.2741871920709062,
      -0.2942479904201973,
      -0.6383525559586993,
      0.2980429753637459,
      -0.13056886993119368,
      0.7865035113217217,
      0.03618073063876187,
      -0.7355725723792089,
      -0.6764790798642573,
      0.4252268938200811
    ],
    "final_E_line": 9.25029524740407e-06,
    "final_E_plane": 1.263755227813059e-06,
    "final_E_pose": 6.970097658352043e-08,
    "final_E_centroids": 0.0,
    "final_E_total": 2.144630680993538e-06
  }
]