[
  {
    "mask_number": 5,
    "image_num": 3,
    "contour_noise": false,
    "canny": true,
    "is_vertical": "True",
    "edges_control": [
      1,
      1,
      0,
      1
    ],
    "no_canny": "False",
    "box_dimensions": [
      0.296,
      0.154,
      0.221
    ],
    "final_weights": [
      0.3333333333333333,
      0.3333333333333333,
      0.3333333333333333,
      0.0
    ],
    "cntr_line_weights": [
      0.25,
      0.25,
      0.25,
      0.25
    ],
    "canny_seg_weights": [
      0.7,
      0.30000000000000004
    ],
    "init_params": [
      1.0,
      0.0,
      1.0,
      6.123233995736766e-17,
      1.0,
      1.0,
      -1.0,
      1.2246467991473532e-16,
      1.0,
      -1.8369701987210297e-16,
      -1.0,
      1.0,
      1.0,
      0.0,
      0.0,
      0.0,
      0.1419562764154872,
      -0.11745251134377513,
      0.7667253136423275,
      0.0,
      0.0,
      -1.0,
      0.7667253136423275
    ],
    "final_loss": 0.2384826274795185,
    "time_duration": 1.4406539000046905,
    "optimized_parameters": [
      0.027908113036550497,
      0.9996104927554278,
      0.05772638674052108,
      -0.9409311490663795,
      -0.33859795143595306,
      -0.31827355906549887,
      -0.023183099913378982,
      -0.9997312358221215,
      -0.2623060430756457,
      0.9968553713652656,
      0.07924246702562711,
      0.0936087403870422,
      0.6528052844723131,
      -0.2862372404726423,
      -0.29314641702338246,
      -0.6371645634512751,
      0.14047123155273322,
      -0.13327662836503307,
      0.7843742114268202,
      0.017974539448310414,
      -0.7472793485667347,
      -0.6642668824632405,
      0.41891403728485394
    ],
    "final_E_line": 6.234859994132359e-06,
    "final_E_plane": 3.7604976369380646e-07,
    "final_E_pose": 5.435690663468293e-07,
    "final_E_centroids": 0.0,
    "final_E_total": 2.384826274724331e-06
  }
]