[
  {
    "mask_number": 2,
    "image_num": 4,
    "contour_noise": true,
    "canny": true,
    "is_vertical": "False",
    "edges_control": [
      1,
      1,
      1,
      1
    ],
    "no_canny": "False",
    "box_dimensions": [
      0.396,
      0.2,
      0.205
    ],
    "final_weights": [
      0.19999999999999998,
      0.6,
      0.19999999999999998,
      0.0
    ],
    "cntr_line_weights": [
      0.32142857142857145,
      0.32142857142857145,
      0.035714285714285705,
      0.32142857142857145
    ],
    "canny_seg_weights": [
      0.7,
      0.30000000000000004
    ],
    "init_params": [
      1.0,
      0.0,
      1.0,
      6.123233995736766e-17,
      1.0,
      1.0,
      -1.0,
      1.2246467991473532e-16,
      1.0,
      -1.8369701987210297e-16,
      -1.0,
      1.0,
      1.0,
      0.0,
      0.0,
      0.0,
      0.16689312799180434,
      0.10075013566956649,
      0.5677756290674923,
      0.0,
      0.0,
      -1.0,
      0.5677756290674923
    ],
    "final_loss": 26.777052852208016,
    "time_duration": 3.414630200015381,
    "optimized_parameters": [
      -0.019882827573766516,
      0.999802317044685,
      -0.44519771459575014,
      -0.8590688149204002,
      -0.511860109044718,
      -0.4764213651201308,
      -0.007993080132889852,
      -0.9999680548248312,
      0.08264352214943083,
      0.9999846445921318,
      0.005541712757473159,
      -0.034761701471748035,
      0.650883990640321,
      -0.25262845581390203,
      -0.2790099667075626,
      -0.6593044308353575,
      0.18035304448095524,
      0.1273683649634863,
      0.537098670725073,
      0.03008814026429601,
      -0.6967685953002755,
      -0.7166646554831183,
      0.46823943588587025
    ],
    "final_E_line": 0.0011882962277594,
    "final_E_plane": 5.4248267558088e-05,
    "final_E_pose": 3.210271567773742e-05,
    "final_E_centroids": 5.396177552834043e-21,
    "final_E_total": 0.0002677705284701
  }
]