[
  {
    "mask_number": 20,
    "image_num": 6,
    "contour_noise": false,
    "canny": false,
    "generate_random": false,
    "all_edges_good": true,
    "is_vertical": "False",
    "edges_control": [
      0,
      0,
      0,
      0
    ],
    "no_canny": "True",
    "box_dimensions": [
      0.387,
      0.22,
      0.213
    ],
    "final_weights": [
      0.19999999999999998,
      0.6,
      0.19999999999999998,
      0.0
    ],
    "cntr_line_weights": [
      0.25,
      0.25,
      0.25,
      0.25
    ],
    "canny_seg_weights": [
      0.7,
      0.30000000000000004
    ],
    "init_params": [
      1.0,
      0.0,
      1.0,
      6.123233995736766e-17,
      1.0,
      1.0,
      -1.0,
      1.2246467991473532e-16,
      1.0,
      -1.8369701987210297e-16,
      -1.0,
      1.0,
      1.0,
      0.0,
      0.0,
      0.0,
      -0.21140860434598488,
      0.08516568906871609,
      0.5435571699716188,
      0.0,
      0.0,
      -1.0,
      0.5435571699716188
    ],
    "final_loss": 0.3482028668636531,
    "time_duration": 2.386260500003118,
    "optimized_parameters": [
      -0.009832538208022452,
      0.9999516594277906,
      -0.3130937639094457,
      -0.9992870707524445,
      0.03775381076462355,
      0.0373915223552679,
      0.006798645281216671,
      -0.9999768889441234,
      -0.002079824357668785,
      0.8236965324909761,
      -0.5670308830763473,
      -0.5311572162369405,
      0.6456108930993465,
      -0.28335840652017236,
      -0.282072814347605,
      -0.6506377760104687,
      -0.2167974915136346,
      0.0752522745033399,
      0.5542959135785221,
      -0.004508801155893091,
      -0.732932980369047,
      -0.6802859082764634,
      0.431257085538072
    ],
    "final_E_line": 1.090957529076796e-05,
    "final_E_plane": 5.177778228298959e-06,
    "final_E_pose": 4.409299413875531e-07,
    "final_E_centroids": 0.0,
    "final_E_total": 3.482028668645916e-06
  }
]