[
  {
    "mask_number": 6,
    "image_num": 7,
    "contour_noise": false,
    "canny": true,
    "generate_random": false,
    "all_edges_good": true,
    "is_vertical": "False",
    "edges_control": [
      1,
      1,
      1,
      1
    ],
    "no_canny": "False",
    "final_weights": [
      0.19999999999999998,
      0.6,
      0.19999999999999998,
      0.0
    ],
    "cntr_line_weights": [
      0.25,
      0.25,
      0.25,
      0.25
    ],
    "canny_seg_weights": [
      0.7,
      0.30000000000000004
    ],
    "init_params": [
      1.0,
      0.0,
      1.0,
      6.123233995736766e-17,
      1.0,
      1.0,
      -1.0,
      1.2246467991473532e-16,
      1.0,
      -1.8369701987210297e-16,
      -1.0,
      1.0,
      1.0,
      0.0,
      0.0,
      0.0,
      0.09049871257606135,
      -0.2495720247212556,
      0.803456502405586,
      0.0,
      0.0,
      -1.0,
      0.803456502405586,
      0.1,
      0.1
    ],
    "final_loss": 0.9785052418620698,
    "time_duration": 2.903956800000742,
    "optimized_parameters": [
      0.011241431450425452,
      0.999936813113286,
      0.25159684750846717,
      -0.9246789162147573,
      -0.3807478193101012,
      -0.3269687202691167,
      -0.01097863754053207,
      -0.9999397329428542,
      -0.3707999121808451,
      0.9991836846768092,
      -0.04039757761101182,
      -0.035074787172846,
      0.6444174901949336,
      -0.2907020474670625,
      -0.29825828331054455,
      -0.6412958867528114,
      0.08192558989036511,
      -0.25700987955837234,
      0.8119280921088687,
      0.011553655538193316,
      -0.7572105672087974,
      -0.6530686563839871,
      0.3346876601093598,
      0.19996164692107166,
      0.23191657588482323
    ],
    "final_E_line": 1.0693598361772972e-06,
    "final_E_plane": 9.785052413272795e-06,
    "final_E_pose": 0.0,
    "final_E_centroids": 0.0112414314504254,
    "final_E_total": 0.999936813113286
  }
]