[
  {
    "mask_number": 5,
    "image_num": 4,
    "contour_noise": false,
    "canny": true,
    "is_vertical": "False",
    "edges_control": [
      1,
      1,
      1,
      1
    ],
    "no_canny": "False",
    "box_dimensions": [
      0.396,
      0.2,
      0.205
    ],
    "final_weights": [
      0.3333333333333333,
      0.3333333333333333,
      0.3333333333333333,
      0.0
    ],
    "cntr_line_weights": [
      0.25,
      0.25,
      0.25,
      0.25
    ],
    "canny_seg_weights": [
      0.7,
      0.30000000000000004
    ],
    "init_params": [
      1.0,
      0.0,
      1.0,
      6.123233995736766e-17,
      1.0,
      1.0,
      -1.0,
      1.2246467991473532e-16,
      1.0,
      -1.8369701987210297e-16,
      -1.0,
      1.0,
      1.0,
      0.0,
      0.0,
      0.0,
      0.15205110112352285,
      -0.13577225986383443,
      0.8230049116741286,
      0.0,
      0.0,
      -1.0,
      0.8230049116741286
    ],
    "final_loss": 1.0359582278738273,
    "time_duration": 1.0458283000043593,
    "optimized_parameters": [
      -0.015008241025137077,
      0.9998873700079192,
      0.09175100970898074,
      -0.8605402306358327,
      -0.5093824805166187,
      -0.45596960169248574,
      0.011889350255368513,
      -0.9999293191773698,
      -0.22963667380039748,
      0.9999325416734949,
      -0.01161516691336366,
      -0.04568470275347595,
      0.6410526381671039,
      -0.2766511776429495,
      -0.2845876334562989,
      -0.6569060205931407,
      0.1600748511546112,
      -0.1404102954667915,
      0.8289798092898994,
      0.0014036781762224312,
      -0.728590530811101,
      -0.6849480769372079,
      0.46528182844264304
    ],
    "final_E_line": 2.3765566916259143e-05,
    "final_E_plane": 4.017791329966668e-06,
    "final_E_pose": 3.2953885905445936e-06,
    "final_E_centroids": 0.0,
    "final_E_total": 1.0359582278923464e-05
  }
]