[
  {
    "mask_number": 19,
    "image_num": 3,
    "contour_noise": false,
    "canny": true,
    "is_vertical": "False",
    "edges_control": [
      1,
      1,
      1,
      1
    ],
    "no_canny": "False",
    "box_dimensions": [
      0.296,
      0.154,
      0.221
    ],
    "final_weights": [
      0.19999999999999998,
      0.6,
      0.19999999999999998,
      0.0
    ],
    "cntr_line_weights": [
      0.25,
      0.25,
      0.25,
      0.25
    ],
    "canny_seg_weights": [
      0.7,
      0.30000000000000004
    ],
    "init_params": [
      1.0,
      0.0,
      1.0,
      6.123233995736766e-17,
      1.0,
      1.0,
      -1.0,
      1.2246467991473532e-16,
      1.0,
      -1.8369701987210297e-16,
      -1.0,
      1.0,
      1.0,
      0.0,
      0.0,
      0.0,
      -0.6362093944618603,
      0.32141082832595586,
      0.7796918963554138,
      0.0,
      0.0,
      -1.0,
      0.7796918963554138
    ],
    "final_loss": 23.87194000031385,
    "time_duration": 1.7925178000004962,
    "optimized_parameters": [
      -0.11333235037110871,
      0.9935571339180265,
      -0.38301950506841337,
      -0.8823532034897414,
      0.4705877434626137,
      0.4408754246020964,
      0.22143241910496958,
      -0.9751757194318972,
      0.12186729481630892,
      0.8293013079115507,
      -0.558801700697777,
      -0.5341567363846891,
      0.6058392535122479,
      -0.4073377674398536,
      -0.09774423192424483,
      -0.6763732750851873,
      -0.6540010589737755,
      0.31016921274181714,
      0.805067534430087,
      -0.43259012235285305,
      -0.6257851265907297,
      -0.649044498775636,
      0.4337095544745785
    ],
    "final_E_line": 0.0006778713828654,
    "final_E_plane": 0.0005043003475344,
    "final_E_pose": 3.8084232099410736e-06,
    "final_E_centroids": 0.0,
    "final_E_total": 0.0002387194000059
  }
]