[
  {
    "mask_number": 10,
    "image_num": 3,
    "contour_noise": false,
    "canny": true,
    "is_vertical": "True",
    "edges_control": [
      0,
      1,
      0,
      1
    ],
    "no_canny": "False",
    "box_dimensions": [
      0.296,
      0.154,
      0.221
    ],
    "final_weights": [
      0.3333333333333333,
      0.3333333333333333,
      0.3333333333333333,
      0.0
    ],
    "cntr_line_weights": [
      0.25,
      0.25,
      0.25,
      0.25
    ],
    "canny_seg_weights": [
      0.7,
      0.30000000000000004
    ],
    "init_params": [
      1.0,
      0.0,
      1.0,
      6.123233995736766e-17,
      1.0,
      1.0,
      -1.0,
      1.2246467991473532e-16,
      1.0,
      -1.8369701987210297e-16,
      -1.0,
      1.0,
      1.0,
      0.0,
      0.0,
      0.0,
      0.14599408608556905,
      -0.3249330531484343,
      1.0015194304043171,
      0.0,
      0.0,
      -1.0,
      1.0015194304043171
    ],
    "final_loss": 0.9092231267719084,
    "time_duration": 1.8558999000233598,
    "optimized_parameters": [
      0.028683837947833538,
      0.9995885340683,
      0.26445652578106194,
      -0.9352907739921632,
      -0.35388016062719696,
      -0.3210218476470761,
      -0.027448229490615365,
      -0.9996232263697451,
      -0.3908769790025036,
      0.9942309719813561,
      0.10726031117355433,
      0.10065796907698502,
      0.6510020681110681,
      -0.2774969039355223,
      -0.2945850525599357,
      -0.6421926676859733,
      0.14380462163096597,
      -0.33437719457007914,
      1.0111528733401869,
      0.027138014291100306,
      -0.739662823183124,
      -0.672430246331358,
      0.4287008280249506
    ],
    "final_E_line": 1.7612964938340318e-05,
    "final_E_plane": 8.046515550834908e-06,
    "final_E_pose": 1.6172133145113106e-06,
    "final_E_centroids": 0.0,
    "final_E_total": 9.092231267895512e-06
  }
]