[
  {
    "mask_number": 3,
    "image_num": 3,
    "contour_noise": false,
    "canny": false,
    "generate_random": false,
    "all_edges_good": true,
    "is_vertical": "False",
    "edges_control": [
      0,
      0,
      0,
      0
    ],
    "no_canny": "True",
    "final_weights": [
      0.19999999999999998,
      0.6,
      0.19999999999999998,
      0.0
    ],
    "cntr_line_weights": [
      0.25,
      0.25,
      0.25,
      0.25
    ],
    "canny_seg_weights": [
      0.7,
      0.30000000000000004
    ],
    "init_params": [
      1.0,
      0.0,
      1.0,
      6.123233995736766e-17,
      1.0,
      1.0,
      -1.0,
      1.2246467991473532e-16,
      1.0,
      -1.8369701987210297e-16,
      -1.0,
      1.0,
      1.0,
      0.0,
      0.0,
      0.0,
      -0.23611548918166375,
      0.08655654786648947,
      0.53122602726156,
      0.0,
      0.0,
      -1.0,
      0.53122602726156,
      0.1,
      0.1
    ],
    "final_loss": 0.23229407914314487,
    "time_duration": 2.4906832999549806,
    "optimized_parameters": [
      0.02333129679174968,
      0.9997277882455337,
      -0.2892951933510711,
      -0.9835600979773855,
      0.1805810999728154,
      0.1491196187035159,
      -0.02066263023724433,
      -0.9997865050660193,
      0.05859406101540618,
      0.8318938282382987,
      -0.554934823685698,
      -0.5183586956870547,
      0.6581512246017198,
      -0.2724306720691202,
      -0.279545146010452,
      -0.6437957795864252,
      -0.24158065470469436,
      0.08173499886838503,
      0.5360724419824405,
      0.017186536033532675,
      -0.7185411731763583,
      -0.6952720369968944,
      0.4355980825404757,
      0.2894126621489349,
      0.1499861078152005
    ],
    "final_E_line": 3.264439347255928e-06,
    "final_E_plane": 2.322940791718058e-06,
    "final_E_pose": 0.0,
    "final_E_centroids": 0.0233312977337678,
    "final_E_total": 0.9997277882235912
  }
]