[
  {
    "mask_number": 7,
    "image_num": 6,
    "contour_noise": false,
    "canny": true,
    "generate_random": false,
    "all_edges_good": true,
    "is_vertical": "False",
    "edges_control": [
      1,
      1,
      1,
      1
    ],
    "no_canny": "False",
    "final_weights": [
      0.19999999999999998,
      0.6,
      0.19999999999999998,
      0.0
    ],
    "cntr_line_weights": [
      0.25,
      0.25,
      0.25,
      0.25
    ],
    "canny_seg_weights": [
      0.7,
      0.30000000000000004
    ],
    "init_params": [
      1.0,
      0.0,
      1.0,
      6.123233995736766e-17,
      1.0,
      1.0,
      -1.0,
      1.2246467991473532e-16,
      1.0,
      -1.8369701987210297e-16,
      -1.0,
      1.0,
      1.0,
      0.0,
      0.0,
      0.0,
      -0.831441412962547,
      -0.3017375252959231,
      0.9059322861312228,
      0.0,
      0.0,
      -1.0,
      0.9059322861312228,
      0.15,
      0.15
    ],
    "final_loss": 5.5464214316104865,
    "time_duration": 3.593453399997088,
    "optimized_parameters": [
      0.0031397550885828756,
      0.9999950709583406,
      0.28074332834092597,
      -0.4363499340804673,
      0.8997770474124946,
      0.6367332223517898,
      0.047871903898418104,
      -0.9988534831587143,
      -0.439365868627988,
      0.3815285453946168,
      -0.9243570571208887,
      -0.6811644976294554,
      0.7092195929202727,
      -0.3756648721265064,
      -0.20354337844642872,
      -0.560761594585186,
      -0.75,
      -0.3139893694323937,
      0.8938848256837889,
      -0.13259942553017698,
      -0.7611360315510324,
      -0.6348931672569595,
      0.22899882135030636,
      0.27279768008400174,
      0.27330102149285224
    ],
    "final_E_line": 0.0001166447068767,
    "final_E_plane": 5.5464214315514455e-05,
    "final_E_pose": 0.0,
    "final_E_centroids": 0.0031397550885593,
    "final_E_total": 0.9999950709583408
  }
]