[
  {
    "mask_number": 6,
    "image_num": 6,
    "contour_noise": false,
    "generate_random": false,
    "all_edges_good": true,
    "is_vertical": "False",
    "final_weights": [
      0.2,
      0.6000000000000001,
      0.2
    ],
    "cntr_line_weights": [
      0.25,
      0.25,
      0.25,
      0.25
    ],
    "init_params": [
      1.0,
      0.0,
      1.0,
      6.123233995736766e-17,
      1.0,
      1.0,
      -1.0,
      1.2246467991473532e-16,
      1.0,
      -1.8369701987210297e-16,
      -1.0,
      1.0,
      1.0,
      0.0,
      0.0,
      0.0,
      -0.6182541203172912,
      -0.3058546199409713,
      0.9050597110959023,
      0.0,
      0.0,
      -1.0,
      0.9050597110959023,
      0.37080633031798516,
      0.3667798828987102
    ],
    "final_loss": 0.06774574260932512,
    "time_duration": 0.6280558159996872,
    "optimized_parameters": [
      -0.012120004091393051,
      0.9999265500596056,
      0.28092696696451813,
      -0.7230437213828957,
      0.6908022705295531,
      0.6527684791095031,
      0.013004118472068697,
      -0.9999154428810905,
      -0.4114752845027141,
      0.6124429500565063,
      -0.7905147898232235,
      -0.7464956211214409,
      0.6464524835870639,
      -0.283958812933386,
      -0.2770773762802964,
      -0.651686049093121,
      -0.6169019212024959,
      -0.3157862757431199,
      0.9155920463404996,
      -0.011868163831990117,
      -0.728266543116828,
      -0.6851912060666847,
      0.39005758985274774,
      0.18693779396242352,
      0.2747701389546182
    ],
    "final_E_line": 1.2743778676095174e-06,
    "final_E_plane": 6.774574257751198e-07,
    "final_E_pose": 0.0,
    "final_E_centroids": -0.012120004090955,
    "final_E_total": 0.999926550059611
  }
]