[
  {
    "mask_number": 4,
    "image_num": 3,
    "contour_noise": false,
    "canny": true,
    "is_vertical": "True",
    "edges_control": [
      1,
      1,
      0,
      1
    ],
    "no_canny": "False",
    "box_dimensions": [
      0.296,
      0.154,
      0.221
    ],
    "final_weights": [
      0.3333333333333333,
      0.3333333333333333,
      0.3333333333333333,
      0.0
    ],
    "cntr_line_weights": [
      0.25,
      0.25,
      0.25,
      0.25
    ],
    "canny_seg_weights": [
      0.7,
      0.30000000000000004
    ],
    "init_params": [
      1.0,
      0.0,
      1.0,
      6.123233995736766e-17,
      1.0,
      1.0,
      -1.0,
      1.2246467991473532e-16,
      1.0,
      -1.8369701987210297e-16,
      -1.0,
      1.0,
      1.0,
      0.0,
      0.0,
      0.0,
      0.29282873503343826,
      -0.11645100638103352,
      0.7709745817007558,
      0.0,
      0.0,
      -1.0,
      0.7709745817007558
    ],
    "final_loss": 0.2072072917405028,
    "time_duration": 1.6553219000052195,
    "optimized_parameters": [
      0.026803450818704604,
      0.9996407229722155,
      0.05682674891496422,
      -0.8510209917451551,
      -0.5251316707351773,
      -0.48981370882886,
      -0.02420156218491723,
      -0.999707099298504,
      -0.2658368860320926,
      0.9400433279776148,
      0.3410550417818666,
      0.3203081747401284,
      0.652903920458932,
      -0.2774317543183094,
      -0.29129222618026457,
      -0.6417919688748012,
      0.29664722607558874,
      -0.13078710415541148,
      0.7866465939248923,
      0.024264655416852007,
      -0.7361705560027813,
      -0.6763609531693209,
      0.4285773882978459
    ],
    "final_E_line": 5.119494553302197e-06,
    "final_E_plane": 9.41945761486021e-07,
    "final_E_pose": 1.5477843742686692e-07,
    "final_E_centroids": 0.0,
    "final_E_total": 2.072072917405028e-06
  }
]