[
  {
    "mask_number": 16,
    "image_num": 7,
    "contour_noise": false,
    "canny": true,
    "generate_random": false,
    "all_edges_good": true,
    "is_vertical": "False",
    "edges_control": [
      1,
      1,
      1,
      1
    ],
    "no_canny": "False",
    "final_weights": [
      0.19999999999999998,
      0.6,
      0.19999999999999998,
      0.0
    ],
    "cntr_line_weights": [
      0.25,
      0.25,
      0.25,
      0.25
    ],
    "canny_seg_weights": [
      0.7,
      0.30000000000000004
    ],
    "init_params": [
      1.0,
      0.0,
      1.0,
      6.123233995736766e-17,
      1.0,
      1.0,
      -1.0,
      1.2246467991473532e-16,
      1.0,
      -1.8369701987210297e-16,
      -1.0,
      1.0,
      1.0,
      0.0,
      0.0,
      0.0,
      -0.7206647470915301,
      -0.3672681911809915,
      0.7395871843608115,
      0.0,
      0.0,
      -1.0,
      0.7395871843608115,
      0.1,
      0.1
    ],
    "final_loss": 0.7825817405627052,
    "time_duration": 15.918138299995917,
    "optimized_parameters": [
      0.051895799059618206,
      0.9986525052117721,
      0.4090242513724934,
      -0.4892911084106752,
      0.8721205290412911,
      0.7614214077677373,
      -0.05406163408675871,
      -0.9985376005865723,
      -0.47666430434089785,
      0.27262081567937,
      -0.9621215577418588,
      -0.8415949867342345,
      0.6515771713291296,
      -0.2761325971063366,
      -0.30802006557168454,
      -0.6358628931122896,
      -0.7281634242660275,
      -0.36955757417278184,
      0.7416306031440693,
      0.05023305114163343,
      -0.7515610909215433,
      -0.6577481032576863,
      0.24663881965854423,
      0.41654252547360116,
      0.15962472337596414
    ],
    "final_E_line": 6.463800855506337e-07,
    "final_E_plane": 7.82581740639166e-06,
    "final_E_pose": 0.0,
    "final_E_centroids": 0.0518957990596182,
    "final_E_total": 0.998652505211772
  }
]