[
  {
    "mask_number": 16,
    "image_num": 3,
    "contour_noise": false,
    "canny": true,
    "is_vertical": "False",
    "edges_control": [
      1,
      0,
      0,
      0
    ],
    "no_canny": "False",
    "box_dimensions": [
      0.296,
      0.154,
      0.221
    ],
    "final_weights": [
      0.3333333333333333,
      0.3333333333333333,
      0.3333333333333333,
      0.0
    ],
    "cntr_line_weights": [
      0.25,
      0.25,
      0.25,
      0.25
    ],
    "canny_seg_weights": [
      0.7,
      0.30000000000000004
    ],
    "init_params": [
      1.0,
      0.0,
      1.0,
      6.123233995736766e-17,
      1.0,
      1.0,
      -1.0,
      1.2246467991473532e-16,
      1.0,
      -1.8369701987210297e-16,
      -1.0,
      1.0,
      1.0,
      0.0,
      0.0,
      0.0,
      -0.23067087519405707,
      -0.4396808149130998,
      1.1274577992920112,
      0.0,
      0.0,
      -1.0,
      1.1274577992920112
    ],
    "final_loss": 0.36595508381694664,
    "time_duration": 3.0151389999955427,
    "optimized_parameters": [
      -0.021817475440455217,
      -0.9997619705537134,
      -0.36093228769186125,
      0.9895745283899917,
      -0.1440217093431013,
      -0.13942884297187902,
      0.0233345883209622,
      0.999727711423424,
      0.40865702023108336,
      -0.8132585882012333,
      0.5819024563592635,
      0.5121096307350536,
      -0.6399019859388371,
      0.2850542923841703,
      0.3092275962201804,
      0.6431545634766138,
      -0.243389431748847,
      -0.44154531290277726,
      1.1292689549981105,
      0.029082757512169842,
      -0.7625759259847503,
      -0.6462446520660858,
      0.40015064251907095
    ],
    "final_E_line": 6.804030173356983e-06,
    "final_E_plane": 3.988416952218986e-06,
    "final_E_pose": 1.8620538953492505e-07,
    "final_E_centroids": 0.0,
    "final_E_total": 3.659550838370298e-06
  }
]