[
  {
    "mask_number": 10,
    "image_num": 3,
    "contour_noise": false,
    "canny": true,
    "is_vertical": "True",
    "edges_control": [
      0,
      1,
      0,
      1
    ],
    "no_canny": "False",
    "box_dimensions": [
      0.296,
      0.154,
      0.221
    ],
    "final_weights": [
      0.19999999999999998,
      0.6,
      0.19999999999999998,
      0.0
    ],
    "cntr_line_weights": [
      0.25,
      0.25,
      0.25,
      0.25
    ],
    "canny_seg_weights": [
      0.7,
      0.30000000000000004
    ],
    "init_params": [
      1.0,
      0.0,
      1.0,
      6.123233995736766e-17,
      1.0,
      1.0,
      -1.0,
      1.2246467991473532e-16,
      1.0,
      -1.8369701987210297e-16,
      -1.0,
      1.0,
      1.0,
      0.0,
      0.0,
      0.0,
      0.14599408608556905,
      -0.3249330531484343,
      1.0015194304043171,
      0.0,
      0.0,
      -1.0,
      1.0015194304043171
    ],
    "final_loss": 0.5701670964407628,
    "time_duration": 1.9871658000047319,
    "optimized_parameters": [
      0.02512192363041993,
      0.9996843946731926,
      0.26400997658407094,
      -0.9359586051791863,
      -0.3521100529536637,
      -0.32016234523280507,
      -0.02606548149206453,
      -0.9996602376180553,
      -0.39055519316300147,
      0.9938298996744079,
      0.11091496974329704,
      0.10227222193297444,
      0.6505942137142594,
      -0.2775497322448576,
      -0.2941186730807717,
      -0.6427966407484863,
      0.14375331665185612,
      -0.33422095464645496,
      1.010902198164837,
      0.025887799233412973,
      -0.7392614883674432,
      -0.6729207038482344,
      0.4294588917883001
    ],
    "final_E_line": 1.9360324320580663e-05,
    "final_E_plane": 8.437773945028236e-06,
    "final_E_pose": 2.3675218637045403e-07,
    "final_E_centroids": 0.0,
    "final_E_total": 5.701670964944052e-06
  }
]