[
  {
    "mask_number": 19,
    "image_num": 3,
    "contour_noise": false,
    "canny": true,
    "is_vertical": "False",
    "edges_control": [
      1,
      1,
      1,
      1
    ],
    "no_canny": "False",
    "box_dimensions": [
      0.296,
      0.154,
      0.221
    ],
    "final_weights": [
      0.3333333333333333,
      0.3333333333333333,
      0.3333333333333333,
      0.0
    ],
    "cntr_line_weights": [
      0.25,
      0.25,
      0.25,
      0.25
    ],
    "canny_seg_weights": [
      0.7,
      0.30000000000000004
    ],
    "init_params": [
      1.0,
      0.0,
      1.0,
      6.123233995736766e-17,
      1.0,
      1.0,
      -1.0,
      1.2246467991473532e-16,
      1.0,
      -1.8369701987210297e-16,
      -1.0,
      1.0,
      1.0,
      0.0,
      0.0,
      0.0,
      -0.635590916052717,
      0.321610837986969,
      0.7796221101567062,
      0.0,
      0.0,
      -1.0,
      0.7796221101567062
    ],
    "final_loss": 38.98191446492163,
    "time_duration": 1.8297794999962207,
    "optimized_parameters": [
      -0.09265467359647393,
      0.9956983034337604,
      -0.4008424360381902,
      -0.9052563102912029,
      0.4248658761045361,
      0.4743958919837266,
      0.21983999610868393,
      -0.9755359430133443,
      0.12398611382007908,
      0.8488699432000649,
      -0.5286017589183933,
      -0.5636059203298047,
      0.6094311215685879,
      -0.39138956623448484,
      -0.08349058016526538,
      -0.6844247500859205,
      -0.6526876648615081,
      0.31000337405709283,
      0.803101282305393,
      -0.4339898986958807,
      -0.5913359607908405,
      -0.6796870966155752,
      0.44591388377189356
    ],
    "final_E_line": 0.0006443656327969,
    "final_E_plane": 0.0004897678297247,
    "final_E_pose": 3.532397142594836e-05,
    "final_E_centroids": 0.0,
    "final_E_total": 0.0003898191446492
  }
]