[
  {
    "mask_number": 6,
    "image_num": 4,
    "contour_noise": false,
    "canny": true,
    "is_vertical": "False",
    "edges_control": [
      1,
      1,
      0,
      1
    ],
    "no_canny": "False",
    "box_dimensions": [
      0.396,
      0.2,
      0.205
    ],
    "final_weights": [
      0.19999999999999998,
      0.6,
      0.19999999999999998,
      0.0
    ],
    "cntr_line_weights": [
      0.25,
      0.25,
      0.25,
      0.25
    ],
    "canny_seg_weights": [
      0.7,
      0.30000000000000004
    ],
    "init_params": [
      1.0,
      0.0,
      1.0,
      6.123233995736766e-17,
      1.0,
      1.0,
      -1.0,
      1.2246467991473532e-16,
      1.0,
      -1.8369701987210297e-16,
      -1.0,
      1.0,
      1.0,
      0.0,
      0.0,
      0.0,
      -0.24141535642854867,
      -0.39339164507602153,
      1.098556450883375,
      0.0,
      0.0,
      -1.0,
      1.098556450883375
    ],
    "final_loss": 0.2326793726487543,
    "time_duration": 14.974972799944226,
    "optimized_parameters": [
      -0.005391948271993622,
      0.9999854633421236,
      0.3200325323986465,
      -0.9977477993934649,
      0.06707703756220659,
      0.07074268800004718,
      0.005563519686838489,
      -0.9999845235049785,
      -0.40201481795728916,
      0.848507826179562,
      -0.5291828313169813,
      -0.5335641621498042,
      0.652158686354123,
      -0.2714255230661388,
      -0.2688480916191171,
      -0.6547808311806581,
      -0.2490571299682452,
      -0.4011506853193592,
      1.106886718830279,
      -0.004785261776601159,
      -0.7060980643347065,
      -0.7080978921137995,
      0.4993406722259144
    ],
    "final_E_line": 8.306409425141839e-06,
    "final_E_plane": 2.9139167428034782e-06,
    "final_E_pose": 1.3788082461021708e-07,
    "final_E_centroids": 0.0,
    "final_E_total": 2.326793728355193e-06
  }
]