[
  {
    "mask_number": 4,
    "image_num": 5,
    "contour_noise": false,
    "canny": true,
    "generate_random": false,
    "all_edges_good": true,
    "is_vertical": "False",
    "edges_control": [
      1,
      1,
      1,
      1
    ],
    "no_canny": "False",
    "box_dimensions": [
      0.396,
      0.2,
      0.205
    ],
    "final_weights": [
      0.19999999999999998,
      0.6,
      0.19999999999999998,
      0.0
    ],
    "cntr_line_weights": [
      0.25,
      0.25,
      0.25,
      0.25
    ],
    "canny_seg_weights": [
      0.7,
      0.30000000000000004
    ],
    "init_params": [
      1.0,
      0.0,
      1.0,
      6.123233995736766e-17,
      1.0,
      1.0,
      -1.0,
      1.2246467991473532e-16,
      1.0,
      -1.8369701987210297e-16,
      -1.0,
      1.0,
      1.0,
      0.0,
      0.0,
      0.0,
      -0.11037772702817049,
      0.1290519783786463,
      0.7660841094338507,
      0.0,
      0.0,
      -1.0,
      0.7660841094338507
    ],
    "final_loss": 38.914204377803586,
    "time_duration": 1.9322760000359267,
    "optimized_parameters": [
      -0.003120209937901172,
      0.9999951321333483,
      -0.27305172993091076,
      -0.9050330000037645,
      -0.42534135574187976,
      0.07682145825255675,
      -0.2730681917233104,
      -0.9619946791272256,
      0.10145073643595456,
      0.9521203036117212,
      0.3057236128441997,
      -0.318054223172779,
      0.5240195166677969,
      0.13520580406652308,
      -0.5832855994611172,
      -0.6057234073067844,
      -0.09433066696084934,
      0.13096470478407876,
      0.8130488142678102,
      0.7751007516397278,
      -0.5649184618143805,
      -0.2829946224026618,
      0.37718859951930184
    ],
    "final_E_line": 0.0005696103609612,
    "final_E_plane": 0.00136530322906,
    "final_E_pose": 3.598876366066627e-06,
    "final_E_centroids": 0.0,
    "final_E_total": 0.0003891420438238
  }
]