[
  {
    "mask_number": 6,
    "image_num": 3,
    "contour_noise": false,
    "canny": true,
    "is_vertical": "True",
    "edges_control": [
      1,
      1,
      0,
      1
    ],
    "no_canny": "False",
    "box_dimensions": [
      0.296,
      0.154,
      0.221
    ],
    "final_weights": [
      0.3333333333333333,
      0.3333333333333333,
      0.3333333333333333,
      0.0
    ],
    "cntr_line_weights": [
      0.25,
      0.25,
      0.25,
      0.25
    ],
    "canny_seg_weights": [
      0.7,
      0.30000000000000004
    ],
    "init_params": [
      1.0,
      0.0,
      1.0,
      6.123233995736766e-17,
      1.0,
      1.0,
      -1.0,
      1.2246467991473532e-16,
      1.0,
      -1.8369701987210297e-16,
      -1.0,
      1.0,
      1.0,
      0.0,
      0.0,
      0.0,
      -0.0160308921417671,
      -0.12754290077303346,
      0.77242398242149,
      0.0,
      0.0,
      -1.0,
      0.77242398242149
    ],
    "final_loss": 0.20694261689117135,
    "time_duration": 1.5533565999940038,
    "optimized_parameters": [
      0.02878023981752139,
      0.999585763102866,
      0.05766101958245937,
      -0.9969774297006757,
      -0.07769172845951654,
      -0.09101119902095169,
      -0.023777144354769623,
      -0.9997172837399347,
      -0.26745756392911146,
      0.9819229491128585,
      -0.1892810661570766,
      -0.15104309652708942,
      0.6549667068532573,
      -0.281270208715985,
      -0.28879267965935534,
      -0.6391435447368069,
      -0.016274185635498012,
      -0.13962697256793632,
      0.7853738946753684,
      0.01875510527194143,
      -0.7376051697943592,
      -0.6749717472018114,
      0.4274208407549782
    ],
    "final_E_line": 4.558687628271839e-06,
    "final_E_plane": 1.30012729857798e-06,
    "final_E_pose": 3.494635797762047e-07,
    "final_E_centroids": 0.0,
    "final_E_total": 2.069426168875341e-06
  }
]