[
  {
    "mask_number": 14,
    "image_num": 3,
    "contour_noise": false,
    "canny": true,
    "is_vertical": "True",
    "edges_control": [
      0,
      0,
      0,
      1
    ],
    "no_canny": "False",
    "box_dimensions": [
      0.296,
      0.154,
      0.221
    ],
    "final_weights": [
      0.19999999999999998,
      0.6,
      0.19999999999999998,
      0.0
    ],
    "cntr_line_weights": [
      0.25,
      0.25,
      0.25,
      0.25
    ],
    "canny_seg_weights": [
      0.7,
      0.30000000000000004
    ],
    "init_params": [
      1.0,
      0.0,
      1.0,
      6.123233995736766e-17,
      1.0,
      1.0,
      -1.0,
      1.2246467991473532e-16,
      1.0,
      -1.8369701987210297e-16,
      -1.0,
      1.0,
      1.0,
      0.0,
      0.0,
      0.0,
      0.2924510859753782,
      -0.4960429830369701,
      1.2016391153474226,
      0.0,
      0.0,
      -1.0,
      1.2016391153474226
    ],
    "final_loss": 0.18757400764231436,
    "time_duration": 2.196555599977728,
    "optimized_parameters": [
      -0.0035406249530186345,
      0.9999937319679825,
      0.3766432885404668,
      -0.8401413474985596,
      -0.5423675102947316,
      -0.48991791345896757,
      0.004483473646988162,
      -0.99998994918162,
      -0.46048690993540253,
      0.9360053574035804,
      0.35198575384780517,
      0.3213452181650906,
      0.6464516835338693,
      -0.29396353683938614,
      -0.2870442129864293,
      -0.6428773441770764,
      0.3033968941835241,
      -0.5202139898272884,
      1.2288203237389985,
      -0.006844571189211271,
      -0.7491348748648784,
      -0.662382133746627,
      0.4263148150128477
    ],
    "final_E_line": 4.359453484016365e-06,
    "final_E_plane": 4.9341565169788655e-06,
    "final_E_pose": 2.836346056705341e-08,
    "final_E_centroids": 0.0,
    "final_E_total": 1.875740076539278e-06
  }
]