[
  {
    "mask_number": 10,
    "image_num": 4,
    "contour_noise": false,
    "canny": true,
    "is_vertical": "False",
    "edges_control": [
      0,
      0,
      1,
      1
    ],
    "no_canny": "False",
    "box_dimensions": [
      0.396,
      0.2,
      0.205
    ],
    "final_weights": [
      0.3333333333333333,
      0.3333333333333333,
      0.3333333333333333,
      0.0
    ],
    "cntr_line_weights": [
      0.25,
      0.25,
      0.25,
      0.25
    ],
    "canny_seg_weights": [
      0.7,
      0.30000000000000004
    ],
    "init_params": [
      1.0,
      0.0,
      1.0,
      6.123233995736766e-17,
      1.0,
      1.0,
      -1.0,
      1.2246467991473532e-16,
      1.0,
      -1.8369701987210297e-16,
      -1.0,
      1.0,
      1.0,
      0.0,
      0.0,
      0.0,
      -0.242336531409765,
      -0.5162345194909221,
      1.2237726985873831,
      0.0,
      0.0,
      -1.0,
      1.2237726985873831
    ],
    "final_loss": 0.48855242537500854,
    "time_duration": 1.3509230999916326,
    "optimized_parameters": [
      -0.014187082819387102,
      0.99989935827616,
      0.4018588605868267,
      -0.9931337708729397,
      0.11698424317729031,
      0.09419715986096985,
      0.015064834783509503,
      -0.9998865189374975,
      -0.4582058981237276,
      0.7960512022394967,
      -0.6052292816884182,
      -0.5442435212511544,
      0.6456707694245628,
      -0.2935686289035904,
      -0.2812129242642547,
      -0.6464100934091066,
      -0.2514406127779744,
      -0.5333938854126347,
      1.243919035684281,
      -0.016389532395082958,
      -0.7426552895049754,
      -0.6694733035739178,
      0.4325218140331734
    ],
    "final_E_line": 8.326391050017759e-06,
    "final_E_plane": 4.686259937349782e-06,
    "final_E_pose": 1.643921774522748e-06,
    "final_E_centroids": 0.0,
    "final_E_total": 4.8855242539634295e-06
  }
]