[
  {
    "mask_number": 26,
    "image_num": 6,
    "contour_noise": false,
    "canny": true,
    "generate_random": false,
    "all_edges_good": true,
    "is_vertical": "False",
    "edges_control": [
      1,
      1,
      1,
      1
    ],
    "no_canny": "False",
    "final_weights": [
      0.19999999999999998,
      0.6,
      0.19999999999999998,
      0.0
    ],
    "cntr_line_weights": [
      0.25,
      0.25,
      0.25,
      0.25
    ],
    "canny_seg_weights": [
      0.7,
      0.30000000000000004
    ],
    "init_params": [
      1.0,
      0.0,
      1.0,
      6.123233995736766e-17,
      1.0,
      1.0,
      -1.0,
      1.2246467991473532e-16,
      1.0,
      -1.8369701987210297e-16,
      -1.0,
      1.0,
      1.0,
      0.0,
      0.0,
      0.0,
      -0.2224096722922175,
      -0.062135103387844545,
      0.703255822126524,
      0.0,
      0.0,
      -1.0,
      0.703255822126524,
      0.1,
      0.1
    ],
    "final_loss": 0.1990298914549225,
    "time_duration": 2.067651900004421,
    "optimized_parameters": [
      -0.0012097903320017838,
      0.9999992682034091,
      -0.001862125887967112,
      -0.9990854576451097,
      0.042758020558913055,
      0.03753593307801042,
      0.0011674546985909072,
      -0.9999993185245334,
      -0.18663808842983823,
      0.8177578982191906,
      -0.5755623510099768,
      -0.5272577745088253,
      0.6468218610074375,
      -0.28556102870081723,
      -0.2847649008340318,
      -0.6472907617627143,
      -0.21683783229668255,
      -0.07361133005661478,
      0.7157982746513797,
      -0.0012977006522691239,
      -0.7380656312574142,
      -0.6747276783488166,
      0.42835754178640534,
      0.3862198341443111,
      0.2224708247814699
    ],
    "final_E_line": 1.1168278774549133e-06,
    "final_E_plane": 1.990298914549343e-06,
    "final_E_pose": 0.0,
    "final_E_centroids": -0.0012097903334647,
    "final_E_total": 0.9999992682034072
  }
]