[
  {
    "mask_number": 0,
    "image_num": 5,
    "contour_noise": false,
    "canny": true,
    "generate_random": false,
    "all_edges_good": true,
    "is_vertical": "True",
    "edges_control": [
      0,
      1,
      1,
      1
    ],
    "no_canny": "False",
    "box_dimensions": [
      0.396,
      0.2,
      0.205
    ],
    "final_weights": [
      0.19999999999999998,
      0.6,
      0.19999999999999998,
      0.0
    ],
    "cntr_line_weights": [
      0.25,
      0.25,
      0.25,
      0.25
    ],
    "canny_seg_weights": [
      0.7,
      0.30000000000000004
    ],
    "init_params": [
      1.0,
      0.0,
      1.0,
      6.123233995736766e-17,
      1.0,
      1.0,
      -1.0,
      1.2246467991473532e-16,
      1.0,
      -1.8369701987210297e-16,
      -1.0,
      1.0,
      1.0,
      0.0,
      0.0,
      0.0,
      -0.3059616447288777,
      0.07152664213852007,
      0.5259343582368994,
      0.0,
      0.0,
      -1.0,
      0.5259343582368994
    ],
    "final_loss": 0.3180973625858095,
    "time_duration": 1.4703286999720149,
    "optimized_parameters": [
      -0.03113127598139424,
      0.9995153043629584,
      -0.3824568208744601,
      -0.9365129362105292,
      0.35063302797988005,
      0.33225327477712463,
      0.02362059408973945,
      -0.9997209948455068,
      -0.13703687710866774,
      0.8008392430544894,
      -0.598879375821137,
      -0.5442368035254348,
      0.6334296595976288,
      -0.29437479442896963,
      -0.29347566880984133,
      -0.6526732555908831,
      -0.3140752910924684,
      0.039024447498766386,
      0.5643523165394604,
      -0.01246869911768221,
      -0.756018883670818,
      -0.6544310346213527,
      0.3949167914023243
    ],
    "final_E_line": 7.942125127438775e-06,
    "final_E_plane": 7.603025351396809e-06,
    "final_E_pose": 1.1990585627855597e-07,
    "final_E_centroids": 0.0,
    "final_E_total": 3.18097360953425e-06
  }
]