[
  {
    "mask_number": 9,
    "image_num": 6,
    "contour_noise": false,
    "canny": true,
    "generate_random": false,
    "all_edges_good": true,
    "is_vertical": "False",
    "edges_control": [
      1,
      1,
      0,
      1
    ],
    "no_canny": "False",
    "final_weights": [
      0.19999999999999998,
      0.6,
      0.19999999999999998,
      0.0
    ],
    "cntr_line_weights": [
      0.25,
      0.25,
      0.25,
      0.25
    ],
    "canny_seg_weights": [
      0.7,
      0.30000000000000004
    ],
    "init_params": [
      1.0,
      0.0,
      1.0,
      6.123233995736766e-17,
      1.0,
      1.0,
      -1.0,
      1.2246467991473532e-16,
      1.0,
      -1.8369701987210297e-16,
      -1.0,
      1.0,
      1.0,
      0.0,
      0.0,
      0.0,
      0.1616048860236786,
      -0.2199127002941137,
      0.8802455289508653,
      0.0,
      0.0,
      -1.0,
      0.8802455289508653,
      0.15,
      0.15
    ],
    "final_loss": 0.14825065097497658,
    "time_duration": 3.074398199998541,
    "optimized_parameters": [
      0.009019916229782342,
      0.9999593197281693,
      0.18769264045451498,
      -0.851181800540658,
      -0.524870976935348,
      -0.4767965393293559,
      -0.012252932303288248,
      -0.9999249300072867,
      -0.31241116975008904,
      0.9999701522556329,
      -0.007726228021911697,
      -0.028889880570257105,
      0.6468859887834284,
      -0.27046431713460173,
      -0.2890376173668937,
      -0.6518012169516902,
      0.16858191647904902,
      -0.2245381585467583,
      0.8853579139992732,
      0.02137082878459372,
      -0.7267091664611821,
      -0.6866127548031753,
      0.44112136815309594,
      0.38468288694389907,
      0.2175707539140484
    ],
    "final_E_line": 1.1323245902140382e-06,
    "final_E_plane": 1.4825065097211075e-06,
    "final_E_pose": 0.0,
    "final_E_centroids": 0.0090199162297174,
    "final_E_total": 0.99995931972817
  }
]