[
  {
    "mask_number": 11,
    "image_num": 3,
    "contour_noise": false,
    "canny": false,
    "generate_random": false,
    "all_edges_good": true,
    "is_vertical": "False",
    "edges_control": [
      0,
      0,
      0,
      0
    ],
    "no_canny": "True",
    "box_dimensions": [
      0.296,
      0.154,
      0.221
    ],
    "final_weights": [
      0.19999999999999998,
      0.6,
      0.19999999999999998,
      0.0
    ],
    "cntr_line_weights": [
      0.25,
      0.25,
      0.25,
      0.25
    ],
    "canny_seg_weights": [
      0.7,
      0.30000000000000004
    ],
    "init_params": [
      1.0,
      0.0,
      1.0,
      6.123233995736766e-17,
      1.0,
      1.0,
      -1.0,
      1.2246467991473532e-16,
      1.0,
      -1.8369701987210297e-16,
      -1.0,
      1.0,
      1.0,
      0.0,
      0.0,
      0.0,
      -0.22798502367285706,
      -0.12393322128787637,
      0.7660615845937984,
      0.0,
      0.0,
      -1.0,
      0.7660615845937984
    ],
    "final_loss": 0.19072264217925988,
    "time_duration": 1.1438346999930218,
    "optimized_parameters": [
      0.030979156642047,
      0.9995200307416292,
      0.09456661689759195,
      -0.9714653141713513,
      0.2371816674238498,
      0.16093407297161832,
      -0.026250994251553434,
      -0.9996553832700571,
      -0.20962591441362993,
      0.7989840850338128,
      -0.6013521695834261,
      -0.5080921523725858,
      0.6625648117294254,
      -0.2880479282699031,
      -0.2784219283584159,
      -0.6328645124247226,
      -0.24476471576810516,
      -0.12736952798691267,
      0.7696474761002099,
      0.004354494108820082,
      -0.7341075637165387,
      -0.6790192363072091,
      0.43016834362850165
    ],
    "final_E_line": 7.549752224654769e-06,
    "final_E_plane": 1.8860420018888855e-06,
    "final_E_pose": 3.344596080165248e-08,
    "final_E_centroids": 0.0,
    "final_E_total": 1.9072264217897224e-06
  }
]