[
  {
    "mask_number": 3,
    "image_num": 6,
    "contour_noise": false,
    "canny": false,
    "generate_random": false,
    "all_edges_good": true,
    "is_vertical": "False",
    "edges_control": [
      0,
      0,
      0,
      0
    ],
    "no_canny": "True",
    "box_dimensions": [
      0.387,
      0.22,
      0.213
    ],
    "final_weights": [
      0.19999999999999998,
      0.6,
      0.19999999999999998,
      0.0
    ],
    "cntr_line_weights": [
      0.25,
      0.25,
      0.25,
      0.25
    ],
    "canny_seg_weights": [
      0.7,
      0.30000000000000004
    ],
    "init_params": [
      1.0,
      0.0,
      1.0,
      6.123233995736766e-17,
      1.0,
      1.0,
      -1.0,
      1.2246467991473532e-16,
      1.0,
      -1.8369701987210297e-16,
      -1.0,
      1.0,
      1.0,
      0.0,
      0.0,
      0.0,
      0.16418876438262162,
      -0.06482169148183382,
      0.7116104778436028,
      0.0,
      0.0,
      -1.0,
      0.7116104778436028
    ],
    "final_loss": 0.05681901881704794,
    "time_duration": 1.5818518000014592,
    "optimized_parameters": [
      -0.0008822506784954595,
      0.9999996108168213,
      -0.0045471215991864005,
      -0.8443490397762775,
      -0.5357935227574961,
      -0.4759788536308947,
      -0.0062830820359911265,
      -0.9999802612452553,
      -0.18732716112107245,
      0.9999723073603998,
      0.007442077152475213,
      -0.031416753134829466,
      0.6439600205926984,
      -0.26664216195408064,
      -0.29143490967438423,
      -0.6551970259164732,
      0.1704443776842399,
      -0.07304017264956808,
      0.7203413837944858,
      0.02593852852162215,
      -0.7253083337796301,
      -0.687935326675382,
      0.4381505691005043
    ],
    "final_E_line": 1.2174805212653773e-06,
    "final_E_plane": 1.5761357068883086e-06,
    "final_E_pose": 1.5778237606301773e-08,
    "final_E_centroids": 0.0,
    "final_E_total": 5.681901881945183e-07
  }
]