[
  {
    "mask_number": 0,
    "image_num": 4,
    "contour_noise": false,
    "canny": true,
    "generate_random": false,
    "all_edges_good": true,
    "is_vertical": "True",
    "edges_control": [
      1,
      1,
      1,
      1
    ],
    "no_canny": "False",
    "box_dimensions": [
      0.396,
      0.2,
      0.205
    ],
    "final_weights": [
      0.19999999999999998,
      0.6,
      0.19999999999999998,
      0.0
    ],
    "cntr_line_weights": [
      0.25,
      0.25,
      0.25,
      0.25
    ],
    "canny_seg_weights": [
      0.7,
      0.30000000000000004
    ],
    "init_params": [
      1.0,
      0.0,
      1.0,
      6.123233995736766e-17,
      1.0,
      1.0,
      -1.0,
      1.2246467991473532e-16,
      1.0,
      -1.8369701987210297e-16,
      -1.0,
      1.0,
      1.0,
      0.0,
      0.0,
      0.0,
      -0.31419110682742335,
      0.10517662689124811,
      0.5518018396213641,
      0.0,
      0.0,
      -1.0,
      0.5518018396213641
    ],
    "final_loss": 0.7098957576744905,
    "time_duration": 0.5487095270000282,
    "optimized_parameters": [
      -0.040871056594806984,
      0.999164429277226,
      -0.45283196334779585,
      -0.9552099091964705,
      0.2959290951782241,
      0.32797055159898375,
      0.01341160845786605,
      -0.9999100603347438,
      -0.08149549391514188,
      0.8417043236790718,
      -0.5399387293945693,
      -0.5450762915598366,
      0.6333870019603541,
      -0.27325437179929796,
      -0.3004015517704933,
      -0.6587198659022158,
      -0.3249490699987569,
      0.07771966911084423,
      0.5821813353588948,
      0.020544775546160406,
      -0.7419124842693647,
      -0.6701818991014826,
      0.45450460825415234
    ],
    "final_E_line": 3.1720880482880014e-05,
    "final_E_plane": 3.427508919045846e-06,
    "final_E_pose": 1.1546616062092369e-07,
    "final_E_centroids": 0.0,
    "final_E_total": 7.098957576757725e-06
  }
]