[
  {
    "mask_number": 8,
    "image_num": 4,
    "contour_noise": true,
    "canny": true,
    "is_vertical": "True",
    "edges_control": [
      1,
      1,
      1,
      1
    ],
    "no_canny": "False",
    "box_dimensions": [
      0.396,
      0.2,
      0.205
    ],
    "final_weights": [
      0.19999999999999998,
      0.6,
      0.19999999999999998,
      0.0
    ],
    "cntr_line_weights": [
      0.45,
      0.45,
      0.04999999999999999,
      0.04999999999999999
    ],
    "canny_seg_weights": [
      0.7,
      0.30000000000000004
    ],
    "init_params": [
      1.0,
      0.0,
      1.0,
      6.123233995736766e-17,
      1.0,
      1.0,
      -1.0,
      1.2246467991473532e-16,
      1.0,
      -1.8369701987210297e-16,
      -1.0,
      1.0,
      1.0,
      0.0,
      0.0,
      0.0,
      0.23486155500122566,
      -0.431480617961033,
      1.1324041820534945,
      0.0,
      0.0,
      -1.0,
      1.1324041820534945
    ],
    "final_loss": 0.573049614810967,
    "time_duration": 2.793187500035856,
    "optimized_parameters": [
      -0.020035047807883982,
      0.9997992782852586,
      0.32375497465401143,
      -0.8526686178759939,
      -0.5224521299501441,
      -0.45813300362885717,
      0.017556858515310553,
      -0.9998458664812041,
      -0.4612695542316395,
      0.9560742030913049,
      0.2931247485002436,
      0.23304677132855386,
      0.6379768745281407,
      -0.2739008716432564,
      -0.28096814381824614,
      -0.662586388510823,
      0.24146630341186182,
      -0.47813496480660683,
      1.1813367736582499,
      -0.004463593912501477,
      -0.7218161787214651,
      -0.6920704302784307,
      0.4735205121215743
    ],
    "final_E_line": 1.9896647436937044e-05,
    "final_E_plane": 8.632098439087171e-06,
    "final_E_pose": 4.124494643426868e-08,
    "final_E_centroids": 3.0611140935022765e-21,
    "final_E_total": 5.730496143065404e-06
  }
]