[
  {
    "mask_number": 16,
    "image_num": 6,
    "contour_noise": false,
    "canny": true,
    "generate_random": false,
    "all_edges_good": true,
    "is_vertical": "False",
    "edges_control": [
      1,
      1,
      1,
      0
    ],
    "no_canny": "False",
    "final_weights": [
      0.19999999999999998,
      0.6,
      0.19999999999999998,
      0.0
    ],
    "cntr_line_weights": [
      0.25,
      0.25,
      0.25,
      0.25
    ],
    "canny_seg_weights": [
      0.7,
      0.30000000000000004
    ],
    "init_params": [
      1.0,
      0.0,
      1.0,
      6.123233995736766e-17,
      1.0,
      1.0,
      -1.0,
      1.2246467991473532e-16,
      1.0,
      -1.8369701987210297e-16,
      -1.0,
      1.0,
      1.0,
      0.0,
      0.0,
      0.0,
      -1.1637852636160253,
      -0.45205521552896627,
      1.0586813911119883,
      0.0,
      0.0,
      -1.0,
      1.0586813911119883,
      0.15,
      0.15
    ],
    "final_loss": 27.474066492375954,
    "time_duration": 6.571415200000047,
    "optimized_parameters": [
      0.12478292350145645,
      -0.9921934409631792,
      -0.5637112469438238,
      -0.12336929575606802,
      0.9923699197697037,
      0.563426918164835,
      0.10609591366359826,
      -0.9943623992223684,
      -0.5735305109284835,
      0.11305547616044447,
      -0.9935948093797904,
      -0.5530036840346771,
      0.46759046473286303,
      0.8451106644813222,
      0.1783439437369684,
      -0.19070610170723037,
      -0.014680667455385299,
      -0.0401689895871787,
      0.07472198228846355,
      -0.1079170501572597,
      -0.8640924235127045,
      -0.49165371687461823,
      0.00012200092740551787,
      0.10000000000003828,
      0.10000010129578692
    ],
    "final_E_line": 0.0002261192350534,
    "final_E_plane": 0.0002747431497241,
    "final_E_pose": 0.0,
    "final_E_centroids": 0.1247829235014564,
    "final_E_total": -0.992193426062018
  }
]