[
  {
    "mask_number": 18,
    "image_num": 6,
    "contour_noise": false,
    "canny": true,
    "generate_random": false,
    "all_edges_good": true,
    "is_vertical": "False",
    "edges_control": [
      1,
      1,
      1,
      1
    ],
    "no_canny": "False",
    "final_weights": [
      0.19999999999999998,
      0.6,
      0.19999999999999998,
      0.0
    ],
    "cntr_line_weights": [
      0.25,
      0.25,
      0.25,
      0.25
    ],
    "canny_seg_weights": [
      0.7,
      0.30000000000000004
    ],
    "init_params": [
      1.0,
      0.0,
      1.0,
      6.123233995736766e-17,
      1.0,
      1.0,
      -1.0,
      1.2246467991473532e-16,
      1.0,
      -1.8369701987210297e-16,
      -1.0,
      1.0,
      1.0,
      0.0,
      0.0,
      0.0,
      0.15582080456563438,
      -0.4780498161992256,
      1.1569228605756356,
      0.0,
      0.0,
      -1.0,
      1.1569228605756356,
      0.15,
      0.15
    ],
    "final_loss": 0.13910697150387508,
    "time_duration": 4.201377799996408,
    "optimized_parameters": [
      0.005203073429531501,
      0.9999864639218323,
      0.39097908680893584,
      -0.8313738475590926,
      -0.5557135283533307,
      -0.482427372684824,
      -0.0057508695952048225,
      -0.9999834636127306,
      -0.45727416660866466,
      0.9993699515314932,
      -0.03549225233814242,
      -0.0364014329266906,
      0.6435733706428343,
      -0.2894542849870145,
      -0.2949448353827233,
      -0.6442337134791559,
      0.16376841674182804,
      -0.5065287008974404,
      1.1895540182539182,
      0.0066848668772831465,
      -0.7525969402533622,
      -0.6584475363125829,
      0.400952201261927,
      0.3780932321902319,
      0.23219742276701308
    ],
    "final_E_line": 1.5812765658142998e-06,
    "final_E_plane": 1.391069715011431e-06,
    "final_E_pose": 0.0,
    "final_E_centroids": 0.0052030734295315,
    "final_E_total": 0.9999864639218324
  }
]