[
  {
    "mask_number": 6,
    "image_num": 4,
    "contour_noise": true,
    "canny": true,
    "is_vertical": "False",
    "edges_control": [
      1,
      1,
      0,
      1
    ],
    "no_canny": "False",
    "box_dimensions": [
      0.396,
      0.2,
      0.205
    ],
    "final_weights": [
      0.19999999999999998,
      0.6,
      0.19999999999999998,
      0.0
    ],
    "cntr_line_weights": [
      0.04999999999999999,
      0.04999999999999999,
      0.45,
      0.45
    ],
    "canny_seg_weights": [
      0.7,
      0.30000000000000004
    ],
    "init_params": [
      1.0,
      0.0,
      1.0,
      6.123233995736766e-17,
      1.0,
      1.0,
      -1.0,
      1.2246467991473532e-16,
      1.0,
      -1.8369701987210297e-16,
      -1.0,
      1.0,
      1.0,
      0.0,
      0.0,
      0.0,
      -0.24140488226247855,
      -0.39339449303645324,
      1.0985589558746833,
      0.0,
      0.0,
      -1.0,
      1.0985589558746833
    ],
    "final_loss": 3.4664103438633935,
    "time_duration": 2.4886617999873124,
    "optimized_parameters": [
      0.028267938274273187,
      0.9996003819855842,
      0.31758905856405084,
      -0.9159617237033153,
      0.4012656485552386,
      0.19626709939687345,
      -0.017656036177677907,
      -0.9998441200439692,
      -0.3991666141854051,
      0.7277194150564925,
      -0.6858749543100672,
      -0.541188073683258,
      0.6893961668366361,
      -0.30610599087133006,
      -0.2424439041861619,
      -0.6101253976246253,
      -0.255805915151734,
      -0.4093782930486879,
      1.1173732644343966,
      -0.03924631386006459,
      -0.717899080576569,
      -0.6950400254343081,
      0.4726874196165239
    ],
    "final_E_line": 0.0001423817401166,
    "final_E_plane": 2.400092418324665e-05,
    "final_E_pose": 2.312617631102065e-06,
    "final_E_centroids": 4.301967863546209e-20,
    "final_E_total": 3.466410343863393e-05
  }
]