[
  {
    "mask_number": 6,
    "image_num": 6,
    "contour_noise": false,
    "generate_random": false,
    "all_edges_good": true,
    "is_vertical": "False",
    "final_weights": [
      0.19999999999999998,
      0.6,
      0.19999999999999998
    ],
    "cntr_line_weights": [
      0.25,
      0.25,
      0.25,
      0.25
    ],
    "init_params": [
      1.0,
      0.0,
      1.0,
      6.123233995736766e-17,
      1.0,
      1.0,
      -1.0,
      1.2246467991473532e-16,
      1.0,
      -1.8369701987210297e-16,
      -1.0,
      1.0,
      1.0,
      0.0,
      0.0,
      0.0,
      -0.6159790518602972,
      -0.3055047014615966,
      0.9047534245026974,
      0.0,
      0.0,
      -1.0,
      0.9047534245026974,
      0.37131414834701837,
      0.3706680579848913
    ],
    "final_loss": 0.06601281158024629,
    "time_duration": 0.6659192709994386,
    "optimized_parameters": [
      -0.010671689621073706,
      0.9999430558990043,
      0.27985105406588917,
      -0.7234983508971196,
      0.690326108624866,
      0.6528744888503465,
      0.011511360863038651,
      -0.9999337420904917,
      -0.4105580612167823,
      0.6131296577308553,
      -0.7899822927198151,
      -0.7468588957433989,
      0.6470114698451023,
      -0.2833518906944984,
      -0.27703134464484186,
      -0.651414996767433,
      -0.616980699623728,
      -0.31579093766924227,
      0.915679613520024,
      -0.010674366432723625,
      -0.7275886030223102,
      -0.685930668984879,
      0.39174097418041715,
      0.18661947542600993,
      0.2741148952256634
    ],
    "final_E_line": 1.2722507893553072e-06,
    "final_E_plane": 6.601281178457863e-07,
    "final_E_pose": 0.0,
    "final_E_centroids": -0.0106716077533366,
    "final_E_total": 0.999943056772714
  }
]