[
  {
    "mask_number": 6,
    "image_num": 6,
    "contour_noise": false,
    "canny": true,
    "generate_random": false,
    "all_edges_good": true,
    "is_vertical": "False",
    "edges_control": [
      1,
      1,
      1,
      1
    ],
    "no_canny": "False",
    "final_weights": [
      0.19999999999999998,
      0.6,
      0.19999999999999998,
      0.0
    ],
    "cntr_line_weights": [
      0.25,
      0.25,
      0.25,
      0.25
    ],
    "canny_seg_weights": [
      0.7,
      0.30000000000000004
    ],
    "init_params": [
      1.0,
      0.0,
      1.0,
      6.123233995736766e-17,
      1.0,
      1.0,
      -1.0,
      1.2246467991473532e-16,
      1.0,
      -1.8369701987210297e-16,
      -1.0,
      1.0,
      1.0,
      0.0,
      0.0,
      0.0,
      -0.6159894679638933,
      -0.3072175893733421,
      0.9064836796671397,
      0.0,
      0.0,
      -1.0,
      0.9064836796671397,
      0.1,
      0.1
    ],
    "final_loss": 0.6351901748433689,
    "time_duration": 3.8586747999943327,
    "optimized_parameters": [
      -0.010051019187632158,
      0.9999494872313737,
      0.287807517713876,
      -0.7054724524922498,
      0.7087373411757221,
      0.6496164973529343,
      0.012733368010443408,
      -0.9999189273837487,
      -0.4082448127628015,
      0.596764964268868,
      -0.8024160874650034,
      -0.738707087206157,
      0.6501497677093371,
      -0.28920198041664785,
      -0.2743674938520294,
      -0.6468307138566812,
      -0.6177699925254398,
      -0.3181714983360304,
      0.9182664806344356,
      -0.017369490411017097,
      -0.7309878338665328,
      -0.6821693979813521,
      0.3831034512720398,
      0.1881709149337295,
      0.25465384363286697
    ],
    "final_E_line": 1.08504183573943e-06,
    "final_E_plane": 6.351901748448795e-06,
    "final_E_pose": 0.0,
    "final_E_centroids": -0.0100510191876321,
    "final_E_total": 0.9999494872313736
  }
]