[
  {
    "mask_number": 9,
    "image_num": 3,
    "contour_noise": false,
    "canny": true,
    "is_vertical": "True",
    "edges_control": [
      0,
      1,
      0,
      1
    ],
    "no_canny": "False",
    "box_dimensions": [
      0.296,
      0.154,
      0.221
    ],
    "final_weights": [
      0.19999999999999998,
      0.6,
      0.19999999999999998,
      0.0
    ],
    "cntr_line_weights": [
      0.25,
      0.25,
      0.25,
      0.25
    ],
    "canny_seg_weights": [
      0.7,
      0.30000000000000004
    ],
    "init_params": [
      1.0,
      0.0,
      1.0,
      6.123233995736766e-17,
      1.0,
      1.0,
      -1.0,
      1.2246467991473532e-16,
      1.0,
      -1.8369701987210297e-16,
      -1.0,
      1.0,
      1.0,
      0.0,
      0.0,
      0.0,
      0.2960963552632037,
      -0.3194457461894921,
      1.000455592653111,
      0.0,
      0.0,
      -1.0,
      1.000455592653111
    ],
    "final_loss": 0.1069648323051328,
    "time_duration": 1.6754452000022866,
    "optimized_parameters": [
      0.02191490238568669,
      0.99975983968826,
      0.26431210833198127,
      -0.8338138229715423,
      -0.5520457486672706,
      -0.49100821610706397,
      -0.023329063379479435,
      -0.9997278403655012,
      -0.38699007721421297,
      0.9303048303764894,
      0.36678729882341177,
      0.3272290433585013,
      0.6486959730832684,
      -0.28382166052762586,
      -0.29744248539862106,
      -0.6404426339660109,
      0.3021759425737494,
      -0.32962465170369243,
      1.0120310789211038,
      0.022356445692238724,
      -0.7492176375099553,
      -0.6619464638334548,
      0.4161942187946072
    ],
    "final_E_line": 3.130310462692914e-06,
    "final_E_plane": 2.182441645313398e-06,
    "final_E_pose": 1.1829835752067585e-08,
    "final_E_centroids": 0.0,
    "final_E_total": 1.0696483230525029e-06
  }
]