[
  {
    "mask_number": 6,
    "image_num": 5,
    "contour_noise": false,
    "canny": true,
    "generate_random": false,
    "all_edges_good": true,
    "is_vertical": "True",
    "edges_control": [
      1,
      1,
      1,
      1
    ],
    "no_canny": "False",
    "box_dimensions": [
      0.396,
      0.2,
      0.205
    ],
    "final_weights": [
      0.19999999999999998,
      0.6,
      0.19999999999999998,
      0.0
    ],
    "cntr_line_weights": [
      0.25,
      0.25,
      0.25,
      0.25
    ],
    "canny_seg_weights": [
      0.7,
      0.30000000000000004
    ],
    "init_params": [
      1.0,
      0.0,
      1.0,
      6.123233995736766e-17,
      1.0,
      1.0,
      -1.0,
      1.2246467991473532e-16,
      1.0,
      -1.8369701987210297e-16,
      -1.0,
      1.0,
      1.0,
      0.0,
      0.0,
      0.0,
      0.2623985414123569,
      -0.452018770793048,
      1.1271870019767578,
      0.0,
      0.0,
      -1.0,
      1.1271870019767578
    ],
    "final_loss": 0.37533091484879455,
    "time_duration": 2.1478702999884263,
    "optimized_parameters": [
      0.012110549472446396,
      0.9999266646067008,
      0.35430221593879174,
      -0.7892247501249664,
      -0.6141044648846483,
      -0.5045358981291318,
      -0.015110061000025168,
      -0.9998858365116374,
      -0.46942456105756014,
      0.9300331310495396,
      0.3674756796752786,
      0.2894693655080337,
      0.638588169078259,
      -0.2860982503697257,
      -0.30500549032029656,
      -0.6460066503707568,
      0.2702774351788319,
      -0.4857458473312764,
      1.167189376521605,
      0.01990307817744498,
      -0.7594690606182342,
      -0.6502388895189003,
      0.3846636373690508
    ],
    "final_E_line": 8.030491720091956e-06,
    "final_E_plane": 1.0666344707762504e-05,
    "final_E_pose": 2.3236414898425053e-08,
    "final_E_centroids": 0.0,
    "final_E_total": 3.753309134509947e-06
  }
]