[
  {
    "mask_number": 27,
    "image_num": 7,
    "contour_noise": false,
    "canny": true,
    "generate_random": false,
    "all_edges_good": true,
    "is_vertical": "False",
    "edges_control": [
      0,
      0,
      1,
      0
    ],
    "no_canny": "False",
    "final_weights": [
      0.19999999999999998,
      0.6,
      0.19999999999999998,
      0.0
    ],
    "cntr_line_weights": [
      0.25,
      0.25,
      0.25,
      0.25
    ],
    "canny_seg_weights": [
      0.7,
      0.30000000000000004
    ],
    "init_params": [
      1.0,
      0.0,
      1.0,
      6.123233995736766e-17,
      1.0,
      1.0,
      -1.0,
      1.2246467991473532e-16,
      1.0,
      -1.8369701987210297e-16,
      -1.0,
      1.0,
      1.0,
      0.0,
      0.0,
      0.0,
      -0.7654435425682279,
      -0.5992599009838601,
      1.0194355857590602,
      0.0,
      0.0,
      -1.0,
      1.0194355857590602,
      0.1,
      0.1
    ],
    "final_loss": 3.3738374269301685,
    "time_duration": 4.567688800001633,
    "optimized_parameters": [
      0.10957355700672973,
      0.9939956552657774,
      0.5088943249970537,
      0.10760607931598307,
      0.994211410261315,
      0.5098314916065164,
      -0.14916323657789096,
      -0.988840057305732,
      -0.4897675288751311,
      -0.07006988970571598,
      -0.9975641358794943,
      -0.5273880991065449,
      0.8484949040856008,
      -0.3545225814808247,
      -0.20003285626649928,
      -0.3400461990665018,
      -0.43348294240142415,
      -0.5835417717889587,
      1.0462919867679936,
      0.09137855424367497,
      -0.6954806563378604,
      -0.7128774651633419,
      0.37969339379082623,
      0.00500000293677133,
      0.00500000765224642
    ],
    "final_E_line": 2.509204399681207e-05,
    "final_E_plane": 3.373837425517252e-05,
    "final_E_pose": 0.0,
    "final_E_centroids": 0.1095735570067297,
    "final_E_total": 0.9939956552657774
  }
]