[
  {
    "mask_number": 1,
    "image_num": 6,
    "contour_noise": false,
    "canny": true,
    "generate_random": false,
    "all_edges_good": true,
    "is_vertical": "False",
    "edges_control": [
      1,
      1,
      1,
      1
    ],
    "no_canny": "False",
    "final_weights": [
      0.19999999999999998,
      0.6,
      0.19999999999999998,
      0.0
    ],
    "cntr_line_weights": [
      0.25,
      0.25,
      0.25,
      0.25
    ],
    "canny_seg_weights": [
      0.7,
      0.30000000000000004
    ],
    "init_params": [
      1.0,
      0.0,
      1.0,
      6.123233995736766e-17,
      1.0,
      1.0,
      -1.0,
      1.2246467991473532e-16,
      1.0,
      -1.8369701987210297e-16,
      -1.0,
      1.0,
      1.0,
      0.0,
      0.0,
      0.0,
      0.15765879755398396,
      0.08808494245848315,
      0.5479178973689356,
      0.0,
      0.0,
      -1.0,
      0.5479178973689356,
      0.15,
      0.15
    ],
    "final_loss": 0.5000667720908195,
    "time_duration": 2.2735307999973884,
    "optimized_parameters": [
      -0.002846756572612845,
      0.9999959479804119,
      -0.3204731111289108,
      -0.8455428592561671,
      -0.5339075511378817,
      -0.47530914697524246,
      -0.006043073370335982,
      -0.9999817404659153,
      -0.00033801309063993844,
      0.999852119129093,
      -0.017197089110544843,
      -0.038277146825250095,
      0.6455957410793285,
      -0.273884748818761,
      -0.29386879808638156,
      -0.649487808181517,
      0.1724902473328395,
      0.07679392603269909,
      0.5606956004211568,
      0.02367125736895684,
      -0.7353659307600198,
      -0.6772566865331604,
      0.43212342636435386,
      0.3902519003123517,
      0.224248780071655
    ],
    "final_E_line": 1.4335930510577802e-06,
    "final_E_plane": 5.0006677229968975e-06,
    "final_E_pose": 0.0,
    "final_E_centroids": -0.0028467405821151,
    "final_E_total": 0.9999959480258198
  }
]