[
  {
    "mask_number": 22,
    "image_num": 6,
    "contour_noise": false,
    "canny": false,
    "generate_random": false,
    "all_edges_good": true,
    "is_vertical": "False",
    "edges_control": [
      0,
      0,
      0,
      0
    ],
    "no_canny": "True",
    "box_dimensions": [
      0.387,
      0.22,
      0.213
    ],
    "final_weights": [
      0.19999999999999998,
      0.6,
      0.19999999999999998,
      0.0
    ],
    "cntr_line_weights": [
      0.25,
      0.25,
      0.25,
      0.25
    ],
    "canny_seg_weights": [
      0.7,
      0.30000000000000004
    ],
    "init_params": [
      1.0,
      0.0,
      1.0,
      6.123233995736766e-17,
      1.0,
      1.0,
      -1.0,
      1.2246467991473532e-16,
      1.0,
      -1.8369701987210297e-16,
      -1.0,
      1.0,
      1.0,
      0.0,
      0.0,
      0.0,
      -0.21333487992149072,
      -0.3593779830612336,
      1.0322309418067581,
      0.0,
      0.0,
      -1.0,
      1.0322309418067581
    ],
    "final_loss": 0.15779960007974123,
    "time_duration": 2.3734599000017624,
    "optimized_parameters": [
      0.002966712959565341,
      0.9999955993040119,
      0.3029719474852,
      -0.9903890432704449,
      0.1383095910681684,
      0.07371123025947937,
      0.00042270640596387603,
      -0.9999999106669007,
      -0.3922633909847879,
      0.7835625426410423,
      -0.6213129177835784,
      -0.5281922369677239,
      0.657055892567633,
      -0.29556769922943127,
      -0.2749263479338349,
      -0.6366575158039279,
      -0.21966518087264975,
      -0.3646672916411475,
      1.0377980741429995,
      -0.015066748810388829,
      -0.7384765210171141,
      -0.6741108373299626,
      0.4269830872802162
    ],
    "final_E_line": 5.052731118906822e-06,
    "final_E_plane": 2.71169491612992e-06,
    "final_E_pose": 4.185132393460656e-08,
    "final_E_centroids": 0.0,
    "final_E_total": 1.5779960013681122e-06
  }
]