[
  {
    "mask_number": 3,
    "image_num": 4,
    "contour_noise": false,
    "canny": true,
    "is_vertical": "False",
    "edges_control": [
      1,
      1,
      1,
      1
    ],
    "no_canny": "False",
    "box_dimensions": [
      0.396,
      0.2,
      0.205
    ],
    "final_weights": [
      0.3333333333333333,
      0.3333333333333333,
      0.3333333333333333,
      0.0
    ],
    "cntr_line_weights": [
      0.25,
      0.25,
      0.25,
      0.25
    ],
    "canny_seg_weights": [
      0.7,
      0.30000000000000004
    ],
    "init_params": [
      1.0,
      0.0,
      1.0,
      6.123233995736766e-17,
      1.0,
      1.0,
      -1.0,
      1.2246467991473532e-16,
      1.0,
      -1.8369701987210297e-16,
      -1.0,
      1.0,
      1.0,
      0.0,
      0.0,
      0.0,
      -0.22954898793461248,
      -0.12049316526110816,
      0.805281309449783,
      0.0,
      0.0,
      -1.0,
      0.805281309449783
    ],
    "final_loss": 0.6157169458845996,
    "time_duration": 1.1221342999779154,
    "optimized_parameters": [
      -0.014625799110139377,
      0.9998930372796978,
      0.0837485180458036,
      -0.9999955718425616,
      -0.0029759529421509922,
      0.04253553303041483,
      0.010443433804947418,
      -0.9999454658582008,
      -0.22087957472548145,
      0.8437120951916124,
      -0.5367959579089614,
      -0.5304474918437888,
      0.6366631027127252,
      -0.277532666127711,
      -0.2932891209439716,
      -0.6569758019990036,
      -0.23188076378899564,
      -0.12582611077607658,
      0.8118625548040843,
      0.008788196894264907,
      -0.7387573721092261,
      -0.6739141731330903,
      0.45620853114923887
    ],
    "final_E_line": 1.4331801782288976e-05,
    "final_E_plane": 2.737301730280492e-06,
    "final_E_pose": 1.4024048640899117e-06,
    "final_E_centroids": 0.0,
    "final_E_total": 6.157169458886459e-06
  }
]