[
  {
    "mask_number": 9,
    "image_num": 5,
    "contour_noise": false,
    "canny": true,
    "generate_random": false,
    "all_edges_good": false,
    "is_vertical": "False",
    "edges_control": [
      1,
      1,
      1,
      1
    ],
    "no_canny": "False",
    "box_dimensions": [
      0.396,
      0.2,
      0.205
    ],
    "final_weights": [
      0.19999999999999998,
      0.6,
      0.19999999999999998,
      0.0
    ],
    "cntr_line_weights": [
      0.45,
      0.45,
      0.04999999999999999,
      0.04999999999999999
    ],
    "canny_seg_weights": [
      0.7,
      0.30000000000000004
    ],
    "init_params": [
      1.0,
      0.0,
      1.0,
      6.123233995736766e-17,
      1.0,
      1.0,
      -1.0,
      1.2246467991473532e-16,
      1.0,
      -1.8369701987210297e-16,
      -1.0,
      1.0,
      1.0,
      0.0,
      0.0,
      0.0,
      -0.21451543395613615,
      -0.28439613015900544,
      0.9398648470005646,
      0.0,
      0.0,
      -1.0,
      0.9398648470005646
    ],
    "final_loss": 0.44270822174604507,
    "time_duration": 1.4359427000163123,
    "optimized_parameters": [
      -0.003032201996061109,
      0.9999954028649763,
      0.2588411498103954,
      -0.9999802540477667,
      -0.006284227444917428,
      0.024023847809133934,
      0.0008387185707498246,
      -0.9999996482755247,
      -0.34774718230948265,
      0.8019773855965723,
      -0.5973543948055338,
      -0.5405535916003639,
      0.6364103457237623,
      -0.2883454426903217,
      -0.3007951326752899,
      -0.6491233054623703,
      -0.2224595093222287,
      -0.2900632281170195,
      0.9466836969282962,
      0.008514756447029651,
      -0.7575183236366375,
      -0.6527583689832299,
      0.40012169836288425
    ],
    "final_E_line": 1.959094716346602e-05,
    "final_E_plane": 2.422948338435421e-06,
    "final_E_pose": 4.050519503990596e-08,
    "final_E_centroids": 0.0,
    "final_E_total": 4.427082217404232e-06
  }
]