[
  {
    "mask_number": 10,
    "image_num": 6,
    "contour_noise": false,
    "canny": true,
    "generate_random": false,
    "all_edges_good": true,
    "is_vertical": "False",
    "edges_control": [
      1,
      1,
      1,
      1
    ],
    "no_canny": "False",
    "final_weights": [
      0.19999999999999998,
      0.6,
      0.19999999999999998,
      0.0
    ],
    "cntr_line_weights": [
      0.25,
      0.25,
      0.25,
      0.25
    ],
    "canny_seg_weights": [
      0.7,
      0.30000000000000004
    ],
    "init_params": [
      1.0,
      0.0,
      1.0,
      6.123233995736766e-17,
      1.0,
      1.0,
      -1.0,
      1.2246467991473532e-16,
      1.0,
      -1.8369701987210297e-16,
      -1.0,
      1.0,
      1.0,
      0.0,
      0.0,
      0.0,
      -0.6741271187098353,
      -0.44855231894724346,
      1.0601555621901224,
      0.0,
      0.0,
      -1.0,
      1.0601555621901224,
      0.15,
      0.15
    ],
    "final_loss": 1.030306662185995,
    "time_duration": 3.6284032000039588,
    "optimized_parameters": [
      0.004753829396505971,
      0.999988700489195,
      0.39481658732867686,
      -0.6234203467535331,
      0.7818868660194422,
      0.640104084246362,
      -0.00022997446440321836,
      -0.9999999735558727,
      -0.45238228355115945,
      0.48625634378530946,
      -0.8738162095821654,
      -0.7350806065201906,
      0.6683715842056148,
      -0.3071274325885313,
      -0.2666905808443949,
      -0.6227586207086542,
      -0.6611348511166177,
      -0.4555866156219076,
      1.0674573103792468,
      -0.026035628419038514,
      -0.7427183197385994,
      -0.6690976338154978,
      0.35864757667402775,
      0.28421268441666575,
      0.16428562465983232
    ],
    "final_E_line": 1.5854930981958328e-06,
    "final_E_plane": 1.0303066624410629e-05,
    "final_E_pose": 0.0,
    "final_E_centroids": 0.0047538136399071,
    "final_E_total": 0.9999887006506872
  }
]