[
  {
    "mask_number": 4,
    "image_num": 4,
    "contour_noise": false,
    "canny": true,
    "is_vertical": "False",
    "edges_control": [
      1,
      1,
      1,
      1
    ],
    "no_canny": "False",
    "box_dimensions": [
      0.396,
      0.2,
      0.205
    ],
    "final_weights": [
      0.3333333333333333,
      0.3333333333333333,
      0.3333333333333333,
      0.0
    ],
    "cntr_line_weights": [
      0.25,
      0.25,
      0.25,
      0.25
    ],
    "canny_seg_weights": [
      0.7,
      0.30000000000000004
    ],
    "init_params": [
      1.0,
      0.0,
      1.0,
      6.123233995736766e-17,
      1.0,
      1.0,
      -1.0,
      1.2246467991473532e-16,
      1.0,
      -1.8369701987210297e-16,
      -1.0,
      1.0,
      1.0,
      0.0,
      0.0,
      0.0,
      -0.242107178865022,
      -0.25815885010758455,
      0.9548911616330027,
      0.0,
      0.0,
      -1.0,
      0.9548911616330027
    ],
    "final_loss": 0.4994170334358746,
    "time_duration": 1.1361531000002287,
    "optimized_parameters": [
      -0.012272701233068837,
      0.9999246875666596,
      0.22308403446106664,
      -0.9999217121740475,
      -0.012512774482850474,
      0.04096724420394533,
      0.007941931896932944,
      -0.9999684623619778,
      -0.3210150585452854,
      0.8424381980037312,
      -0.5387929867277369,
      -0.5330904671924586,
      0.6356327515791209,
      -0.27629142810708535,
      -0.29370176189931285,
      -0.658310965232187,
      -0.24025827907437838,
      -0.262302527576461,
      0.9597345378112729,
      0.009601564007390997,
      -0.7379338507533213,
      -0.6748047435428538,
      0.45637835690428125
    ],
    "final_E_line": 1.258540277538519e-05,
    "final_E_plane": 1.9737302324533374e-06,
    "final_E_pose": 4.233779953298566e-07,
    "final_E_centroids": 0.0,
    "final_E_total": 4.99417033438946e-06
  }
]