[
  {
    "mask_number": 12,
    "image_num": 3,
    "contour_noise": false,
    "canny": true,
    "is_vertical": "True",
    "edges_control": [
      0,
      1,
      0,
      1
    ],
    "no_canny": "False",
    "box_dimensions": [
      0.296,
      0.154,
      0.221
    ],
    "final_weights": [
      0.3333333333333333,
      0.3333333333333333,
      0.3333333333333333,
      0.0
    ],
    "cntr_line_weights": [
      0.25,
      0.25,
      0.25,
      0.25
    ],
    "canny_seg_weights": [
      0.7,
      0.30000000000000004
    ],
    "init_params": [
      1.0,
      0.0,
      1.0,
      6.123233995736766e-17,
      1.0,
      1.0,
      -1.0,
      1.2246467991473532e-16,
      1.0,
      -1.8369701987210297e-16,
      -1.0,
      1.0,
      1.0,
      0.0,
      0.0,
      0.0,
      -0.013054408865844623,
      -0.33190007168693764,
      1.0060547680606435,
      0.0,
      0.0,
      -1.0,
      1.0060547680606435
    ],
    "final_loss": 0.3939588324078392,
    "time_duration": 1.3286419000069145,
    "optimized_parameters": [
      0.004690427683753011,
      0.9999889998854626,
      0.2680046790424911,
      -0.9948762950221841,
      -0.10109974106478543,
      -0.09611019680239094,
      -0.004013150089617108,
      -0.999991947283322,
      -0.3897740117612199,
      0.9847226550103044,
      -0.174130102858094,
      -0.14735357801723775,
      0.6467286989333402,
      -0.29032578924976865,
      -0.2902987197863964,
      -0.6427904630325922,
      -0.014084022022026963,
      -0.3409343028877858,
      1.015851863126944,
      0.002250689542039706,
      -0.7487263614872507,
      -0.6628753804549212,
      0.41814839869098835
    ],
    "final_E_line": 8.302726804929157e-06,
    "final_E_plane": 2.962061693367232e-06,
    "final_E_pose": 5.539764740497141e-07,
    "final_E_centroids": 0.0,
    "final_E_total": 3.939588324115368e-06
  }
]