[
  {
    "mask_number": 8,
    "image_num": 3,
    "contour_noise": false,
    "canny": true,
    "is_vertical": "False",
    "edges_control": [
      1,
      1,
      1,
      0
    ],
    "no_canny": "False",
    "box_dimensions": [
      0.296,
      0.154,
      0.221
    ],
    "final_weights": [
      0.3333333333333333,
      0.3333333333333333,
      0.3333333333333333,
      0.0
    ],
    "cntr_line_weights": [
      0.25,
      0.25,
      0.25,
      0.25
    ],
    "canny_seg_weights": [
      0.7,
      0.30000000000000004
    ],
    "init_params": [
      1.0,
      0.0,
      1.0,
      6.123233995736766e-17,
      1.0,
      1.0,
      -1.0,
      1.2246467991473532e-16,
      1.0,
      -1.8369701987210297e-16,
      -1.0,
      1.0,
      1.0,
      0.0,
      0.0,
      0.0,
      -0.23272039616120718,
      -0.3236383883899231,
      0.9895787223380874,
      0.0,
      0.0,
      -1.0,
      0.9895787223380874
    ],
    "final_loss": 0.6804714801135644,
    "time_duration": 2.540939400001662,
    "optimized_parameters": [
      0.011949604267607732,
      0.9999286009300102,
      0.29600210017251055,
      -0.9925281067246171,
      0.1220162176174326,
      0.1315553861560012,
      -0.014398496676366253,
      -0.9998963362736729,
      -0.3587825531754848,
      0.8404459324930897,
      -0.5418954092404058,
      -0.5079600828472418,
      0.6380234865748335,
      -0.2804449796321046,
      -0.30553202869549506,
      -0.6487887355829102,
      -0.23941184418827835,
      -0.3322907953807914,
      0.9996353579348277,
      0.025974088308956242,
      -0.7543122673090014,
      -0.6560017912504017,
      0.4113300620466196
    ],
    "final_E_line": 1.3527058388074484e-05,
    "final_E_plane": 5.623268915359552e-06,
    "final_E_pose": 1.2638170298828736e-06,
    "final_E_centroids": 0.0,
    "final_E_total": 6.804714777772302e-06
  }
]