[
  {
    "mask_number": 6,
    "image_num": 3,
    "contour_noise": false,
    "canny": false,
    "generate_random": false,
    "all_edges_good": true,
    "is_vertical": "True",
    "edges_control": [
      0,
      0,
      0,
      0
    ],
    "no_canny": "True",
    "box_dimensions": [
      0.296,
      0.154,
      0.221
    ],
    "final_weights": [
      0.19999999999999998,
      0.6,
      0.19999999999999998,
      0.0
    ],
    "cntr_line_weights": [
      0.25,
      0.25,
      0.25,
      0.25
    ],
    "canny_seg_weights": [
      0.7,
      0.30000000000000004
    ],
    "init_params": [
      1.0,
      0.0,
      1.0,
      6.123233995736766e-17,
      1.0,
      1.0,
      -1.0,
      1.2246467991473532e-16,
      1.0,
      -1.8369701987210297e-16,
      -1.0,
      1.0,
      1.0,
      0.0,
      0.0,
      0.0,
      -0.016037426367701828,
      -0.12756126406621138,
      0.7724450536620608,
      0.0,
      0.0,
      -1.0,
      0.7724450536620608
    ],
    "final_loss": 0.08167240452921977,
    "time_duration": 1.241653899953235,
    "optimized_parameters": [
      0.020097157038701505,
      0.9997980317438927,
      0.06062006827823627,
      -0.9971626895076117,
      -0.07527662755144825,
      -0.09071167160604174,
      -0.018529039988183924,
      -0.9998283226020765,
      -0.267960248219979,
      0.9817507287945343,
      -0.19017230742849217,
      -0.1502927913428723,
      0.6537019756999096,
      -0.28468717720414144,
      -0.28754521633256536,
      -0.6394878315230309,
      -0.015945901112051408,
      -0.1410110923980142,
      0.7871175434977257,
      0.011829810829404418,
      -0.7399644448908939,
      -0.6725419510139512,
      0.42521501538061773
    ],
    "final_E_line": 3.2542028587270635e-06,
    "final_E_plane": 8.020894651577777e-07,
    "final_E_pose": 9.109296927179778e-09,
    "final_E_centroids": 0.0,
    "final_E_total": 8.167240429332762e-07
  }
]