[
  {
    "mask_number": 3,
    "image_num": 3,
    "contour_noise": false,
    "canny": false,
    "generate_random": false,
    "all_edges_good": true,
    "is_vertical": "False",
    "edges_control": [
      0,
      0,
      0,
      0
    ],
    "no_canny": "True",
    "box_dimensions": [
      0.296,
      0.154,
      0.221
    ],
    "final_weights": [
      0.19999999999999998,
      0.6,
      0.19999999999999998,
      0.0
    ],
    "cntr_line_weights": [
      0.25,
      0.25,
      0.25,
      0.25
    ],
    "canny_seg_weights": [
      0.7,
      0.30000000000000004
    ],
    "init_params": [
      1.0,
      0.0,
      1.0,
      6.123233995736766e-17,
      1.0,
      1.0,
      -1.0,
      1.2246467991473532e-16,
      1.0,
      -1.8369701987210297e-16,
      -1.0,
      1.0,
      1.0,
      0.0,
      0.0,
      0.0,
      -0.23795440719228683,
      0.08591571130163551,
      0.5317139342012986,
      0.0,
      0.0,
      -1.0,
      0.5317139342012986
    ],
    "final_loss": 0.3450657875412167,
    "time_duration": 2.2472789000021294,
    "optimized_parameters": [
      0.021424365484780043,
      0.9997704719402399,
      -0.28907197039630966,
      -0.9814584426145614,
      0.19167505163846854,
      0.1452413705095585,
      -0.014700880508332613,
      -0.9998919362172541,
      0.05501079766546376,
      0.8211179761907813,
      -0.5707585033763078,
      -0.5099455076987677,
      0.6558669699238886,
      -0.28503243636241504,
      -0.27811421553636145,
      -0.6412858263682378,
      -0.2429608160197154,
      0.08151083250489347,
      0.5373735908792187,
      -0.000762674646763829,
      -0.7305880822709849,
      -0.6828180375261,
      0.42629393400363963
    ],
    "final_E_line": 8.65087508864e-06,
    "final_E_plane": 7.425710019230392e-06,
    "final_E_pose": 3.92234736635488e-07,
    "final_E_centroids": 0.0,
    "final_E_total": 3.4506578635553707e-06
  }
]