[
  {
    "mask_number": 22,
    "image_num": 6,
    "contour_noise": false,
    "canny": true,
    "generate_random": false,
    "all_edges_good": true,
    "is_vertical": "False",
    "edges_control": [
      0,
      1,
      1,
      1
    ],
    "no_canny": "False",
    "final_weights": [
      0.19999999999999998,
      0.6,
      0.19999999999999998,
      0.0
    ],
    "cntr_line_weights": [
      0.25,
      0.25,
      0.25,
      0.25
    ],
    "canny_seg_weights": [
      0.7,
      0.30000000000000004
    ],
    "init_params": [
      1.0,
      0.0,
      1.0,
      6.123233995736766e-17,
      1.0,
      1.0,
      -1.0,
      1.2246467991473532e-16,
      1.0,
      -1.8369701987210297e-16,
      -1.0,
      1.0,
      1.0,
      0.0,
      0.0,
      0.0,
      -0.2116645372906676,
      -0.35733828299631715,
      1.0304568505686598,
      0.0,
      0.0,
      -1.0,
      1.0304568505686598,
      0.15,
      0.15
    ],
    "final_loss": 0.09176307532432836,
    "time_duration": 2.148668199995882,
    "optimized_parameters": [
      -0.009502242376235343,
      0.9999548526760196,
      0.30556018509623206,
      -0.9968406635379086,
      0.07942727192940452,
      0.05206914530581862,
      0.011659900602277614,
      -0.9999320210486071,
      -0.3965049998729182,
      0.7987667216503388,
      -0.6016408599692432,
      -0.5286887104954607,
      0.6485737724013431,
      -0.29456975655176976,
      -0.27925559178610154,
      -0.6438920986746082,
      -0.22051083996159251,
      -0.3671956976881376,
      1.0415868587711763,
      -0.01710656610793673,
      -0.7417213984840507,
      -0.6704899197066632,
      0.4222444216671175,
      0.3913696014292036,
      0.22979506661532081
    ],
    "final_E_line": 1.1645840241610717e-06,
    "final_E_plane": 9.176307532796628e-07,
    "final_E_pose": 0.0,
    "final_E_centroids": -0.0095022404032939,
    "final_E_total": 0.9999548526947628
  }
]