[
  {
    "mask_number": 4,
    "image_num": 5,
    "contour_noise": false,
    "canny": true,
    "generate_random": false,
    "all_edges_good": false,
    "is_vertical": "False",
    "edges_control": [
      1,
      1,
      1,
      1
    ],
    "no_canny": "False",
    "box_dimensions": [
      0.396,
      0.2,
      0.205
    ],
    "final_weights": [
      0.19999999999999998,
      0.6,
      0.19999999999999998,
      0.0
    ],
    "cntr_line_weights": [
      0.3333333333333333,
      0.3333333333333333,
      0.3333333333333333,
      0.0
    ],
    "canny_seg_weights": [
      0.7,
      0.30000000000000004
    ],
    "init_params": [
      1.0,
      0.0,
      1.0,
      6.123233995736766e-17,
      1.0,
      1.0,
      -1.0,
      1.2246467991473532e-16,
      1.0,
      -1.8369701987210297e-16,
      -1.0,
      1.0,
      1.0,
      0.0,
      0.0,
      0.0,
      -0.11443151678188287,
      0.12853866899770736,
      0.7662629628956678,
      0.0,
      0.0,
      -1.0,
      0.7662629628956678
    ],
    "final_loss": 0.8592799919911105,
    "time_duration": 2.9779608999961056,
    "optimized_parameters": [
      -0.003283520843308012,
      0.9999946092309153,
      -0.27241945023058667,
      -0.9996279323752147,
      0.027276305015958756,
      0.017274944801036397,
      0.005032780570148402,
      -0.9999873354796788,
      0.06526624446860402,
      0.8946200646726368,
      -0.44682764001927516,
      -0.40346298546253084,
      0.6472740759272981,
      -0.28975673408348956,
      -0.27894030526700503,
      -0.6475103178971687,
      -0.2146431708834621,
      0.12389015774308028,
      0.773556156017892,
      -0.014139279465337494,
      -0.7363374473355964,
      -0.6764667356400581,
      0.6114750810869602
    ],
    "final_E_line": 3.792177808232666e-05,
    "final_E_plane": 4.873208321148061e-06,
    "final_E_pose": 5.6337733550881386e-08,
    "final_E_centroids": 0.0,
    "final_E_total": 8.592799920825474e-06
  }
]