[
  {
    "mask_number": 1,
    "image_num": 6,
    "contour_noise": false,
    "canny": false,
    "generate_random": false,
    "all_edges_good": true,
    "is_vertical": "False",
    "edges_control": [
      0,
      0,
      0,
      0
    ],
    "no_canny": "True",
    "box_dimensions": [
      0.387,
      0.22,
      0.213
    ],
    "final_weights": [
      0.19999999999999998,
      0.6,
      0.19999999999999998,
      0.0
    ],
    "cntr_line_weights": [
      0.25,
      0.25,
      0.25,
      0.25
    ],
    "canny_seg_weights": [
      0.7,
      0.30000000000000004
    ],
    "init_params": [
      1.0,
      0.0,
      1.0,
      6.123233995736766e-17,
      1.0,
      1.0,
      -1.0,
      1.2246467991473532e-16,
      1.0,
      -1.8369701987210297e-16,
      -1.0,
      1.0,
      1.0,
      0.0,
      0.0,
      0.0,
      0.16490072141080953,
      0.08654486205918885,
      0.5500133963665915,
      0.0,
      0.0,
      -1.0,
      0.5500133963665915
    ],
    "final_loss": 0.15041047230011667,
    "time_duration": 2.200333699991461,
    "optimized_parameters": [
      -0.004734275214589911,
      0.999988793256335,
      -0.3199332718136334,
      -0.8549050234168348,
      -0.5187845419214826,
      -0.478666731225876,
      -0.004739250880227379,
      -0.9999887696875595,
      -0.0015412907322682925,
      0.9999438796537226,
      -0.010594222160395692,
      -0.039738076412283385,
      0.6479586086494891,
      -0.2650879423344387,
      -0.28749220264354497,
      -0.6536254720595993,
      0.1706647098288732,
      0.07642852374585028,
      0.5602311894672475,
      0.026029618527417767,
      -0.7193565136524878,
      -0.6941532001119058,
      0.43942330148653086
    ],
    "final_E_line": 2.7293738652680106e-06,
    "final_E_plane": 4.415281047551912e-06,
    "final_E_pose": 1.252895672402487e-07,
    "final_E_centroids": 0.0,
    "final_E_total": 1.5041047229081336e-06
  }
]