[
  {
    "mask_number": 7,
    "image_num": 4,
    "contour_noise": true,
    "canny": true,
    "is_vertical": "True",
    "edges_control": [
      1,
      1,
      1,
      0
    ],
    "no_canny": "False",
    "box_dimensions": [
      0.396,
      0.2,
      0.205
    ],
    "final_weights": [
      0.19999999999999998,
      0.6,
      0.19999999999999998,
      0.0
    ],
    "cntr_line_weights": [
      0.45,
      0.45,
      0.04999999999999999,
      0.04999999999999999
    ],
    "canny_seg_weights": [
      0.7,
      0.30000000000000004
    ],
    "init_params": [
      1.0,
      0.0,
      1.0,
      6.123233995736766e-17,
      1.0,
      1.0,
      -1.0,
      1.2246467991473532e-16,
      1.0,
      -1.8369701987210297e-16,
      -1.0,
      1.0,
      1.0,
      0.0,
      0.0,
      0.0,
      0.05029574370950111,
      -0.4382551457575367,
      1.1422652717071224,
      0.0,
      0.0,
      -1.0,
      1.1422652717071224
    ],
    "final_loss": 1.3846701810240465,
    "time_duration": 2.8138695000088774,
    "optimized_parameters": [
      -0.017380598184696158,
      0.9998489459947234,
      0.3270793344504273,
      -0.9412698269414075,
      -0.3376553166921121,
      -0.2544827543177607,
      0.009925158215860127,
      -0.99995074440414,
      -0.46960501363859924,
      0.9961620013523833,
      0.08752866423165932,
      -0.006692332399019668,
      0.633765503929975,
      -0.2566732752790226,
      -0.28349445258955647,
      -0.6723771346030105,
      0.04886798382852332,
      -0.48426645318677203,
      1.1888550173218855,
      0.014175536148334316,
      -0.7065716976281584,
      -0.7074994630993212,
      0.49825259342200634
    ],
    "final_E_line": 6.438174395816316e-05,
    "final_E_plane": 2.8349710941267643e-06,
    "final_E_pose": 6.722647238207418e-07,
    "final_E_centroids": 2.0918744557220437e-31,
    "final_E_total": 1.3846701844750427e-05
  }
]