[
  {
    "mask_number": 5,
    "image_num": 4,
    "contour_noise": false,
    "canny": true,
    "generate_random": false,
    "all_edges_good": true,
    "is_vertical": "False",
    "edges_control": [
      1,
      1,
      1,
      1
    ],
    "no_canny": "False",
    "box_dimensions": [
      0.396,
      0.2,
      0.205
    ],
    "final_weights": [
      0.19999999999999998,
      0.6,
      0.19999999999999998,
      0.0
    ],
    "cntr_line_weights": [
      0.25,
      0.25,
      0.25,
      0.25
    ],
    "canny_seg_weights": [
      0.7,
      0.30000000000000004
    ],
    "init_params": [
      1.0,
      0.0,
      1.0,
      6.123233995736766e-17,
      1.0,
      1.0,
      -1.0,
      1.2246467991473532e-16,
      1.0,
      -1.8369701987210297e-16,
      -1.0,
      1.0,
      1.0,
      0.0,
      0.0,
      0.0,
      0.15083722057661797,
      -0.13586873206053146,
      0.8230926062780792,
      0.0,
      0.0,
      -1.0,
      0.8230926062780792
    ],
    "final_loss": 0.6782884775970464,
    "time_duration": 0.4129806070000086,
    "optimized_parameters": [
      -0.013754234986420588,
      0.9999054060363889,
      0.09200328485920649,
      -0.8572613377951319,
      -0.5148815385343666,
      -0.456269265341938,
      0.010462294439066351,
      -0.9999452686999052,
      -0.22988073225586594,
      0.9999611008103786,
      -0.008820255169012534,
      -0.04605773255620019,
      0.6409111070418319,
      -0.2751208898339666,
      -0.2853928437949386,
      -0.6573373361978927,
      0.16039671165678393,
      -0.14044993967579872,
      0.829341865486006,
      0.004128445052299982,
      -0.7278547099123075,
      -0.6857189491342071,
      0.46580610050832094
    ],
    "final_E_line": 2.7005130148392016e-05,
    "final_E_plane": 5.115330582513639e-06,
    "final_E_pose": 5.979877164268348e-07,
    "final_E_centroids": 0.0,
    "final_E_total": 6.782884776037231e-06
  }
]