[
  {
    "mask_number": 0,
    "image_num": 3,
    "contour_noise": false,
    "canny": false,
    "generate_random": false,
    "all_edges_good": true,
    "is_vertical": "True",
    "edges_control": [
      0,
      0,
      0,
      0
    ],
    "no_canny": "True",
    "box_dimensions": [
      0.296,
      0.154,
      0.221
    ],
    "final_weights": [
      0.19999999999999998,
      0.6,
      0.19999999999999998,
      0.0
    ],
    "cntr_line_weights": [
      0.25,
      0.25,
      0.25,
      0.25
    ],
    "canny_seg_weights": [
      0.7,
      0.30000000000000004
    ],
    "init_params": [
      1.0,
      0.0,
      1.0,
      6.123233995736766e-17,
      1.0,
      1.0,
      -1.0,
      1.2246467991473532e-16,
      1.0,
      -1.8369701987210297e-16,
      -1.0,
      1.0,
      1.0,
      0.0,
      0.0,
      0.0,
      0.14068084514129053,
      0.08457897576456244,
      0.5429546891549624,
      0.0,
      0.0,
      -1.0,
      0.5429546891549624
    ],
    "final_loss": 0.24081705820741928,
    "time_duration": 1.3880318000010448,
    "optimized_parameters": [
      0.029714853059540327,
      0.9995584162558638,
      -0.3583886578553979,
      -0.9395046913234364,
      -0.3425360345735114,
      -0.3204282232467509,
      -0.029223530852979795,
      -0.9995729014157485,
      -0.05769635872373902,
      0.9945720539399625,
      0.10405012984926945,
      0.10080886554377001,
      0.6543192800162998,
      -0.27136790617799894,
      -0.2941906467354556,
      -0.6416210740529998,
      0.14045865201729024,
      0.06614184327920883,
      0.5625464045409733,
      0.0367584523709641,
      -0.732640321416271,
      -0.6796226714982881,
      0.42561443896594775
    ],
    "final_E_line": 9.965560755115102e-06,
    "final_E_plane": 1.154789056763969e-06,
    "final_E_pose": 3.068343661415386e-07,
    "final_E_centroids": 0.0,
    "final_E_total": 2.408170582060737e-06
  }
]