[
  {
    "mask_number": 13,
    "image_num": 3,
    "contour_noise": false,
    "canny": true,
    "is_vertical": "False",
    "edges_control": [
      1,
      1,
      1,
      0
    ],
    "no_canny": "False",
    "box_dimensions": [
      0.296,
      0.154,
      0.221
    ],
    "final_weights": [
      0.3333333333333333,
      0.3333333333333333,
      0.3333333333333333,
      0.0
    ],
    "cntr_line_weights": [
      0.25,
      0.25,
      0.25,
      0.25
    ],
    "canny_seg_weights": [
      0.7,
      0.30000000000000004
    ],
    "init_params": [
      1.0,
      0.0,
      1.0,
      6.123233995736766e-17,
      1.0,
      1.0,
      -1.0,
      1.2246467991473532e-16,
      1.0,
      -1.8369701987210297e-16,
      -1.0,
      1.0,
      1.0,
      0.0,
      0.0,
      0.0,
      -0.2348589980848837,
      -0.2233392782066467,
      0.8736251836539598,
      0.0,
      0.0,
      -1.0,
      0.8736251836539598
    ],
    "final_loss": 0.44480126701390243,
    "time_duration": 1.3216643999912776,
    "optimized_parameters": [
      0.016802073476124214,
      0.9998588351997102,
      0.21105244309500215,
      -0.9860924379244017,
      0.16619778538939717,
      0.14686713707533441,
      -0.01828032415270831,
      -0.9998329009133895,
      -0.2937157849973108,
      0.8179031430337864,
      -0.5753559321112176,
      -0.5123232204573759,
      0.6465728263779227,
      -0.28241138773589713,
      -0.29780737007665375,
      -0.6430382248317781,
      -0.2402645470321187,
      -0.22873618397420906,
      0.8800150946056592,
      0.02190567134361679,
      -0.7482020679798359,
      -0.6631091969154197,
      0.4176683785199944
    ],
    "final_E_line": 8.724826672125454e-06,
    "final_E_plane": 3.633190735180699e-06,
    "final_E_pose": 9.860206031089986e-07,
    "final_E_centroids": 0.0,
    "final_E_total": 4.448012670138384e-06
  }
]