[
  {
    "mask_number": 4,
    "image_num": 3,
    "contour_noise": false,
    "canny": true,
    "is_vertical": "True",
    "edges_control": [
      1,
      1,
      0,
      1
    ],
    "no_canny": "False",
    "box_dimensions": [
      0.296,
      0.154,
      0.221
    ],
    "final_weights": [
      0.19999999999999998,
      0.6,
      0.19999999999999998,
      0.0
    ],
    "cntr_line_weights": [
      0.25,
      0.25,
      0.25,
      0.25
    ],
    "canny_seg_weights": [
      0.7,
      0.30000000000000004
    ],
    "init_params": [
      1.0,
      0.0,
      1.0,
      6.123233995736766e-17,
      1.0,
      1.0,
      -1.0,
      1.2246467991473532e-16,
      1.0,
      -1.8369701987210297e-16,
      -1.0,
      1.0,
      1.0,
      0.0,
      0.0,
      0.0,
      0.2925151311011266,
      -0.1164178278520383,
      0.770889818432644,
      0.0,
      0.0,
      -1.0,
      0.770889818432644
    ],
    "final_loss": 0.12351824082628957,
    "time_duration": 2.0916540999896824,
    "optimized_parameters": [
      0.024228386358757435,
      0.9997064495638002,
      0.055742074485454235,
      -0.8510155050672209,
      -0.5251405622645573,
      -0.48982229845294556,
      -0.024876259301094765,
      -0.9996905379808156,
      -0.2660347581142518,
      0.9403334120342791,
      0.34025442570522013,
      0.32026676867685877,
      0.6528774467057205,
      -0.27737435738445876,
      -0.29125608106430306,
      -0.6418601099109968,
      0.29663591208799406,
      -0.13077207388973278,
      0.7865853263396944,
      0.024237789337317454,
      -0.7360742089627925,
      -0.6764667681988931,
      0.4286510976538696
    ],
    "final_E_line": 5.316058041844727e-06,
    "final_E_plane": 7.988401259526239e-07,
    "final_E_pose": 2.0337958218081897e-08,
    "final_E_centroids": 0.0,
    "final_E_total": 1.2351824084903194e-06
  }
]