[
  {
    "mask_number": 2,
    "image_num": 3,
    "contour_noise": false,
    "canny": true,
    "is_vertical": "True",
    "edges_control": [
      1,
      1,
      1,
      1
    ],
    "no_canny": "False",
    "box_dimensions": [
      0.296,
      0.154,
      0.221
    ],
    "final_weights": [
      0.3333333333333333,
      0.3333333333333333,
      0.3333333333333333,
      0.0
    ],
    "cntr_line_weights": [
      0.25,
      0.25,
      0.25,
      0.25
    ],
    "canny_seg_weights": [
      0.7,
      0.30000000000000004
    ],
    "init_params": [
      1.0,
      0.0,
      1.0,
      6.123233995736766e-17,
      1.0,
      1.0,
      -1.0,
      1.2246467991473532e-16,
      1.0,
      -1.8369701987210297e-16,
      -1.0,
      1.0,
      1.0,
      0.0,
      0.0,
      0.0,
      -0.015653422960718283,
      0.07913809694211531,
      0.5439121327040355,
      0.0,
      0.0,
      -1.0,
      0.5439121327040355
    ],
    "final_loss": 0.46259391382141535,
    "time_duration": 1.2018983000016306,
    "optimized_parameters": [
      0.026099508386534378,
      0.9996593498097351,
      -0.35690356446745497,
      -0.9952281378865511,
      -0.09757537373164621,
      -0.09686675805682333,
      -0.02647843292028726,
      -0.999649384829544,
      -0.05767854912311517,
      0.9858003537459181,
      -0.16792159645031582,
      -0.1468748320957363,
      0.6535452835279056,
      -0.2766783930309764,
      -0.29008469518482716,
      -0.6420112918226294,
      -0.01642056461253827,
      0.061291812334552345,
      0.5630400240251272,
      0.023905678188537116,
      -0.7341190035280768,
      -0.6785998874221523,
      0.42746693733940777
    ],
    "final_E_line": 1.095990355192052e-05,
    "final_E_plane": 2.310384959048217e-06,
    "final_E_pose": 6.075289036517153e-07,
    "final_E_centroids": 0.0,
    "final_E_total": 4.625939138206817e-06
  }
]