[
  {
    "mask_number": 7,
    "image_num": 5,
    "contour_noise": false,
    "canny": true,
    "generate_random": false,
    "all_edges_good": true,
    "is_vertical": "True",
    "edges_control": [
      1,
      1,
      1,
      1
    ],
    "no_canny": "False",
    "box_dimensions": [
      0.396,
      0.2,
      0.205
    ],
    "final_weights": [
      0.19999999999999998,
      0.6,
      0.19999999999999998,
      0.0
    ],
    "cntr_line_weights": [
      0.25,
      0.25,
      0.25,
      0.25
    ],
    "canny_seg_weights": [
      0.7,
      0.30000000000000004
    ],
    "init_params": [
      1.0,
      0.0,
      1.0,
      6.123233995736766e-17,
      1.0,
      1.0,
      -1.0,
      1.2246467991473532e-16,
      1.0,
      -1.8369701987210297e-16,
      -1.0,
      1.0,
      1.0,
      0.0,
      0.0,
      0.0,
      0.07256802243714539,
      -0.46413455522275804,
      1.1440823275284675,
      0.0,
      0.0,
      -1.0,
      1.1440823275284675
    ],
    "final_loss": 0.4067356610213856,
    "time_duration": 1.5218336000107229,
    "optimized_parameters": [
      -0.020041326768710677,
      0.9997991524409119,
      0.35126533320762526,
      -0.9357631119811742,
      -0.3526292646056541,
      -0.2828131799224719,
      0.01966484575575273,
      -0.9998066282244485,
      -0.4659930559754472,
      0.9999164594974146,
      -0.012925711869513176,
      -0.03141212225259829,
      0.6352738706252259,
      -0.2977918713670656,
      -0.2931926918593023,
      -0.6494498872813012,
      0.06950778719803119,
      -0.4900538705867997,
      1.1745576090519123,
      -0.014286684618083198,
      -0.759186665097916,
      -0.6507161425544753,
      0.39325427371394783
    ],
    "final_E_line": 1.16499004172157e-05,
    "final_E_plane": 8.59398675730022e-06,
    "final_E_pose": 3.096529218508464e-08,
    "final_E_centroids": 0.0,
    "final_E_total": 4.067356610214234e-06
  }
]