[
  {
    "mask_number": 9,
    "image_num": 3,
    "contour_noise": false,
    "canny": true,
    "is_vertical": "True",
    "edges_control": [
      0,
      1,
      0,
      1
    ],
    "no_canny": "False",
    "box_dimensions": [
      0.296,
      0.154,
      0.221
    ],
    "final_weights": [
      0.3333333333333333,
      0.3333333333333333,
      0.3333333333333333,
      0.0
    ],
    "cntr_line_weights": [
      0.25,
      0.25,
      0.25,
      0.25
    ],
    "canny_seg_weights": [
      0.7,
      0.30000000000000004
    ],
    "init_params": [
      1.0,
      0.0,
      1.0,
      6.123233995736766e-17,
      1.0,
      1.0,
      -1.0,
      1.2246467991473532e-16,
      1.0,
      -1.8369701987210297e-16,
      -1.0,
      1.0,
      1.0,
      0.0,
      0.0,
      0.0,
      0.2964230453499419,
      -0.31960566041960103,
      1.0007178724394017,
      0.0,
      0.0,
      -1.0,
      1.0007178724394017
    ],
    "final_loss": 0.18775146387410674,
    "time_duration": 2.4048987999849487,
    "optimized_parameters": [
      0.023310796179682347,
      0.9997282664712075,
      0.2647778335933977,
      -0.834036899176368,
      -0.5517086647972257,
      -0.4910337520973121,
      -0.024585256492171685,
      -0.9996977369001306,
      -0.3873099557491567,
      0.9300583722289305,
      0.36741179111054156,
      0.32733445110898785,
      0.6488848053036932,
      -0.2833860608125853,
      -0.29803768128590696,
      -0.6401674706800534,
      0.30225153346455497,
      -0.32967949020314885,
      1.0121901083613343,
      0.02395527775247817,
      -0.7493578804289995,
      -0.6617317520770203,
      0.4155098994684472
    ],
    "final_E_line": 3.1283851000111683e-06,
    "final_E_plane": 2.4073725151299018e-06,
    "final_E_pose": 9.678630084346677e-08,
    "final_E_centroids": 0.0,
    "final_E_total": 1.877514638661512e-06
  }
]