[
  {
    "mask_number": 1,
    "image_num": 4,
    "contour_noise": true,
    "canny": true,
    "is_vertical": "True",
    "edges_control": [
      1,
      1,
      0,
      1
    ],
    "no_canny": "False",
    "box_dimensions": [
      0.396,
      0.2,
      0.205
    ],
    "final_weights": [
      0.19999999999999998,
      0.6,
      0.19999999999999998,
      0.0
    ],
    "cntr_line_weights": [
      0.45,
      0.45,
      0.04999999999999999,
      0.04999999999999999
    ],
    "canny_seg_weights": [
      0.7,
      0.30000000000000004
    ],
    "init_params": [
      1.0,
      0.0,
      1.0,
      6.123233995736766e-17,
      1.0,
      1.0,
      -1.0,
      1.2246467991473532e-16,
      1.0,
      -1.8369701987210297e-16,
      -1.0,
      1.0,
      1.0,
      0.0,
      0.0,
      0.0,
      -0.12202888713276283,
      0.10545724813536543,
      0.5598202492275468,
      0.0,
      0.0,
      -1.0,
      0.5598202492275468
    ],
    "final_loss": 2.714883219732831,
    "time_duration": 1.8857453999808058,
    "optimized_parameters": [
      -0.030415710588182206,
      0.9995373352459158,
      -0.44694679652876607,
      -0.999851048263586,
      -0.017259237706582754,
      0.03947184003287593,
      0.00383880142221582,
      -0.9999926317782962,
      -0.06795138916881731,
      0.9491093515248139,
      -0.31494672382642885,
      -0.3167997297441748,
      0.6307713334106669,
      -0.28475671683844495,
      -0.3136106933078284,
      -0.6501457299772689,
      -0.12268760244098911,
      0.07617514453967267,
      0.5963133797195866,
      0.02536651377754105,
      -0.7670180465525079,
      -0.6411239008561388,
      0.44385064120535384
    ],
    "final_E_line": 0.0001063903293616,
    "final_E_plane": 2.636611155792125e-05,
    "final_E_pose": 9.95906831703446e-07,
    "final_E_centroids": 1.4603907790376705e-22,
    "final_E_total": 2.7148832282935985e-05
  }
]