[
  {
    "mask_number": 16,
    "image_num": 6,
    "contour_noise": false,
    "canny": true,
    "generate_random": false,
    "all_edges_good": true,
    "is_vertical": "False",
    "edges_control": [
      1,
      1,
      1,
      0
    ],
    "no_canny": "False",
    "final_weights": [
      0.19999999999999998,
      0.6,
      0.19999999999999998,
      0.0
    ],
    "cntr_line_weights": [
      0.25,
      0.25,
      0.25,
      0.25
    ],
    "canny_seg_weights": [
      0.7,
      0.30000000000000004
    ],
    "init_params": [
      1.0,
      0.0,
      1.0,
      6.123233995736766e-17,
      1.0,
      1.0,
      -1.0,
      1.2246467991473532e-16,
      1.0,
      -1.8369701987210297e-16,
      -1.0,
      1.0,
      1.0,
      0.0,
      0.0,
      0.0,
      -1.15904055731886,
      -0.45283471807266135,
      1.0588545397627072,
      0.0,
      0.0,
      -1.0,
      1.0588545397627072,
      0.1,
      0.1
    ],
    "final_loss": 6.011589898315557,
    "time_duration": 11.798416099998576,
    "optimized_parameters": [
      -0.14896042228715944,
      0.9888433379234586,
      0.5617028097861575,
      -0.021350327931580065,
      0.9997720560572009,
      0.44502672804482934,
      -0.016987498139410924,
      -0.9998557024478584,
      -0.43754496738408827,
      0.019498200406333967,
      -0.9998098920606525,
      -0.44472861274837755,
      0.8362375942441135,
      -0.45319954716014343,
      0.1944485468000942,
      0.23984473830550376,
      -0.3377645795059586,
      -0.2009980289377324,
      0.46722010687492815,
      -0.10781244827417057,
      -0.8512031924204436,
      -0.5136435012629988,
      0.03247386884806749,
      0.005000000000000276,
      0.6999999999999972
    ],
    "final_E_line": 0.0001573937114109,
    "final_E_plane": 6.011589720399149e-05,
    "final_E_pose": 0.0,
    "final_E_centroids": -0.1489604222871594,
    "final_E_total": 0.9888433379234586
  }
]