[
  {
    "mask_number": 0,
    "image_num": 3,
    "contour_noise": false,
    "canny": true,
    "generate_random": false,
    "all_edges_good": true,
    "is_vertical": "True",
    "edges_control": [
      1,
      1,
      1,
      1
    ],
    "no_canny": "False",
    "box_dimensions": [
      0.296,
      0.154,
      0.221
    ],
    "final_weights": [
      0.19999999999999998,
      0.6,
      0.19999999999999998,
      0.0
    ],
    "cntr_line_weights": [
      0.25,
      0.25,
      0.25,
      0.25
    ],
    "canny_seg_weights": [
      0.7,
      0.30000000000000004
    ],
    "init_params": [
      1.0,
      0.0,
      1.0,
      6.123233995736766e-17,
      1.0,
      1.0,
      -1.0,
      1.2246467991473532e-16,
      1.0,
      -1.8369701987210297e-16,
      -1.0,
      1.0,
      1.0,
      0.0,
      0.0,
      0.0,
      0.14071186509772535,
      0.08454149758534638,
      0.5429976399643109,
      0.0,
      0.0,
      -1.0,
      0.5429976399643109
    ],
    "final_loss": 0.24470090590633733,
    "time_duration": 1.8125667000422254,
    "optimized_parameters": [
      0.02166632628269769,
      0.9997652576007304,
      -0.3590785347980744,
      -0.9393815677330466,
      -0.34287354841613504,
      -0.3206039493237597,
      -0.025546461524606778,
      -0.9996736358950253,
      -0.057473544577073134,
      0.9948376427914447,
      0.10147937960572488,
      0.09934677070797726,
      0.6532330706447905,
      -0.27438847215427214,
      -0.29201342552754433,
      -0.6424372973890541,
      0.13989203067724915,
      0.06556826300534521,
      0.5629845487018198,
      0.028951076708128527,
      -0.7336799238481035,
      -0.6788781956284813,
      0.42625404010076456
    ],
    "final_E_line": 1.0663024589160372e-05,
    "final_E_plane": 9.716316570291929e-07,
    "final_E_pose": 2.0012968728929937e-07,
    "final_E_centroids": 0.0,
    "final_E_total": 2.4470090616114923e-06
  }
]