[
  {
    "mask_number": 6,
    "image_num": 6,
    "contour_noise": false,
    "canny": false,
    "generate_random": false,
    "all_edges_good": true,
    "is_vertical": "False",
    "edges_control": [
      0,
      0,
      0,
      0
    ],
    "no_canny": "True",
    "final_weights": [
      0.19999999999999998,
      0.6,
      0.19999999999999998,
      0.0
    ],
    "cntr_line_weights": [
      0.25,
      0.25,
      0.25,
      0.25
    ],
    "canny_seg_weights": [
      0.7,
      0.30000000000000004
    ],
    "init_params": [
      1.0,
      0.0,
      1.0,
      6.123233995736766e-17,
      1.0,
      1.0,
      -1.0,
      1.2246467991473532e-16,
      1.0,
      -1.8369701987210297e-16,
      -1.0,
      1.0,
      1.0,
      0.0,
      0.0,
      0.0,
      -0.6201454490385503,
      -0.3062140731304007,
      0.9060380259449266,
      0.0,
      0.0,
      -1.0,
      0.9060380259449266,
      0.15,
      0.15
    ],
    "final_loss": 0.06585682368341707,
    "time_duration": 0.5020692329999292,
    "optimized_parameters": [
      -0.010666304966297958,
      0.9999431133511394,
      0.2812099879359628,
      -0.7205263677400848,
      0.6934275401163235,
      0.6538624034744365,
      0.01135901646245249,
      -0.9999354842913813,
      -0.40910203166525777,
      0.6123256368450192,
      -0.7906056630598749,
      -0.7448115848206062,
      0.646462356256312,
      -0.2837817638319278,
      -0.2780542894956932,
      -0.6513371972743389,
      -0.6173169432801667,
      -0.3157165401999384,
      0.9161204262349598,
      -0.010171977110500283,
      -0.7291226551697538,
      -0.6843074488854359,
      0.3904326274025178,
      0.18205727817803888,
      0.26983706529183993
    ],
    "final_E_line": 1.285343989363997e-06,
    "final_E_plane": 6.585682373218928e-07,
    "final_E_pose": 0.0,
    "final_E_centroids": -0.0106663049662979,
    "final_E_total": 0.9999431133511394
  }
]