[
  {
    "mask_number": 6,
    "image_num": 6,
    "contour_noise": false,
    "canny": false,
    "generate_random": false,
    "all_edges_good": true,
    "is_vertical": "False",
    "edges_control": [
      0,
      0,
      0,
      0
    ],
    "no_canny": "True",
    "box_dimensions": [
      0.387,
      0.22,
      0.213
    ],
    "final_weights": [
      0.19999999999999998,
      0.6,
      0.19999999999999998,
      0.0
    ],
    "cntr_line_weights": [
      0.25,
      0.25,
      0.25,
      0.25
    ],
    "canny_seg_weights": [
      0.7,
      0.30000000000000004
    ],
    "init_params": [
      1.0,
      0.0,
      1.0,
      6.123233995736766e-17,
      1.0,
      1.0,
      -1.0,
      1.2246467991473532e-16,
      1.0,
      -1.8369701987210297e-16,
      -1.0,
      1.0,
      1.0,
      0.0,
      0.0,
      0.0,
      -0.6175160052667242,
      -0.306475239928515,
      0.9060517410302553,
      0.0,
      0.0,
      -1.0,
      0.9060517410302553
    ],
    "final_loss": 5.0482712206585,
    "time_duration": 1.7262655000085942,
    "optimized_parameters": [
      0.02559026275686323,
      0.9996725156033381,
      0.2563423263987662,
      -0.5694638541361884,
      0.8220163738225571,
      0.6046297358564668,
      0.07605271850313781,
      -0.9971037980119416,
      -0.44434468775410196,
      0.5102595890539151,
      -0.8600204368388662,
      -0.6957882115351695,
      0.7487180301318317,
      -0.3881458300410377,
      -0.10460580262481552,
      -0.5270879926868292,
      -0.6351642208275562,
      -0.3162537522684681,
      0.9232046888478369,
      -0.2525334702685087,
      -0.6914963765337332,
      -0.6768010103681084,
      0.24573733927837257
    ],
    "final_E_line": 7.152106432800729e-05,
    "final_E_plane": 0.0001802678683886,
    "final_E_pose": 2.0820943875898618e-07,
    "final_E_centroids": 0.0,
    "final_E_total": 5.048271220658515e-05
  }
]