[
  {
    "mask_number": 16,
    "image_num": 3,
    "contour_noise": false,
    "canny": false,
    "generate_random": false,
    "all_edges_good": true,
    "is_vertical": "False",
    "edges_control": [
      0,
      0,
      0,
      0
    ],
    "no_canny": "True",
    "box_dimensions": [
      0.296,
      0.154,
      0.221
    ],
    "final_weights": [
      0.19999999999999998,
      0.6,
      0.19999999999999998,
      0.0
    ],
    "cntr_line_weights": [
      0.25,
      0.25,
      0.25,
      0.25
    ],
    "canny_seg_weights": [
      0.7,
      0.30000000000000004
    ],
    "init_params": [
      1.0,
      0.0,
      1.0,
      6.123233995736766e-17,
      1.0,
      1.0,
      -1.0,
      1.2246467991473532e-16,
      1.0,
      -1.8369701987210297e-16,
      -1.0,
      1.0,
      1.0,
      0.0,
      0.0,
      0.0,
      -0.2339375434557142,
      -0.44071581771245283,
      1.128229822458099,
      0.0,
      0.0,
      -1.0,
      1.128229822458099
    ],
    "final_loss": 0.2186341305879509,
    "time_duration": 1.388149300008081,
    "optimized_parameters": [
      0.023863993608638875,
      0.9997152143532558,
      0.3619993172122827,
      -0.9900367774644593,
      0.1408090171966701,
      0.1379849911591431,
      -0.025341365658429548,
      -0.9996788560267998,
      -0.4088536739703286,
      0.807008861440308,
      -0.5905393277161116,
      -0.51358473309042,
      0.6397430050929764,
      -0.28657907308406716,
      -0.31110435024230426,
      -0.6417284515801669,
      -0.243321237452567,
      -0.4436264680809205,
      1.1315344658620061,
      0.030242068001526137,
      -0.7659626866577823,
      -0.642173325495432,
      0.3941984415793649
    ],
    "final_E_line": 5.612586164737527e-06,
    "final_E_plane": 5.224069700680157e-06,
    "final_E_pose": 3.168355466023625e-08,
    "final_E_centroids": 0.0,
    "final_E_total": 2.1863413058796784e-06
  }
]