[
  {
    "mask_number": 0,
    "image_num": 3,
    "contour_noise": false,
    "canny": true,
    "is_vertical": "True",
    "edges_control": [
      1,
      1,
      1,
      1
    ],
    "no_canny": "False",
    "box_dimensions": [
      0.296,
      0.154,
      0.221
    ],
    "final_weights": [
      0.19999999999999998,
      0.6,
      0.19999999999999998,
      0.0
    ],
    "cntr_line_weights": [
      0.25,
      0.25,
      0.25,
      0.25
    ],
    "canny_seg_weights": [
      0.7,
      0.30000000000000004
    ],
    "init_params": [
      1.0,
      0.0,
      1.0,
      6.123233995736766e-17,
      1.0,
      1.0,
      -1.0,
      1.2246467991473532e-16,
      1.0,
      -1.8369701987210297e-16,
      -1.0,
      1.0,
      1.0,
      0.0,
      0.0,
      0.0,
      0.1407175312387862,
      0.08457569172264237,
      0.5429641672683464,
      0.0,
      0.0,
      -1.0,
      0.5429641672683464
    ],
    "final_loss": 0.23232103953146488,
    "time_duration": 1.5530091999680735,
    "optimized_parameters": [
      0.02348728042112608,
      0.9997241357787278,
      -0.3586091758201451,
      -0.9398393823368351,
      -0.3416166497829722,
      -0.32068939050710654,
      -0.0261188697195129,
      -0.9996588441287083,
      -0.0576867279371033,
      0.9948883951019093,
      0.10098059859121768,
      0.09958966302179696,
      0.6536304469524107,
      -0.27395585551333457,
      -0.2920696576833815,
      -0.6421921387774255,
      0.13989242687334355,
      0.0655755462357548,
      0.5630153233923324,
      0.029946612475140282,
      -0.7332614405424992,
      -0.6792870234406317,
      0.4263437256382282
    ],
    "final_E_line": 1.0109312372153749e-05,
    "final_E_plane": 1.0106979266901104e-06,
    "final_E_pose": 1.6534722585503638e-07,
    "final_E_centroids": 0.0,
    "final_E_total": 2.323210395281793e-06
  }
]