[
  {
    "mask_number": 1,
    "image_num": 4,
    "contour_noise": false,
    "canny": true,
    "is_vertical": "True",
    "edges_control": [
      1,
      1,
      1,
      1
    ],
    "no_canny": "False",
    "box_dimensions": [
      0.396,
      0.2,
      0.205
    ],
    "final_weights": [
      0.19999999999999998,
      0.6,
      0.19999999999999998,
      0.0
    ],
    "cntr_line_weights": [
      0.25,
      0.25,
      0.25,
      0.25
    ],
    "canny_seg_weights": [
      0.7,
      0.30000000000000004
    ],
    "init_params": [
      1.0,
      0.0,
      1.0,
      6.123233995736766e-17,
      1.0,
      1.0,
      -1.0,
      1.2246467991473532e-16,
      1.0,
      -1.8369701987210297e-16,
      -1.0,
      1.0,
      1.0,
      0.0,
      0.0,
      0.0,
      -0.12202888713276283,
      0.10545724813536543,
      0.5598202492275468,
      0.0,
      0.0,
      -1.0,
      0.5598202492275468
    ],
    "final_loss": 0.5708963133620748,
    "time_duration": 1.8338372000143863,
    "optimized_parameters": [
      -0.02727688659456792,
      0.9996279165058065,
      -0.44711128688288765,
      -0.9999191231797753,
      -0.012717983307936307,
      0.03924041332473124,
      0.0019799856432914926,
      -0.9999980398265222,
      -0.07984506545666827,
      0.9516928270587574,
      -0.30705172679053666,
      -0.32096226573664804,
      0.6368772459591474,
      -0.2752739489230921,
      -0.30249255573050404,
      -0.6535364414872109,
      -0.12301129488216897,
      0.07251690866344364,
      0.5967981661496347,
      0.02549828129834079,
      -0.7460112288532014,
      -0.6654450270881215,
      0.4543713768078531
    ],
    "final_E_line": 2.439044373912436e-05,
    "final_E_plane": 3.302934846293532e-06,
    "final_E_pose": 2.8381236097726605e-07,
    "final_E_centroids": 0.0,
    "final_E_total": 5.708963133669938e-06
  }
]