[
  {
    "mask_number": 3,
    "image_num": 3,
    "contour_noise": false,
    "generate_random": false,
    "all_edges_good": true,
    "is_vertical": "False",
    "final_weights": [
      0.2,
      0.6000000000000001,
      0.2
    ],
    "cntr_line_weights": [
      0.25,
      0.25,
      0.25,
      0.25
    ],
    "init_params": [
      1.0,
      0.0,
      1.0,
      6.123233995736766e-17,
      1.0,
      1.0,
      -1.0,
      1.2246467991473532e-16,
      1.0,
      -1.8369701987210297e-16,
      -1.0,
      1.0,
      1.0,
      0.0,
      0.0,
      0.0,
      -0.23979077477389601,
      0.08260672882758587,
      0.5345192587221458,
      0.0,
      0.0,
      -1.0,
      0.5345192587221458
    ],
    "final_loss": 0.25815600731266686,
    "time_duration": 0.5986834860013914,
    "optimized_parameters": [
      0.021614174304742773,
      0.9997663864469191,
      -0.290153674856632,
      -0.9817815703258052,
      0.19001302105095424,
      0.14455870307661758,
      -0.015414028000924142,
      -0.9998811968132953,
      0.054798543998388585,
      0.8222835502511158,
      -0.5690779937639702,
      -0.5116539738766791,
      0.6562953606697508,
      -0.2834509080413878,
      -0.27787751214142925,
      -0.641651050447191,
      -0.24240652479868255,
      0.0814479420446389,
      0.5364256920132482,
      0.0009862866434244535,
      -0.7286558503119183,
      -0.6848793171390982,
      0.42697347344964637
    ],
    "final_E_line": NaN,
    "final_E_plane": NaN,
    "final_E_pose": NaN,
    "final_E_centroids": NaN,
    "final_E_total": NaN
  }
]