[
  {
    "mask_number": 24,
    "image_num": 7,
    "contour_noise": false,
    "canny": true,
    "generate_random": false,
    "all_edges_good": true,
    "is_vertical": "False",
    "edges_control": [
      1,
      1,
      1,
      1
    ],
    "no_canny": "False",
    "final_weights": [
      0.19999999999999998,
      0.6,
      0.19999999999999998,
      0.0
    ],
    "cntr_line_weights": [
      0.25,
      0.25,
      0.25,
      0.25
    ],
    "canny_seg_weights": [
      0.7,
      0.30000000000000004
    ],
    "init_params": [
      1.0,
      0.0,
      1.0,
      6.123233995736766e-17,
      1.0,
      1.0,
      -1.0,
      1.2246467991473532e-16,
      1.0,
      -1.8369701987210297e-16,
      -1.0,
      1.0,
      1.0,
      0.0,
      0.0,
      0.0,
      -0.7418775261652026,
      -0.47764660476037557,
      0.8702773750269648,
      0.0,
      0.0,
      -1.0,
      0.8702773750269648,
      0.1,
      0.1
    ],
    "final_loss": 0.5587449398113976,
    "time_duration": 6.501597800001036,
    "optimized_parameters": [
      0.05550130655058047,
      0.9984586145510417,
      0.47798375292125816,
      -0.44458258468650125,
      0.895737866451192,
      0.7438845560890642,
      -0.05738028230468662,
      -0.9983523942990478,
      -0.5240261832012195,
      0.237429393461697,
      -0.9714047987942181,
      -0.8027897828231509,
      0.6438886417642434,
      -0.28290866675259146,
      -0.3207936712121461,
      -0.6343985527992766,
      -0.7290703180371844,
      -0.4836504449245567,
      0.8786732377711405,
      0.054157127985476075,
      -0.7713454213386275,
      -0.6341082293019172,
      0.22359674034658816,
      0.4091533180352659,
      0.1695268877050574
    ],
    "final_E_line": 1.087849685998878e-06,
    "final_E_plane": 5.587449398137415e-06,
    "final_E_pose": 0.0,
    "final_E_centroids": 0.0555013065505804,
    "final_E_total": 0.9984586145510416
  }
]