[
  {
    "mask_number": 12,
    "image_num": 3,
    "contour_noise": false,
    "canny": true,
    "is_vertical": "True",
    "edges_control": [
      0,
      1,
      0,
      1
    ],
    "no_canny": "False",
    "box_dimensions": [
      0.296,
      0.154,
      0.221
    ],
    "final_weights": [
      0.19999999999999998,
      0.6,
      0.19999999999999998,
      0.0
    ],
    "cntr_line_weights": [
      0.25,
      0.25,
      0.25,
      0.25
    ],
    "canny_seg_weights": [
      0.7,
      0.30000000000000004
    ],
    "init_params": [
      1.0,
      0.0,
      1.0,
      6.123233995736766e-17,
      1.0,
      1.0,
      -1.0,
      1.2246467991473532e-16,
      1.0,
      -1.8369701987210297e-16,
      -1.0,
      1.0,
      1.0,
      0.0,
      0.0,
      0.0,
      -0.013061568122930883,
      -0.3319027287529117,
      1.0060573587038906,
      0.0,
      0.0,
      -1.0,
      1.0060573587038906
    ],
    "final_loss": 0.24516131590230364,
    "time_duration": 1.373966199986171,
    "optimized_parameters": [
      0.004696074027712256,
      0.9999889733836679,
      0.2680517541878489,
      -0.9949453260841428,
      -0.10041811641035342,
      -0.0955599405661771,
      -0.0042948616098705435,
      -0.9999907770394656,
      -0.38970094298843344,
      0.9848678588845488,
      -0.17330695466820634,
      -0.1467611873549674,
      0.6467991535450076,
      -0.29014272965746307,
      -0.29025143214803717,
      -0.6428235819697978,
      -0.014077169865463967,
      -0.3408508997551448,
      1.0156987135718838,
      0.002447632044840525,
      -0.7484890776043547,
      -0.663142601409864,
      0.4184643773640582
    ],
    "final_E_line": 8.897917235263721e-06,
    "final_E_plane": 3.0963615602070504e-06,
    "final_E_pose": 8.79289997930552e-08,
    "final_E_centroids": 0.0,
    "final_E_total": 2.4516131589699874e-06
  }
]