[
  {
    "mask_number": 17,
    "image_num": 3,
    "contour_noise": false,
    "canny": true,
    "is_vertical": "True",
    "edges_control": [
      0,
      1,
      0,
      0
    ],
    "no_canny": "False",
    "box_dimensions": [
      0.296,
      0.154,
      0.221
    ],
    "final_weights": [
      0.19999999999999998,
      0.6,
      0.19999999999999998,
      0.0
    ],
    "cntr_line_weights": [
      0.25,
      0.25,
      0.25,
      0.25
    ],
    "canny_seg_weights": [
      0.7,
      0.30000000000000004
    ],
    "init_params": [
      1.0,
      0.0,
      1.0,
      6.123233995736766e-17,
      1.0,
      1.0,
      -1.0,
      1.2246467991473532e-16,
      1.0,
      -1.8369701987210297e-16,
      -1.0,
      1.0,
      1.0,
      0.0,
      0.0,
      0.0,
      -0.012984838914372491,
      -0.5431566843536608,
      1.257893915307773,
      0.0,
      0.0,
      -1.0,
      1.257893915307773
    ],
    "final_loss": 0.7880111677013399,
    "time_duration": 3.344323400000576,
    "optimized_parameters": [
      -0.007160812863910691,
      0.9999743610512631,
      0.3909550045663742,
      -0.983938602581484,
      -0.1785072165217385,
      -0.12648559615376775,
      0.0059521558145953545,
      -0.999982285764172,
      -0.467223725059058,
      0.9951357868486445,
      -0.09851276939241578,
      -0.1146335056078418,
      0.6352959509698706,
      -0.29250047576197824,
      -0.29918957351464187,
      -0.649097932103146,
      -0.014019056255684122,
      -0.5443349763308802,
      1.2587519503212297,
      0.0004249949935101087,
      -0.7600553999036905,
      -0.649858144872516,
      0.40429143918491495
    ],
    "final_E_line": 2.50014838556496e-05,
    "final_E_plane": 1.4014900052678218e-05,
    "final_E_pose": 1.280581763814059e-07,
    "final_E_centroids": 0.0,
    "final_E_total": 7.880111687494406e-06
  }
]