[
  {
    "mask_number": 18,
    "image_num": 6,
    "contour_noise": false,
    "canny": true,
    "generate_random": false,
    "all_edges_good": true,
    "is_vertical": "False",
    "edges_control": [
      1,
      1,
      1,
      1
    ],
    "no_canny": "False",
    "final_weights": [
      0.19999999999999998,
      0.6,
      0.19999999999999998,
      0.0
    ],
    "cntr_line_weights": [
      0.25,
      0.25,
      0.25,
      0.25
    ],
    "canny_seg_weights": [
      0.7,
      0.30000000000000004
    ],
    "init_params": [
      1.0,
      0.0,
      1.0,
      6.123233995736766e-17,
      1.0,
      1.0,
      -1.0,
      1.2246467991473532e-16,
      1.0,
      -1.8369701987210297e-16,
      -1.0,
      1.0,
      1.0,
      0.0,
      0.0,
      0.0,
      0.16399114157221542,
      -0.47623902833606896,
      1.1549319697562632,
      0.0,
      0.0,
      -1.0,
      1.1549319697562632,
      0.1,
      0.1
    ],
    "final_loss": 0.12930103935714202,
    "time_duration": 2.8371498999986215,
    "optimized_parameters": [
      0.003655336012406847,
      0.9999933192371712,
      0.39064941669368103,
      -0.833699307555301,
      -0.5522186746245465,
      -0.48170329497540604,
      -0.004146239615446141,
      -0.9999914043119043,
      -0.4570413356417724,
      0.9993958140248917,
      -0.03475639395337257,
      -0.036098565644102916,
      0.6436995745405995,
      -0.28905119006633845,
      -0.2936366526095182,
      -0.644885868587097,
      0.16363420052422745,
      -0.506172148226631,
      1.1889586215782881,
      0.005217533758565029,
      -0.7508485334099918,
      -0.6604538267131029,
      0.4043398997824128,
      0.3778563813484552,
      0.23043515668942882
    ],
    "final_E_line": 1.254942438627636e-06,
    "final_E_plane": 1.2930103935714466e-06,
    "final_E_pose": 0.0,
    "final_E_centroids": 0.0036553360123762,
    "final_E_total": 0.9999933192371712
  }
]