[
  {
    "mask_number": 0,
    "image_num": 3,
    "contour_noise": false,
    "canny": true,
    "is_vertical": "True",
    "edges_control": [
      1,
      1,
      1,
      1
    ],
    "no_canny": "False",
    "box_dimensions": [
      0.296,
      0.154,
      0.221
    ],
    "final_weights": [
      0.3333333333333333,
      0.3333333333333333,
      0.3333333333333333,
      0.0
    ],
    "cntr_line_weights": [
      0.25,
      0.25,
      0.25,
      0.25
    ],
    "canny_seg_weights": [
      0.7,
      0.30000000000000004
    ],
    "init_params": [
      1.0,
      0.0,
      1.0,
      6.123233995736766e-17,
      1.0,
      1.0,
      -1.0,
      1.2246467991473532e-16,
      1.0,
      -1.8369701987210297e-16,
      -1.0,
      1.0,
      1.0,
      0.0,
      0.0,
      0.0,
      0.14048387671957183,
      0.08427436768553427,
      0.543249833472429,
      0.0,
      0.0,
      -1.0,
      0.543249833472429
    ],
    "final_loss": 0.3603002353758711,
    "time_duration": 1.2874526999949012,
    "optimized_parameters": [
      0.029301770105352058,
      0.9995706109469235,
      -0.35698874231522904,
      -0.9390824619998026,
      -0.34369191082271816,
      -0.32040295277776215,
      -0.026440663348738187,
      -0.9996503845454657,
      -0.05787786535975459,
      0.9948433551025302,
      0.10142336421374278,
      0.09919988323006161,
      0.65355412896339,
      -0.27404311864601083,
      -0.29245174067301016,
      -0.6420586803517742,
      0.13990443161947025,
      0.06555257730548948,
      0.5631456670731808,
      0.030362465856265963,
      -0.7337463863534806,
      -0.6787446951397795,
      0.42608327180813077
    ],
    "final_E_line": 9.21820146343396e-06,
    "final_E_plane": 8.260005647590891e-07,
    "final_E_pose": 7.64805033094783e-07,
    "final_E_centroids": 0.0,
    "final_E_total": 3.60300235376261e-06
  }
]