[
  {
    "mask_number": 19,
    "image_num": 6,
    "contour_noise": false,
    "canny": true,
    "generate_random": false,
    "all_edges_good": true,
    "is_vertical": "False",
    "edges_control": [
      1,
      1,
      1,
      1
    ],
    "no_canny": "False",
    "final_weights": [
      0.19999999999999998,
      0.6,
      0.19999999999999998,
      0.0
    ],
    "cntr_line_weights": [
      0.25,
      0.25,
      0.25,
      0.25
    ],
    "canny_seg_weights": [
      0.7,
      0.30000000000000004
    ],
    "init_params": [
      1.0,
      0.0,
      1.0,
      6.123233995736766e-17,
      1.0,
      1.0,
      -1.0,
      1.2246467991473532e-16,
      1.0,
      -1.8369701987210297e-16,
      -1.0,
      1.0,
      1.0,
      0.0,
      0.0,
      0.0,
      -0.24772102031707494,
      -0.4833340030553722,
      1.1686104507241084,
      0.0,
      0.0,
      -1.0,
      1.1686104507241084,
      0.15,
      0.15
    ],
    "final_loss": 0.17945713350052184,
    "time_duration": 3.671401600004174,
    "optimized_parameters": [
      -0.0104553211163226,
      0.999945341636442,
      0.396315340082807,
      -0.9998134510515456,
      0.019314841905275423,
      0.02724304734189486,
      0.01028136552127569,
      -0.9999471453647103,
      -0.459501776295909,
      0.8173522832658351,
      -0.5761382169589986,
      -0.5246807029610745,
      0.6421035787473307,
      -0.2894871417808454,
      -0.28697848900363954,
      -0.6492638414036084,
      -0.21688528313157546,
      -0.5156950607524092,
      1.2043497627776312,
      -0.007367225722291362,
      -0.7444109119531407,
      -0.6676811500652868,
      0.41863477200830956,
      0.38815599250620125,
      0.21807421781606467
    ],
    "final_E_line": 1.7794359950424826e-06,
    "final_E_plane": 1.7945713316288792e-06,
    "final_E_pose": 0.0,
    "final_E_centroids": -0.0104553211163226,
    "final_E_total": 0.999945341636442
  }
]