[
  {
    "mask_number": 10,
    "image_num": 7,
    "contour_noise": false,
    "canny": true,
    "generate_random": false,
    "all_edges_good": true,
    "is_vertical": "False",
    "edges_control": [
      1,
      1,
      1,
      1
    ],
    "no_canny": "False",
    "final_weights": [
      0.19999999999999998,
      0.6,
      0.19999999999999998,
      0.0
    ],
    "cntr_line_weights": [
      0.25,
      0.25,
      0.25,
      0.25
    ],
    "canny_seg_weights": [
      0.7,
      0.30000000000000004
    ],
    "init_params": [
      1.0,
      0.0,
      1.0,
      6.123233995736766e-17,
      1.0,
      1.0,
      -1.0,
      1.2246467991473532e-16,
      1.0,
      -1.8369701987210297e-16,
      -1.0,
      1.0,
      1.0,
      0.0,
      0.0,
      0.0,
      -0.6652560739548955,
      -0.26871410422418845,
      0.6278238326161257,
      0.0,
      0.0,
      -1.0,
      0.6278238326161257,
      0.1,
      0.1
    ],
    "final_loss": 5.947996225375857,
    "time_duration": 3.0785711999997147,
    "optimized_parameters": [
      0.039410626639685545,
      0.9992230994667406,
      0.33039569703043775,
      -0.5314726737555971,
      0.8470754376388667,
      0.791630132631336,
      -0.04418448190534388,
      -0.9990233888947773,
      -0.41632701021511304,
      0.3615020218536328,
      -0.9323713252753633,
      -0.8715419265330335,
      0.6465814768320275,
      -0.2642814281615331,
      -0.3047849516647197,
      -0.6474518158020495,
      -0.659465248443266,
      -0.26178746628235666,
      0.6207043745688321,
      0.051917701327311355,
      -0.7364258757732116,
      -0.6745231514044432,
      0.2601303366444748,
      0.2736569940670068,
      0.14147585405841406
    ],
    "final_E_line": 3.451379644614083e-06,
    "final_E_plane": 5.94799622537248e-05,
    "final_E_pose": 0.0,
    "final_E_centroids": 0.0394106266385014,
    "final_E_total": 0.9992230994667872
  }
]