[
  {
    "mask_number": 22,
    "image_num": 7,
    "contour_noise": false,
    "canny": true,
    "generate_random": false,
    "all_edges_good": true,
    "is_vertical": "False",
    "edges_control": [
      1,
      0,
      1,
      0
    ],
    "no_canny": "False",
    "final_weights": [
      0.19999999999999998,
      0.6,
      0.19999999999999998,
      0.0
    ],
    "cntr_line_weights": [
      0.25,
      0.25,
      0.25,
      0.25
    ],
    "canny_seg_weights": [
      0.7,
      0.30000000000000004
    ],
    "init_params": [
      1.0,
      0.0,
      1.0,
      6.123233995736766e-17,
      1.0,
      1.0,
      -1.0,
      1.2246467991473532e-16,
      1.0,
      -1.8369701987210297e-16,
      -1.0,
      1.0,
      1.0,
      0.0,
      0.0,
      0.0,
      0.0774367897527143,
      -0.5657470359318966,
      1.184867396624419,
      0.0,
      0.0,
      -1.0,
      1.184867396624419,
      0.1,
      0.1
    ],
    "final_loss": 0.885633700194209,
    "time_duration": 3.7415270999990753,
    "optimized_parameters": [
      -0.0026194976272066474,
      0.9999965691102173,
      0.45594120556228057,
      -0.9092769043885937,
      -0.4161916759690138,
      -0.3333779626794595,
      0.0026891148251861102,
      -0.999996384324198,
      -0.4967695049023508,
      0.9995064507344793,
      -0.03141424741626154,
      -0.026733893650538326,
      0.6369262757642616,
      -0.30650422610687783,
      -0.3052740683435585,
      -0.6381127030679383,
      0.08070747689960862,
      -0.5667275891414659,
      1.1860769601695227,
      -0.002294280408803111,
      -0.7800397063131386,
      -0.625725812838467,
      0.30027411700323964,
      0.1892572420017847,
      0.1905629010553774
    ],
    "final_E_line": 1.529093517529681e-06,
    "final_E_plane": 8.856337001951039e-06,
    "final_E_pose": 0.0,
    "final_E_centroids": -0.0026194976272066,
    "final_E_total": 0.9999965691102172
  }
]