[
  {
    "mask_number": 18,
    "image_num": 3,
    "contour_noise": false,
    "canny": true,
    "is_vertical": "False",
    "edges_control": [
      0,
      0,
      0,
      0
    ],
    "no_canny": "False",
    "box_dimensions": [
      0.296,
      0.154,
      0.221
    ],
    "final_weights": [
      0.3333333333333333,
      0.3333333333333333,
      0.3333333333333333,
      0.0
    ],
    "cntr_line_weights": [
      0.25,
      0.25,
      0.25,
      0.25
    ],
    "canny_seg_weights": [
      0.7,
      0.30000000000000004
    ],
    "init_params": [
      1.0,
      0.0,
      1.0,
      6.123233995736766e-17,
      1.0,
      1.0,
      -1.0,
      1.2246467991473532e-16,
      1.0,
      -1.8369701987210297e-16,
      -1.0,
      1.0,
      1.0,
      0.0,
      0.0,
      0.0,
      -0.21717738255470345,
      -0.5372757325802762,
      1.2465554905213263,
      0.0,
      0.0,
      -1.0,
      1.2465554905213263
    ],
    "final_loss": 16.98267233884905,
    "time_duration": 13.202441000001272,
    "optimized_parameters": [
      -0.043368592912200556,
      0.9990610939806748,
      0.4418819971913837,
      -0.972643925151673,
      0.23317557514422746,
      0.17677410519224943,
      0.04340116178266593,
      -0.9990596763486355,
      -0.441584368712641,
      0.09674394747037657,
      0.9953134780362256,
      0.40842610329484696,
      0.4017356057689986,
      0.6428349034980632,
      0.5389532796632752,
      -0.36729132851257623,
      -0.2998096587312363,
      -0.8656762904764382,
      1.9875289089032915,
      -0.03915623918271946,
      -0.9124466709434305,
      -0.40732204165402036,
      0.007852161467754146
    ],
    "final_E_line": 0.0002446716731989,
    "final_E_plane": 0.000225301005232,
    "final_E_pose": 3.950749173446182e-05,
    "final_E_centroids": 0.0,
    "final_E_total": 0.0001698267233884
  }
]