[
  {
    "mask_number": 15,
    "image_num": 3,
    "contour_noise": false,
    "canny": false,
    "generate_random": false,
    "all_edges_good": true,
    "is_vertical": "True",
    "edges_control": [
      0,
      0,
      0,
      0
    ],
    "no_canny": "True",
    "box_dimensions": [
      0.296,
      0.154,
      0.221
    ],
    "final_weights": [
      0.19999999999999998,
      0.6,
      0.19999999999999998,
      0.0
    ],
    "cntr_line_weights": [
      0.25,
      0.25,
      0.25,
      0.25
    ],
    "canny_seg_weights": [
      0.7,
      0.30000000000000004
    ],
    "init_params": [
      1.0,
      0.0,
      1.0,
      6.123233995736766e-17,
      1.0,
      1.0,
      -1.0,
      1.2246467991473532e-16,
      1.0,
      -1.8369701987210297e-16,
      -1.0,
      1.0,
      1.0,
      0.0,
      0.0,
      0.0,
      0.14535839274103096,
      -0.5236661487650376,
      1.2341147921530597,
      0.0,
      0.0,
      -1.0,
      1.2341147921530597
    ],
    "final_loss": 0.40839082524003895,
    "time_duration": 1.5707933999947272,
    "optimized_parameters": [
      0.011861260695248795,
      0.9999296527730985,
      0.3893267642710437,
      -0.9252696400068379,
      -0.3793100226493854,
      -0.3271639223456364,
      -0.011130575677031854,
      -0.9999380532239266,
      -0.46356276861282014,
      0.9953070699686383,
      0.0967669182812279,
      0.09504405362623192,
      0.6448079705846939,
      -0.29896334182041734,
      -0.3008235833666678,
      -0.6358842449758674,
      0.144471859454446,
      -0.5338475159136526,
      1.2457689316236578,
      0.0077347851333330045,
      -0.768125841593818,
      -0.640252188262407,
      0.38642676651086477
    ],
    "final_E_line": 1.525853651262936e-05,
    "final_E_plane": 4.346319275955655e-06,
    "final_E_pose": 2.715618244744982e-07,
    "final_E_centroids": 0.0,
    "final_E_total": 4.083908252401702e-06
  }
]