[
  {
    "mask_number": 5,
    "image_num": 4,
    "contour_noise": true,
    "canny": true,
    "is_vertical": "False",
    "edges_control": [
      1,
      1,
      1,
      1
    ],
    "no_canny": "False",
    "box_dimensions": [
      0.396,
      0.2,
      0.205
    ],
    "final_weights": [
      0.19999999999999998,
      0.6,
      0.19999999999999998,
      0.0
    ],
    "cntr_line_weights": [
      0.3214285714285714,
      0.3214285714285714,
      0.3214285714285714,
      0.035714285714285705
    ],
    "canny_seg_weights": [
      0.7,
      0.30000000000000004
    ],
    "init_params": [
      1.0,
      0.0,
      1.0,
      6.123233995736766e-17,
      1.0,
      1.0,
      -1.0,
      1.2246467991473532e-16,
      1.0,
      -1.8369701987210297e-16,
      -1.0,
      1.0,
      1.0,
      0.0,
      0.0,
      0.0,
      0.15139164152059872,
      -0.13583474164644938,
      0.8230679996144157,
      0.0,
      0.0,
      -1.0,
      0.8230679996144157
    ],
    "final_loss": 0.4812010795939572,
    "time_duration": 1.6533247000188567,
    "optimized_parameters": [
      -0.01799186041656167,
      0.9998381333790113,
      0.0910851685177382,
      -0.8580128115921188,
      -0.5136282849925443,
      -0.45382885314140525,
      0.015394549732357212,
      -0.9998814968978745,
      -0.22906608370110687,
      0.9998603736386422,
      -0.016710273161993357,
      -0.052859171109230545,
      0.6401948674400714,
      -0.27726077337823996,
      -0.28353451298600574,
      -0.6579401000053016,
      0.1562266073898251,
      -0.14025948614058908,
      0.8283868044510629,
      -0.0018072767177390715,
      -0.7280993356258831,
      -0.6854692489178945,
      0.46599320312313486
    ],
    "final_E_line": 2.035424077963219e-05,
    "final_E_plane": 3.226333054047162e-06,
    "final_E_pose": 1.5982671533641146e-07,
    "final_E_centroids": 3.8149716120521764e-23,
    "final_E_total": 4.812010795937717e-06
  }
]