[
  {
    "mask_number": 0,
    "image_num": 3,
    "contour_noise": false,
    "canny": false,
    "generate_random": false,
    "all_edges_good": true,
    "is_vertical": "True",
    "edges_control": [
      0,
      0,
      0,
      0
    ],
    "no_canny": "True",
    "box_dimensions": [
      0.296,
      0.154,
      0.221
    ],
    "final_weights": [
      0.19999999999999998,
      0.6,
      0.19999999999999998,
      0.0
    ],
    "cntr_line_weights": [
      0.25,
      0.25,
      0.25,
      0.25
    ],
    "canny_seg_weights": [
      0.7,
      0.30000000000000004
    ],
    "init_params": [
      1.0,
      0.0,
      1.0,
      6.123233995736766e-17,
      1.0,
      1.0,
      -1.0,
      1.2246467991473532e-16,
      1.0,
      -1.8369701987210297e-16,
      -1.0,
      1.0,
      1.0,
      0.0,
      0.0,
      0.0,
      0.14064899082332724,
      0.08460399181021747,
      0.5429258292935509,
      0.0,
      0.0,
      -1.0,
      0.5429258292935509
    ],
    "final_loss": 0.2408518513799174,
    "time_duration": 1.181116399995517,
    "optimized_parameters": [
      0.029702944366957987,
      0.9995587702061012,
      -0.35839299154312193,
      -0.9395065991044967,
      -0.342530801883869,
      -0.32043101643952077,
      -0.02919903668254393,
      -0.9995736172274543,
      -0.057692319922810424,
      0.9945725035907139,
      0.10404583173441016,
      0.10080863154015639,
      0.6543163442372408,
      -0.271377543371382,
      -0.29417672218224084,
      -0.6416263762844581,
      0.14045839873705027,
      0.06614179088431747,
      0.5625465424397188,
      0.03672318498675056,
      -0.7326366013587441,
      -0.6796285882995992,
      0.42562253587229915
    ],
    "final_E_line": 9.965954552249835e-06,
    "final_E_plane": 1.1558403770623798e-06,
    "final_E_pose": 3.0693254650855644e-07,
    "final_E_centroids": 0.0,
    "final_E_total": 2.408518513767577e-06
  }
]