[
  {
    "mask_number": 3,
    "image_num": 6,
    "contour_noise": false,
    "canny": true,
    "generate_random": false,
    "all_edges_good": true,
    "is_vertical": "False",
    "edges_control": [
      1,
      1,
      1,
      1
    ],
    "no_canny": "False",
    "final_weights": [
      0.19999999999999998,
      0.6,
      0.19999999999999998,
      0.0
    ],
    "cntr_line_weights": [
      0.25,
      0.25,
      0.25,
      0.25
    ],
    "canny_seg_weights": [
      0.7,
      0.30000000000000004
    ],
    "init_params": [
      1.0,
      0.0,
      1.0,
      6.123233995736766e-17,
      1.0,
      1.0,
      -1.0,
      1.2246467991473532e-16,
      1.0,
      -1.8369701987210297e-16,
      -1.0,
      1.0,
      1.0,
      0.0,
      0.0,
      0.0,
      0.16187307508339546,
      -0.06603652680810589,
      0.7127548693231107,
      0.0,
      0.0,
      -1.0,
      0.7127548693231107,
      0.1,
      0.1
    ],
    "final_loss": 0.1511814154368745,
    "time_duration": 3.1482887999954983,
    "optimized_parameters": [
      0.007388517606365217,
      0.9999727045312722,
      -0.0013985751606235318,
      -0.8465442801000589,
      -0.5323183087494612,
      -0.4767280456908842,
      -0.012479691717823189,
      -0.9999221256151046,
      -0.18802191883478775,
      0.9998343593444502,
      -0.01820038115894188,
      -0.03425108280060172,
      0.6466116252750598,
      -0.2732479451405519,
      -0.2927463201583798,
      -0.6492523073269308,
      0.1702807292322413,
      -0.07329808797521697,
      0.720889993983653,
      0.023772633885749257,
      -0.7335030637912481,
      -0.6792702829412098,
      0.43186676652340394,
      0.38702521077129626,
      0.22206486349137297
    ],
    "final_E_line": 9.453013969506536e-07,
    "final_E_plane": 1.5118141543155958e-06,
    "final_E_pose": 0.0,
    "final_E_centroids": 0.0073885176063652,
    "final_E_total": 0.9999727045312722
  }
]