[
  {
    "mask_number": 20,
    "image_num": 6,
    "contour_noise": false,
    "canny": true,
    "generate_random": false,
    "all_edges_good": true,
    "is_vertical": "False",
    "edges_control": [
      1,
      1,
      1,
      1
    ],
    "no_canny": "False",
    "final_weights": [
      0.19999999999999998,
      0.6,
      0.19999999999999998,
      0.0
    ],
    "cntr_line_weights": [
      0.25,
      0.25,
      0.25,
      0.25
    ],
    "canny_seg_weights": [
      0.7,
      0.30000000000000004
    ],
    "init_params": [
      1.0,
      0.0,
      1.0,
      6.123233995736766e-17,
      1.0,
      1.0,
      -1.0,
      1.2246467991473532e-16,
      1.0,
      -1.8369701987210297e-16,
      -1.0,
      1.0,
      1.0,
      0.0,
      0.0,
      0.0,
      -0.20431560615721797,
      0.08965758102188678,
      0.5388520259234864,
      0.0,
      0.0,
      -1.0,
      0.5388520259234864,
      0.15,
      0.15
    ],
    "final_loss": 0.6265521578467732,
    "time_duration": 1.922532599994156,
    "optimized_parameters": [
      -0.012001204093477177,
      0.999927982956931,
      -0.31070059718796295,
      -0.9997415323690236,
      0.02273474118517292,
      0.037768695492195074,
      0.007431541570873595,
      -0.999972385713683,
      -0.0025244777092825054,
      0.8179615969530759,
      -0.5752728273697753,
      -0.5328271604480596,
      0.6411630221386894,
      -0.28548513019077554,
      -0.2917012219834412,
      -0.6498604593105539,
      -0.21826754556415323,
      0.07466250933440566,
      0.5555466077298677,
      0.0030050823871820595,
      -0.7452151890823913,
      -0.6668172848995121,
      0.42674364364560785,
      0.3910838524002429,
      0.2238853157697972
    ],
    "final_E_line": 1.695318364933586e-06,
    "final_E_plane": 6.265521578636032e-06,
    "final_E_pose": 0.0,
    "final_E_centroids": -0.0120011580492523,
    "final_E_total": 0.9999279835095576
  }
]