[
  {
    "mask_number": 19,
    "image_num": 7,
    "contour_noise": false,
    "canny": true,
    "generate_random": false,
    "all_edges_good": true,
    "is_vertical": "False",
    "edges_control": [
      1,
      0,
      1,
      0
    ],
    "no_canny": "False",
    "final_weights": [
      0.19999999999999998,
      0.6,
      0.19999999999999998,
      0.0
    ],
    "cntr_line_weights": [
      0.25,
      0.25,
      0.25,
      0.25
    ],
    "canny_seg_weights": [
      0.7,
      0.30000000000000004
    ],
    "init_params": [
      1.0,
      0.0,
      1.0,
      6.123233995736766e-17,
      1.0,
      1.0,
      -1.0,
      1.2246467991473532e-16,
      1.0,
      -1.8369701987210297e-16,
      -1.0,
      1.0,
      1.0,
      0.0,
      0.0,
      0.0,
      -0.3111145230035072,
      -0.5618388692343715,
      1.187103095471101,
      0.0,
      0.0,
      -1.0,
      1.187103095471101,
      0.1,
      0.1
    ],
    "final_loss": 3.0261377055675256,
    "time_duration": 7.027054899997893,
    "optimized_parameters": [
      0.03276809496859691,
      0.9994629817825353,
      0.43806892378139184,
      -0.13147908839322336,
      0.9913189442936151,
      0.49727625663035374,
      -0.2766148402052511,
      0.9609808687892311,
      0.5386450584478351,
      0.6517953923041598,
      -0.758394861912526,
      -0.5884237385627644,
      -0.3278674873057664,
      -0.6641954433951881,
      0.6075117102163268,
      -0.2868394074984837,
      -0.42388938564128226,
      -0.5042384814478981,
      1.117460886456252,
      -0.017329754674471325,
      -0.7840519426173027,
      -0.6204532463297804,
      0.2906371859304646,
      0.005000000000002066,
      0.005000000000000819
    ],
    "final_E_line": 1.805425969968473e-06,
    "final_E_plane": 3.0261377055870536e-05,
    "final_E_pose": 0.0,
    "final_E_centroids": 0.0327680949685969,
    "final_E_total": 0.9994629817825352
  }
]