[
  {
    "mask_number": 12,
    "image_num": 6,
    "contour_noise": false,
    "canny": true,
    "generate_random": false,
    "all_edges_good": true,
    "is_vertical": "False",
    "edges_control": [
      1,
      1,
      1,
      1
    ],
    "no_canny": "False",
    "final_weights": [
      0.19999999999999998,
      0.6,
      0.19999999999999998,
      0.0
    ],
    "cntr_line_weights": [
      0.25,
      0.25,
      0.25,
      0.25
    ],
    "canny_seg_weights": [
      0.7,
      0.30000000000000004
    ],
    "init_params": [
      1.0,
      0.0,
      1.0,
      6.123233995736766e-17,
      1.0,
      1.0,
      -1.0,
      1.2246467991473532e-16,
      1.0,
      -1.8369701987210297e-16,
      -1.0,
      1.0,
      1.0,
      0.0,
      0.0,
      0.0,
      0.15340454381913088,
      -0.36262287284234573,
      1.0318927302539143,
      0.0,
      0.0,
      -1.0,
      1.0318927302539143,
      0.15,
      0.15
    ],
    "final_loss": 0.07662777437815499,
    "time_duration": 5.807868800002325,
    "optimized_parameters": [
      0.008639703270568939,
      0.9999626770681544,
      0.31066570968684903,
      -0.8492083299204148,
      -0.5280579631216986,
      -0.4763000915789809,
      -0.010661262017774833,
      -0.9999431671338255,
      -0.3944123141425704,
      0.9999997084366782,
      -0.0007636447466290203,
      -0.022786041995043315,
      0.6459066276051031,
      -0.2729406302871179,
      -0.28882633877620595,
      -0.6518338644067404,
      0.1664005734547944,
      -0.3670751941302075,
      1.0369656393677942,
      0.017285802367474113,
      -0.729121856631964,
      -0.6841655642000861,
      0.4389372779842133,
      0.37939893766606886,
      0.20250596918258854
    ],
    "final_E_line": 8.614976848988771e-07,
    "final_E_plane": 7.662777441592653e-07,
    "final_E_pose": 0.0,
    "final_E_centroids": 0.0086397048867478,
    "final_E_total": 0.999962677054448
  }
]