[
  {
    "mask_number": 5,
    "image_num": 5,
    "contour_noise": false,
    "canny": true,
    "generate_random": false,
    "all_edges_good": false,
    "is_vertical": "False",
    "edges_control": [
      1,
      1,
      1,
      1
    ],
    "no_canny": "False",
    "box_dimensions": [
      0.396,
      0.2,
      0.205
    ],
    "final_weights": [
      0.19999999999999998,
      0.6,
      0.19999999999999998,
      0.0
    ],
    "cntr_line_weights": [
      0.3333333333333333,
      0.3333333333333333,
      0.0,
      0.3333333333333333
    ],
    "canny_seg_weights": [
      0.7,
      0.30000000000000004
    ],
    "init_params": [
      1.0,
      0.0,
      1.0,
      6.123233995736766e-17,
      1.0,
      1.0,
      -1.0,
      1.2246467991473532e-16,
      1.0,
      -1.8369701987210297e-16,
      -1.0,
      1.0,
      1.0,
      0.0,
      0.0,
      0.0,
      0.17509011107993885,
      -0.15278063178658144,
      0.7877372943034688,
      0.0,
      0.0,
      -1.0,
      0.7877372943034688
    ],
    "final_loss": 0.6874852597458128,
    "time_duration": 2.5203810000093654,
    "optimized_parameters": [
      -0.011899079391662187,
      0.9999292034487424,
      0.13078951328928534,
      -0.7846514468574329,
      -0.6199371798372297,
      -0.4952485296938216,
      0.008251022126997336,
      -0.9999659597375617,
      -0.25689743499919077,
      0.9994136055696422,
      0.034240984248237544,
      -0.014083105013887931,
      0.6324916418453284,
      -0.28953692953961,
      -0.3034919887556509,
      -0.6511645738135023,
      0.18072677651234909,
      -0.16159743656634012,
      0.7994342422593905,
      0.006839929943298475,
      -0.7615057804280831,
      -0.6481220268845926,
      0.39383740960466534
    ],
    "final_E_line": 2.644968907525669e-05,
    "final_E_plane": 7.000864885027609e-06,
    "final_E_pose": 3.079030090370864e-07,
    "final_E_centroids": 0.0,
    "final_E_total": 6.874852597479112e-06
  }
]