[
  {
    "mask_number": 9,
    "image_num": 7,
    "contour_noise": false,
    "canny": true,
    "generate_random": false,
    "all_edges_good": true,
    "is_vertical": "False",
    "edges_control": [
      1,
      1,
      1,
      1
    ],
    "no_canny": "False",
    "final_weights": [
      0.19999999999999998,
      0.6,
      0.19999999999999998,
      0.0
    ],
    "cntr_line_weights": [
      0.25,
      0.25,
      0.25,
      0.25
    ],
    "canny_seg_weights": [
      0.7,
      0.30000000000000004
    ],
    "init_params": [
      1.0,
      0.0,
      1.0,
      6.123233995736766e-17,
      1.0,
      1.0,
      -1.0,
      1.2246467991473532e-16,
      1.0,
      -1.8369701987210297e-16,
      -1.0,
      1.0,
      1.0,
      0.0,
      0.0,
      0.0,
      0.277798341719683,
      -0.2480716716677374,
      0.8062863514570426,
      0.0,
      0.0,
      -1.0,
      0.8062863514570426,
      0.1,
      0.1
    ],
    "final_loss": 0.6335010253554374,
    "time_duration": 5.134637700000894,
    "optimized_parameters": [
      0.013727313773656893,
      0.999905775989258,
      0.25141761286406256,
      -0.7440171242122656,
      -0.6681605487301048,
      -0.5598651236001791,
      -0.016261513198405346,
      -0.9998677728522785,
      -0.3807320846564546,
      0.9119947083326378,
      0.41020196485886384,
      0.3357429290445544,
      0.6413113923314733,
      -0.28698325954682335,
      -0.3039819045165446,
      -0.6433935875748914,
      0.28505860583084286,
      -0.26221744894868937,
      0.8230272032830588,
      0.02060781984274776,
      -0.7592511051856344,
      -0.6504714267636131,
      0.3303923923225722,
      0.20247002328308134,
      0.25751093446928724
    ],
    "final_E_line": 2.105185997098684e-06,
    "final_E_plane": 6.335010253690843e-06,
    "final_E_pose": 0.0,
    "final_E_centroids": 0.0137273136938657,
    "final_E_total": 0.9999057759903536
  }
]