[
  {
    "mask_number": 15,
    "image_num": 3,
    "contour_noise": false,
    "canny": true,
    "is_vertical": "True",
    "edges_control": [
      0,
      1,
      0,
      1
    ],
    "no_canny": "False",
    "box_dimensions": [
      0.296,
      0.154,
      0.221
    ],
    "final_weights": [
      0.3333333333333333,
      0.3333333333333333,
      0.3333333333333333,
      0.0
    ],
    "cntr_line_weights": [
      0.25,
      0.25,
      0.25,
      0.25
    ],
    "canny_seg_weights": [
      0.7,
      0.30000000000000004
    ],
    "init_params": [
      1.0,
      0.0,
      1.0,
      6.123233995736766e-17,
      1.0,
      1.0,
      -1.0,
      1.2246467991473532e-16,
      1.0,
      -1.8369701987210297e-16,
      -1.0,
      1.0,
      1.0,
      0.0,
      0.0,
      0.0,
      0.14536535051571398,
      -0.5212297954790559,
      1.2309749997346788,
      0.0,
      0.0,
      -1.0,
      1.2309749997346788
    ],
    "final_loss": 0.4625271288089437,
    "time_duration": 2.1920949000050314,
    "optimized_parameters": [
      0.019455204116083938,
      0.999810729604764,
      0.39004845810350885,
      -0.9306604195128553,
      -0.36588411219487266,
      -0.3233146528357898,
      -0.017710644951202646,
      -0.9998431542274535,
      -0.46454744475221366,
      0.9970265379679716,
      0.07705895529794277,
      0.08717033186009843,
      0.6476835267199916,
      -0.2976987029020543,
      -0.3007956965555881,
      -0.6335641091788812,
      0.14546857654090783,
      -0.533962887857657,
      1.2458339025514154,
      0.012418505064664584,
      -0.7667758093130874,
      -0.6417948573993395,
      0.38833348562461006
    ],
    "final_E_line": 9.34170801045408e-06,
    "final_E_plane": 3.5686654794292395e-06,
    "final_E_pose": 9.65440374460341e-07,
    "final_E_centroids": 0.0,
    "final_E_total": 4.625271288114553e-06
  }
]