[
  {
    "mask_number": 3,
    "image_num": 5,
    "contour_noise": false,
    "canny": true,
    "generate_random": false,
    "all_edges_good": true,
    "is_vertical": "False",
    "edges_control": [
      1,
      1,
      1,
      1
    ],
    "no_canny": "False",
    "box_dimensions": [
      0.396,
      0.2,
      0.205
    ],
    "final_weights": [
      0.19999999999999998,
      0.6,
      0.19999999999999998,
      0.0
    ],
    "cntr_line_weights": [
      0.25,
      0.25,
      0.25,
      0.25
    ],
    "canny_seg_weights": [
      0.7,
      0.30000000000000004
    ],
    "init_params": [
      1.0,
      0.0,
      1.0,
      6.123233995736766e-17,
      1.0,
      1.0,
      -1.0,
      1.2246467991473532e-16,
      1.0,
      -1.8369701987210297e-16,
      -1.0,
      1.0,
      1.0,
      0.0,
      0.0,
      0.0,
      -0.22056927601494108,
      -0.15158856449438146,
      0.7857193054002283,
      0.0,
      0.0,
      -1.0,
      0.7857193054002283
    ],
    "final_loss": 0.45590041484051314,
    "time_duration": 1.3581964000477456,
    "optimized_parameters": [
      -0.01494757460121313,
      0.9998882787659537,
      0.13280758247874963,
      -0.9998904610704863,
      0.014800873644050208,
      0.027837821334647635,
      0.014143306370558276,
      -0.9998999784402981,
      -0.26214026181865935,
      0.804679302556719,
      -0.5937097102430826,
      -0.5373701286775886,
      0.6392666852754441,
      -0.29179188292863295,
      -0.28949988677580885,
      -0.6499118538007432,
      -0.21742458555230332,
      -0.15851573610974456,
      0.7940930397809546,
      -0.009142732855056217,
      -0.7493644799800241,
      -0.6620946205643305,
      0.40499082415647786
    ],
    "final_E_line": 1.9446386762634644e-05,
    "final_E_plane": 3.043954013491214e-06,
    "final_E_pose": 1.0155997805505905e-07,
    "final_E_centroids": 0.0,
    "final_E_total": 4.559004142058207e-06
  }
]