[
  {
    "mask_number": 19,
    "image_num": 6,
    "contour_noise": false,
    "canny": true,
    "generate_random": false,
    "all_edges_good": true,
    "is_vertical": "False",
    "edges_control": [
      1,
      1,
      1,
      1
    ],
    "no_canny": "False",
    "final_weights": [
      0.19999999999999998,
      0.6,
      0.19999999999999998,
      0.0
    ],
    "cntr_line_weights": [
      0.25,
      0.25,
      0.25,
      0.25
    ],
    "canny_seg_weights": [
      0.7,
      0.30000000000000004
    ],
    "init_params": [
      1.0,
      0.0,
      1.0,
      6.123233995736766e-17,
      1.0,
      1.0,
      -1.0,
      1.2246467991473532e-16,
      1.0,
      -1.8369701987210297e-16,
      -1.0,
      1.0,
      1.0,
      0.0,
      0.0,
      0.0,
      -0.25244239247600914,
      -0.47667502989550337,
      1.160455331382908,
      0.0,
      0.0,
      -1.0,
      1.160455331382908,
      0.1,
      0.1
    ],
    "final_loss": 5.220865273560262,
    "time_duration": 8.201964599997154,
    "optimized_parameters": [
      0.1019353375162525,
      -0.9947910267817295,
      -0.4062236177428406,
      -0.07873363803998748,
      0.9968956887463142,
      0.4207496779849581,
      0.01410559236351876,
      -0.9999005111830249,
      -0.4601149913026788,
      0.056116100944768446,
      -0.9984242501135259,
      -0.4347213780415531,
      0.9455816242196134,
      -0.3207286985497008,
      0.008647375982334267,
      0.05416379559679079,
      0.75,
      -0.5994636980570357,
      1.2799944227513422,
      -0.008627661910214534,
      -0.732832409375445,
      -0.680354483500288,
      0.4380142360896277,
      0.005,
      0.005000000000000048
    ],
    "final_E_line": 1.049221258933627e-06,
    "final_E_plane": 5.220865273573634e-05,
    "final_E_pose": 0.0,
    "final_E_centroids": 0.1019353375157874,
    "final_E_total": -0.9947910267817772
  }
]