[
  {
    "mask_number": 4,
    "image_num": 6,
    "contour_noise": false,
    "canny": true,
    "generate_random": false,
    "all_edges_good": true,
    "is_vertical": "False",
    "edges_control": [
      1,
      1,
      1,
      1
    ],
    "no_canny": "False",
    "final_weights": [
      0.19999999999999998,
      0.6,
      0.19999999999999998,
      0.0
    ],
    "cntr_line_weights": [
      0.25,
      0.25,
      0.25,
      0.25
    ],
    "canny_seg_weights": [
      0.7,
      0.30000000000000004
    ],
    "init_params": [
      1.0,
      0.0,
      1.0,
      6.123233995736766e-17,
      1.0,
      1.0,
      -1.0,
      1.2246467991473532e-16,
      1.0,
      -1.8369701987210297e-16,
      -1.0,
      1.0,
      1.0,
      0.0,
      0.0,
      0.0,
      -0.6573401507170115,
      -0.16200922394767645,
      0.7516130090649882,
      0.0,
      0.0,
      -1.0,
      0.7516130090649882,
      0.1,
      0.1
    ],
    "final_loss": 12.201691482799365,
    "time_duration": 4.8737400000027264,
    "optimized_parameters": [
      -0.003263171321806213,
      0.9999946758422914,
      0.1545895861607628,
      -0.14571022597153427,
      0.9893273118878934,
      0.31261362239567214,
      -0.36156010710267544,
      0.9323488021936335,
      0.5465445041558998,
      0.6018225202156495,
      -0.7986298605494815,
      -0.7926435372033346,
      -0.16936189241669594,
      -0.3810528582633027,
      0.8188621199005243,
      -0.39443642986326843,
      -0.75,
      -0.10199759796367014,
      0.6711938702412301,
      0.023233783437769176,
      -0.7750492414986982,
      -0.6314735660021534,
      0.36222124406186895,
      0.005000000000000002,
      0.005
    ],
    "final_E_line": 2.4477961745994787e-05,
    "final_E_plane": 0.0001220169148279,
    "final_E_pose": 0.0,
    "final_E_centroids": -0.0032631713218062,
    "final_E_total": 0.9999946758422914
  }
]