[
  {
    "mask_number": 1,
    "image_num": 4,
    "contour_noise": false,
    "canny": true,
    "is_vertical": "True",
    "edges_control": [
      1,
      1,
      1,
      1
    ],
    "no_canny": "False",
    "box_dimensions": [
      0.396,
      0.2,
      0.205
    ],
    "final_weights": [
      0.3333333333333333,
      0.3333333333333333,
      0.3333333333333333,
      0.0
    ],
    "cntr_line_weights": [
      0.25,
      0.25,
      0.25,
      0.25
    ],
    "canny_seg_weights": [
      0.7,
      0.30000000000000004
    ],
    "init_params": [
      1.0,
      0.0,
      1.0,
      6.123233995736766e-17,
      1.0,
      1.0,
      -1.0,
      1.2246467991473532e-16,
      1.0,
      -1.8369701987210297e-16,
      -1.0,
      1.0,
      1.0,
      0.0,
      0.0,
      0.0,
      -0.12203545123666114,
      0.10545062829919316,
      0.5598269572550626,
      0.0,
      0.0,
      -1.0,
      0.5598269572550626
    ],
    "final_loss": 0.9128561202780012,
    "time_duration": 1.4886608999804594,
    "optimized_parameters": [
      -0.028791337213649796,
      0.9995854435221926,
      -0.44664254647082263,
      -0.9999203728841236,
      -0.012619345915759493,
      0.03865157684616626,
      0.00230192794834902,
      -0.9999973505603549,
      -0.07970548133293012,
      0.9513659758976896,
      -0.30806294795747974,
      -0.3211980599609896,
      0.6371711667669508,
      -0.2753584782324619,
      -0.3012615421883895,
      -0.6537829119093302,
      -0.12301179291021835,
      0.07268729828344588,
      0.5965871203018043,
      0.02386102621998223,
      -0.7448202586410859,
      -0.666838386526825,
      0.4549013615591311
    ],
    "final_E_line": 2.345362289473864e-05,
    "final_E_plane": 2.70754630023727e-06,
    "final_E_pose": 1.2245142350299553e-06,
    "final_E_centroids": 0.0,
    "final_E_total": 9.128561143335287e-06
  }
]