[
  {
    "mask_number": 8,
    "image_num": 5,
    "contour_noise": false,
    "canny": true,
    "generate_random": false,
    "all_edges_good": true,
    "is_vertical": "False",
    "edges_control": [
      1,
      1,
      1,
      1
    ],
    "no_canny": "False",
    "box_dimensions": [
      0.396,
      0.2,
      0.205
    ],
    "final_weights": [
      0.19999999999999998,
      0.6,
      0.19999999999999998,
      0.0
    ],
    "cntr_line_weights": [
      0.25,
      0.25,
      0.25,
      0.25
    ],
    "canny_seg_weights": [
      0.7,
      0.30000000000000004
    ],
    "init_params": [
      1.0,
      0.0,
      1.0,
      6.123233995736766e-17,
      1.0,
      1.0,
      -1.0,
      1.2246467991473532e-16,
      1.0,
      -1.8369701987210297e-16,
      -1.0,
      1.0,
      1.0,
      0.0,
      0.0,
      0.0,
      0.1684725687077142,
      -0.2934394379225465,
      0.9536903109325314,
      0.0,
      0.0,
      -1.0,
      0.9536903109325314
    ],
    "final_loss": 0.5792840806857134,
    "time_duration": 1.6123023999971338,
    "optimized_parameters": [
      -0.013149005669520538,
      0.999913548087985,
      0.2591946032998554,
      -0.8041107239778619,
      -0.5944795569099169,
      -0.49698742604281043,
      0.01124280885792583,
      -0.9999367976272224,
      -0.3501200083297085,
      0.9998063704993712,
      0.01967794473195991,
      -0.01748259860951181,
      0.6360772897115815,
      -0.2870006530573071,
      -0.2939633612981154,
      -0.6531629573637584,
      0.17500467200708214,
      -0.2979096792075871,
      0.9595855902011524,
      -0.0009495458600871493,
      -0.7491211254523179,
      -0.6624323646711046,
      0.41265630370609485
    ],
    "final_E_line": 2.43866187014729e-05,
    "final_E_plane": 4.024503153255461e-06,
    "final_E_pose": 1.843607297444149e-07,
    "final_E_centroids": 0.0,
    "final_E_total": 5.792840808792321e-06
  }
]