[
  {
    "mask_number": 1,
    "image_num": 5,
    "contour_noise": false,
    "canny": true,
    "generate_random": false,
    "all_edges_good": true,
    "is_vertical": "False",
    "edges_control": [
      1,
      0,
      1,
      1
    ],
    "no_canny": "False",
    "box_dimensions": [
      0.396,
      0.2,
      0.205
    ],
    "final_weights": [
      0.19999999999999998,
      0.6,
      0.19999999999999998,
      0.0
    ],
    "cntr_line_weights": [
      0.25,
      0.25,
      0.25,
      0.25
    ],
    "canny_seg_weights": [
      0.7,
      0.30000000000000004
    ],
    "init_params": [
      1.0,
      0.0,
      1.0,
      6.123233995736766e-17,
      1.0,
      1.0,
      -1.0,
      1.2246467991473532e-16,
      1.0,
      -1.8369701987210297e-16,
      -1.0,
      1.0,
      1.0,
      0.0,
      0.0,
      0.0,
      0.1879562123631425,
      0.1128218474670021,
      0.4862044504803934,
      0.0,
      0.0,
      -1.0,
      0.4862044504803934
    ],
    "final_loss": 0.4478026249966736,
    "time_duration": 3.416116200038232,
    "optimized_parameters": [
      -0.015742862547863067,
      0.9998760734605243,
      -0.40964810261027407,
      -0.8078684908506688,
      -0.5893627927607695,
      -0.5043098878549654,
      0.0031583695695430445,
      -0.9999950123388456,
      0.06361340746243119,
      0.9997959474305183,
      0.0202005817209749,
      -0.012736972478631446,
      0.6411041993467664,
      -0.27400126349785664,
      -0.2980912229217309,
      -0.6519588453260836,
      0.19322743860510144,
      0.1031598966849947,
      0.4978642602076207,
      0.024939950210874234,
      -0.7400130228789277,
      -0.6721299910395652,
      0.40615009181736866
    ],
    "final_E_line": 1.866709897272924e-05,
    "final_E_plane": 2.5593970844793745e-06,
    "final_E_pose": 3.878783975393853e-07,
    "final_E_centroids": 0.0,
    "final_E_total": 4.478026249965353e-06
  }
]