[
  {
    "mask_number": 3,
    "image_num": 4,
    "contour_noise": true,
    "canny": true,
    "is_vertical": "False",
    "edges_control": [
      1,
      1,
      1,
      1
    ],
    "no_canny": "False",
    "box_dimensions": [
      0.396,
      0.2,
      0.205
    ],
    "final_weights": [
      0.19999999999999998,
      0.6,
      0.19999999999999998,
      0.0
    ],
    "cntr_line_weights": [
      0.04999999999999999,
      0.04999999999999999,
      0.45,
      0.45
    ],
    "canny_seg_weights": [
      0.7,
      0.30000000000000004
    ],
    "init_params": [
      1.0,
      0.0,
      1.0,
      6.123233995736766e-17,
      1.0,
      1.0,
      -1.0,
      1.2246467991473532e-16,
      1.0,
      -1.8369701987210297e-16,
      -1.0,
      1.0,
      1.0,
      0.0,
      0.0,
      0.0,
      -0.22984785702877142,
      -0.1203898796490585,
      0.8052012754512217,
      0.0,
      0.0,
      -1.0,
      0.8052012754512217
    ],
    "final_loss": 0.569551535270176,
    "time_duration": 1.6831463999697007,
    "optimized_parameters": [
      -0.008232142696732416,
      0.9999661153393138,
      0.08505619036255326,
      -0.9999998644494524,
      0.0005206748784405619,
      0.038820748776058636,
      0.005081360752595207,
      -0.9999870898031914,
      -0.219977796577207,
      0.8352666582415719,
      -0.5498450778454333,
      -0.526545703722183,
      0.637666340440928,
      -0.2807351911781715,
      -0.29629579226713676,
      -0.6532826296387605,
      -0.22935862515725092,
      -0.1276525634232045,
      0.8140380260635216,
      0.011076846367102825,
      -0.745160539118914,
      -0.6667931271501343,
      0.45021388968506965
    ],
    "final_E_line": 2.5434047140501464e-05,
    "final_E_plane": 2.639664394362397e-06,
    "final_E_pose": 1.3462173146756357e-07,
    "final_E_centroids": 1.4150131331952206e-27,
    "final_E_total": 5.69551534585331e-06
  }
]