[
  {
    "mask_number": 14,
    "image_num": 3,
    "contour_noise": false,
    "canny": false,
    "generate_random": false,
    "all_edges_good": true,
    "is_vertical": "True",
    "edges_control": [
      0,
      0,
      0,
      0
    ],
    "no_canny": "True",
    "box_dimensions": [
      0.296,
      0.154,
      0.221
    ],
    "final_weights": [
      0.19999999999999998,
      0.6,
      0.19999999999999998,
      0.0
    ],
    "cntr_line_weights": [
      0.25,
      0.25,
      0.25,
      0.25
    ],
    "canny_seg_weights": [
      0.7,
      0.30000000000000004
    ],
    "init_params": [
      1.0,
      0.0,
      1.0,
      6.123233995736766e-17,
      1.0,
      1.0,
      -1.0,
      1.2246467991473532e-16,
      1.0,
      -1.8369701987210297e-16,
      -1.0,
      1.0,
      1.0,
      0.0,
      0.0,
      0.0,
      0.29053855868546125,
      -0.5020258791445131,
      1.2092374297065538,
      0.0,
      0.0,
      -1.0,
      1.2092374297065538
    ],
    "final_loss": 0.29319685138777307,
    "time_duration": 1.9449907999951392,
    "optimized_parameters": [
      -0.0016323520893620743,
      0.999998667713152,
      0.3778107501900593,
      -0.8330689198653928,
      -0.5531692098850921,
      -0.492466168731668,
      0.002364982148126791,
      -0.9999972034266068,
      -0.4600405246721241,
      0.9316973115458876,
      0.3632356255552848,
      0.3259155144241267,
      0.6455968825934475,
      -0.2950556898807585,
      -0.28990877163992884,
      -0.6419499273166154,
      0.30445617479234455,
      -0.5206278460787254,
      1.2303640688771098,
      -0.004493712072650563,
      -0.7531878796746411,
      -0.6577901066933408,
      0.41855887991250945
    ],
    "final_E_line": 6.936625657041486e-06,
    "final_E_plane": 7.58346550778638e-06,
    "final_E_pose": 4.6583802698113714e-08,
    "final_E_centroids": 0.0,
    "final_E_total": 2.931968514584441e-06
  }
]