[
  {
    "mask_number": 15,
    "image_num": 7,
    "contour_noise": false,
    "canny": true,
    "generate_random": false,
    "all_edges_good": true,
    "is_vertical": "False",
    "edges_control": [
      1,
      0,
      1,
      1
    ],
    "no_canny": "False",
    "final_weights": [
      0.19999999999999998,
      0.6,
      0.19999999999999998,
      0.0
    ],
    "cntr_line_weights": [
      0.25,
      0.25,
      0.25,
      0.25
    ],
    "canny_seg_weights": [
      0.7,
      0.30000000000000004
    ],
    "init_params": [
      1.0,
      0.0,
      1.0,
      6.123233995736766e-17,
      1.0,
      1.0,
      -1.0,
      1.2246467991473532e-16,
      1.0,
      -1.8369701987210297e-16,
      -1.0,
      1.0,
      1.0,
      0.0,
      0.0,
      0.0,
      0.08647064350591384,
      -0.4111973743708546,
      0.9951774051309369,
      0.0,
      0.0,
      -1.0,
      0.9951774051309369,
      0.1,
      0.1
    ],
    "final_loss": 1.2639163012440933,
    "time_duration": 2.361220899998443,
    "optimized_parameters": [
      0.00996419456822696,
      0.9999503561811641,
      0.3787647749843789,
      -0.8901861839130473,
      -0.45559692489442455,
      -0.35034493930795324,
      -0.01221106668085204,
      -0.999925442145924,
      -0.4504303061388868,
      0.9994643686957461,
      0.03272576528876928,
      -0.003096563609678315,
      0.6351784481456831,
      -0.2907944250839749,
      -0.3095943691587714,
      -0.6450877986264357,
      0.08260593074627073,
      -0.41828095644177266,
      1.0035877746654327,
      0.018119470432568164,
      -0.7688437605339824,
      -0.6391799094772428,
      0.3183836778163163,
      0.1988845417778147,
      0.22384474890789977
    ],
    "final_E_line": 1.654635100523705e-06,
    "final_E_plane": 1.263916301289914e-05,
    "final_E_pose": 0.0,
    "final_E_centroids": 0.0099641945682269,
    "final_E_total": 0.999950356181164
  }
]