[
  {
    "mask_number": 7,
    "image_num": 4,
    "contour_noise": false,
    "canny": true,
    "is_vertical": "True",
    "edges_control": [
      1,
      1,
      1,
      1
    ],
    "no_canny": "False",
    "box_dimensions": [
      0.396,
      0.2,
      0.205
    ],
    "final_weights": [
      0.3333333333333333,
      0.3333333333333333,
      0.3333333333333333,
      0.0
    ],
    "cntr_line_weights": [
      0.25,
      0.25,
      0.25,
      0.25
    ],
    "canny_seg_weights": [
      0.7,
      0.30000000000000004
    ],
    "init_params": [
      1.0,
      0.0,
      1.0,
      6.123233995736766e-17,
      1.0,
      1.0,
      -1.0,
      1.2246467991473532e-16,
      1.0,
      -1.8369701987210297e-16,
      -1.0,
      1.0,
      1.0,
      0.0,
      0.0,
      0.0,
      0.0503720689735057,
      -0.4381467371760998,
      1.142152978617797,
      0.0,
      0.0,
      -1.0,
      1.142152978617797
    ],
    "final_loss": 1.0785203248712336,
    "time_duration": 1.1629068999900483,
    "optimized_parameters": [
      -0.008266980927601787,
      0.9999658279293064,
      0.3248533799967821,
      -0.9602393046855816,
      -0.279178218593463,
      -0.2309333824401963,
      0.005386684396623745,
      -0.9999854917103732,
      -0.45800271099328643,
      0.9994859953864034,
      -0.03205846263821956,
      -0.05862982057892731,
      0.6417469709277571,
      -0.27791058653595196,
      -0.28526079348656946,
      -0.6554027852364627,
      0.04619998998857724,
      -0.4708284300875295,
      1.1774849183309815,
      0.0018437388487984006,
      -0.7306179727517295,
      -0.6827839911122854,
      0.45988696846916505
    ],
    "final_E_line": 1.625283730794161e-05,
    "final_E_plane": 1.5607629360629416e-05,
    "final_E_pose": 4.951431828446728e-07,
    "final_E_centroids": 0.0,
    "final_E_total": 1.0785203283805233e-05
  }
]