[
  {
    "mask_number": 18,
    "image_num": 3,
    "contour_noise": false,
    "canny": false,
    "generate_random": false,
    "all_edges_good": true,
    "is_vertical": "False",
    "edges_control": [
      0,
      0,
      0,
      0
    ],
    "no_canny": "True",
    "box_dimensions": [
      0.296,
      0.154,
      0.221
    ],
    "final_weights": [
      0.19999999999999998,
      0.6,
      0.19999999999999998,
      0.0
    ],
    "cntr_line_weights": [
      0.25,
      0.25,
      0.25,
      0.25
    ],
    "canny_seg_weights": [
      0.7,
      0.30000000000000004
    ],
    "init_params": [
      1.0,
      0.0,
      1.0,
      6.123233995736766e-17,
      1.0,
      1.0,
      -1.0,
      1.2246467991473532e-16,
      1.0,
      -1.8369701987210297e-16,
      -1.0,
      1.0,
      1.0,
      0.0,
      0.0,
      0.0,
      -0.21186287669838333,
      -0.5389489469408398,
      1.2493267218352329,
      0.0,
      0.0,
      -1.0,
      1.2493267218352329
    ],
    "final_loss": 0.3691822733019587,
    "time_duration": 9.084073100006208,
    "optimized_parameters": [
      0.038871140963452365,
      0.9992442316073029,
      0.40833382317449035,
      -0.9623212757928197,
      0.27191499090190513,
      0.19136747285492994,
      -0.03879580796740474,
      -0.9992471592576337,
      -0.44378045554818263,
      0.7266965411052612,
      -0.6869586138528613,
      -0.529084421585162,
      0.6478187286513705,
      -0.30005564875876606,
      -0.3142780573842145,
      -0.6257210281778174,
      -0.24510233442496385,
      -0.546690708507445,
      1.2573212869447157,
      0.031688331784986756,
      -0.7820637954953837,
      -0.6223922150907761,
      0.3627668775484108
    ],
    "final_E_line": 1.2292121180257418e-05,
    "final_E_plane": 6.111074440199773e-06,
    "final_E_pose": 1.86393493914296e-08,
    "final_E_centroids": 0.0,
    "final_E_total": 3.691822733726296e-06
  }
]