[
  {
    "mask_number": 17,
    "image_num": 3,
    "contour_noise": false,
    "canny": true,
    "is_vertical": "True",
    "edges_control": [
      0,
      1,
      0,
      0
    ],
    "no_canny": "False",
    "box_dimensions": [
      0.296,
      0.154,
      0.221
    ],
    "final_weights": [
      0.3333333333333333,
      0.3333333333333333,
      0.3333333333333333,
      0.0
    ],
    "cntr_line_weights": [
      0.25,
      0.25,
      0.25,
      0.25
    ],
    "canny_seg_weights": [
      0.7,
      0.30000000000000004
    ],
    "init_params": [
      1.0,
      0.0,
      1.0,
      6.123233995736766e-17,
      1.0,
      1.0,
      -1.0,
      1.2246467991473532e-16,
      1.0,
      -1.8369701987210297e-16,
      -1.0,
      1.0,
      1.0,
      0.0,
      0.0,
      0.0,
      -0.0146949565946161,
      -0.5429919307076544,
      1.2577998797734482,
      0.0,
      0.0,
      -1.0,
      1.2577998797734482
    ],
    "final_loss": 1.2910405934536946,
    "time_duration": 2.7392489000048954,
    "optimized_parameters": [
      -0.005349021412832662,
      0.9999856938856342,
      0.39090365236827834,
      -0.9851309782810793,
      -0.17180499316057563,
      -0.12377446403826826,
      0.004165446243374581,
      -0.9999913245002214,
      -0.467246179190991,
      0.9959082728750674,
      -0.09036986235525292,
      -0.11121909715383702,
      0.6354034046316173,
      -0.29216092882590905,
      -0.30000338840587515,
      -0.6487699684775285,
      -0.01394590234580086,
      -0.5444762868397166,
      1.259025050842608,
      0.0021557472324420595,
      -0.760546367795145,
      -0.6492800437366277,
      0.40339044129266405
    ],
    "final_E_line": 2.4207887316673168e-05,
    "final_E_plane": 1.3457364881115463e-05,
    "final_E_pose": 1.0659656058426605e-06,
    "final_E_centroids": 0.0,
    "final_E_total": 1.2910405934543764e-05
  }
]