[
  {
    "mask_number": 9,
    "image_num": 5,
    "contour_noise": false,
    "canny": true,
    "generate_random": false,
    "all_edges_good": true,
    "is_vertical": "False",
    "edges_control": [
      1,
      1,
      1,
      1
    ],
    "no_canny": "False",
    "box_dimensions": [
      0.396,
      0.2,
      0.205
    ],
    "final_weights": [
      0.19999999999999998,
      0.6,
      0.19999999999999998,
      0.0
    ],
    "cntr_line_weights": [
      0.25,
      0.25,
      0.25,
      0.25
    ],
    "canny_seg_weights": [
      0.7,
      0.30000000000000004
    ],
    "init_params": [
      1.0,
      0.0,
      1.0,
      6.123233995736766e-17,
      1.0,
      1.0,
      -1.0,
      1.2246467991473532e-16,
      1.0,
      -1.8369701987210297e-16,
      -1.0,
      1.0,
      1.0,
      0.0,
      0.0,
      0.0,
      -0.21484604316500416,
      -0.2835741897608803,
      0.9388574843732945,
      0.0,
      0.0,
      -1.0,
      0.9388574843732945
    ],
    "final_loss": 0.3761059309359261,
    "time_duration": 1.3420449999975972,
    "optimized_parameters": [
      -0.005580704809228202,
      0.9999844277456692,
      0.2600303346612219,
      -0.9999997414747018,
      -0.0007190655106904217,
      0.02396366289743457,
      0.0039783994168976974,
      -0.99999208613773,
      -0.3496590219941846,
      0.8058201151046679,
      -0.5921604023378786,
      -0.5378123592114966,
      0.637705231253171,
      -0.28887138087428066,
      -0.2971352566321973,
      -0.649304245027502,
      -0.22059325488556394,
      -0.2915772602286303,
      0.948827414480595,
      0.0038386296324868156,
      -0.7542918818389566,
      -0.65652800543083,
      0.4038442005823251
    ],
    "final_E_line": 1.44384048143252e-05,
    "final_E_plane": 3.835812351195469e-06,
    "final_E_pose": 1.7702646049801317e-07,
    "final_E_centroids": 0.0,
    "final_E_total": 3.761059309402942e-06
  }
]