[
  {
    "mask_number": 8,
    "image_num": 5,
    "contour_noise": false,
    "canny": true,
    "generate_random": false,
    "all_edges_good": false,
    "is_vertical": "False",
    "edges_control": [
      1,
      1,
      1,
      1
    ],
    "no_canny": "False",
    "box_dimensions": [
      0.396,
      0.2,
      0.205
    ],
    "final_weights": [
      0.19999999999999998,
      0.6,
      0.19999999999999998,
      0.0
    ],
    "cntr_line_weights": [
      0.45,
      0.04999999999999999,
      0.04999999999999999,
      0.45
    ],
    "canny_seg_weights": [
      0.7,
      0.30000000000000004
    ],
    "init_params": [
      1.0,
      0.0,
      1.0,
      6.123233995736766e-17,
      1.0,
      1.0,
      -1.0,
      1.2246467991473532e-16,
      1.0,
      -1.8369701987210297e-16,
      -1.0,
      1.0,
      1.0,
      0.0,
      0.0,
      0.0,
      0.16795900183976986,
      -0.29290659294556504,
      0.9530101084095167,
      0.0,
      0.0,
      -1.0,
      0.9530101084095167
    ],
    "final_loss": 0.7160716643751305,
    "time_duration": 8.547037300013471,
    "optimized_parameters": [
      -0.01663696527342708,
      0.9998615961169455,
      0.25808496780787593,
      -0.8052498176975216,
      -0.5929356888454878,
      -0.500360727649054,
      0.015811495810704644,
      -0.9998749904866544,
      -0.34852658164920275,
      0.9999736384712397,
      0.007261017782790919,
      -0.019411337363461192,
      0.6368069735717331,
      -0.29146186514232203,
      -0.2915949552991883,
      -0.6515360631790541,
      0.17709105910740358,
      -0.29677724503948716,
      0.9576704403720561,
      -0.008416387753664505,
      -0.7511790274956012,
      -0.6600448720117975,
      0.41066305806501263
    ],
    "final_E_line": 3.3477240980562414e-05,
    "final_E_plane": 2.22368402035952e-06,
    "final_E_pose": 3.421940265520151e-08,
    "final_E_centroids": 0.0,
    "final_E_total": 7.160716641777507e-06
  }
]