[
  {
    "mask_number": 39,
    "image_num": 7,
    "contour_noise": false,
    "canny": true,
    "generate_random": false,
    "all_edges_good": true,
    "is_vertical": "False",
    "edges_control": [
      1,
      1,
      0,
      1
    ],
    "no_canny": "False",
    "final_weights": [
      0.19999999999999998,
      0.6,
      0.19999999999999998,
      0.0
    ],
    "cntr_line_weights": [
      0.25,
      0.25,
      0.25,
      0.25
    ],
    "canny_seg_weights": [
      0.7,
      0.30000000000000004
    ],
    "init_params": [
      1.0,
      0.0,
      1.0,
      6.123233995736766e-17,
      1.0,
      1.0,
      -1.0,
      1.2246467991473532e-16,
      1.0,
      -1.8369701987210297e-16,
      -1.0,
      1.0,
      1.0,
      0.0,
      0.0,
      0.0,
      1.5924139416130036,
      -0.3082801410031083,
      1.4971122935786163,
      0.0,
      0.0,
      -1.0,
      1.4971122935786163,
      0.1,
      0.1
    ],
    "final_loss": 50.485743072551976,
    "time_duration": 16.06601270000101,
    "optimized_parameters": [
      -0.0020997678109355472,
      -1.0000999893103846,
      -0.1957996287526965,
      0.08865205358895543,
      0.9961596662553709,
      0.28106555345878087,
      -0.9579718934772222,
      -0.28709061045680867,
      -1.007743954524925,
      -0.7604960853158282,
      -0.6494679071786035,
      -0.8816740667393814,
      0.5405017570913606,
      0.3439380980171726,
      0.757106003745609,
      -0.12838251649118135,
      0.31736897423259164,
      -0.06165531585204793,
      0.319548493997254,
      0.28131578073256414,
      0.954648244019609,
      -0.10045682254168274,
      0.00184711641030825,
      0.005,
      0.005
    ],
    "final_E_line": 0.0009246816876386,
    "final_E_plane": 0.0005048559689345,
    "final_E_pose": 0.0,
    "final_E_centroids": -0.0020997678109355,
    "final_E_total": -1.0000999893103846
  }
]