[
  {
    "mask_number": 3,
    "image_num": 4,
    "contour_noise": false,
    "canny": true,
    "is_vertical": "False",
    "edges_control": [
      1,
      1,
      1,
      1
    ],
    "no_canny": "False",
    "box_dimensions": [
      0.396,
      0.2,
      0.205
    ],
    "final_weights": [
      0.19999999999999998,
      0.6,
      0.19999999999999998,
      0.0
    ],
    "cntr_line_weights": [
      0.25,
      0.25,
      0.25,
      0.25
    ],
    "canny_seg_weights": [
      0.7,
      0.30000000000000004
    ],
    "init_params": [
      1.0,
      0.0,
      1.0,
      6.123233995736766e-17,
      1.0,
      1.0,
      -1.0,
      1.2246467991473532e-16,
      1.0,
      -1.8369701987210297e-16,
      -1.0,
      1.0,
      1.0,
      0.0,
      0.0,
      0.0,
      -0.2306282317225666,
      -0.12088908708671656,
      0.8057142296226162,
      0.0,
      0.0,
      -1.0,
      0.8057142296226162
    ],
    "final_loss": 0.39283415036187186,
    "time_duration": 1.6610389999696054,
    "optimized_parameters": [
      -0.01473065161237198,
      0.9998914980652114,
      0.08376128255972047,
      -0.9999982300273984,
      -0.001881473391611061,
      0.042213278779213666,
      0.010788157396733543,
      -0.9999418061367448,
      -0.22100226795072203,
      0.8421793486748003,
      -0.5391975006115223,
      -0.5305476650513369,
      0.6371560427563077,
      -0.2783150229441171,
      -0.29231196114185004,
      -0.6566023473580839,
      -0.23216428478027004,
      -0.12586773661340697,
      0.8121147041640948,
      0.007012064321287309,
      -0.7385256219910153,
      -0.6741889472668473,
      0.4561901726235034
    ],
    "final_E_line": 1.5541298041065768e-05,
    "final_E_plane": 3.366283516329348e-06,
    "final_E_pose": 2.447086535557383e-07,
    "final_E_centroids": 0.0,
    "final_E_total": 3.928341503612465e-06
  }
]