[
  {
    "mask_number": 21,
    "image_num": 7,
    "contour_noise": false,
    "canny": true,
    "generate_random": false,
    "all_edges_good": true,
    "is_vertical": "False",
    "edges_control": [
      1,
      0,
      1,
      0
    ],
    "no_canny": "False",
    "final_weights": [
      0.19999999999999998,
      0.6,
      0.19999999999999998,
      0.0
    ],
    "cntr_line_weights": [
      0.25,
      0.25,
      0.25,
      0.25
    ],
    "canny_seg_weights": [
      0.7,
      0.30000000000000004
    ],
    "init_params": [
      1.0,
      0.0,
      1.0,
      6.123233995736766e-17,
      1.0,
      1.0,
      -1.0,
      1.2246467991473532e-16,
      1.0,
      -1.8369701987210297e-16,
      -1.0,
      1.0,
      1.0,
      0.0,
      0.0,
      0.0,
      0.2605464946109193,
      -0.5622080096207892,
      1.1787521855215986,
      0.0,
      0.0,
      -1.0,
      1.1787521855215986,
      0.1,
      0.1
    ],
    "final_loss": 2.895526335561747,
    "time_duration": 7.588431500000297,
    "optimized_parameters": [
      0.09628769419655915,
      0.9953535464307911,
      0.48030005431428646,
      0.034458245503312813,
      0.9994061401304791,
      0.4939410339426949,
      0.011098172517986435,
      0.999938415852879,
      0.49851886416808555,
      -0.05392871612105438,
      -0.9985447916096788,
      -0.48990012991262794,
      0.8185662804677521,
      -0.5735044112094052,
      -0.02010585465135695,
      0.025274611979503477,
      -0.23964662276796228,
      -0.6431736554345979,
      1.284595067483044,
      -0.019319928158863447,
      -0.747943514338309,
      -0.6634811749187285,
      0.36661682594769274,
      0.00500000000000267,
      0.005000000000001282
    ],
    "final_E_line": 1.3002665632982202e-06,
    "final_E_plane": 2.895526511506403e-05,
    "final_E_pose": 0.0,
    "final_E_centroids": 0.0962876941965591,
    "final_E_total": 0.9953535464307912
  }
]