[
  {
    "mask_number": 7,
    "image_num": 3,
    "contour_noise": false,
    "canny": true,
    "is_vertical": "False",
    "edges_control": [
      1,
      1,
      1,
      1
    ],
    "no_canny": "False",
    "box_dimensions": [
      0.296,
      0.154,
      0.221
    ],
    "final_weights": [
      0.19999999999999998,
      0.6,
      0.19999999999999998,
      0.0
    ],
    "cntr_line_weights": [
      0.25,
      0.25,
      0.25,
      0.25
    ],
    "canny_seg_weights": [
      0.7,
      0.30000000000000004
    ],
    "init_params": [
      1.0,
      0.0,
      1.0,
      6.123233995736766e-17,
      1.0,
      1.0,
      -1.0,
      1.2246467991473532e-16,
      1.0,
      -1.8369701987210297e-16,
      -1.0,
      1.0,
      1.0,
      0.0,
      0.0,
      0.0,
      -0.23823042503649292,
      -0.019181767471222303,
      0.647502548781542,
      0.0,
      0.0,
      -1.0,
      0.647502548781542
    ],
    "final_loss": 0.22793590787015025,
    "time_duration": 1.377667199994903,
    "optimized_parameters": [
      0.004605741578412681,
      0.9999893935161487,
      -0.048782533234251746,
      -0.9843023695246587,
      0.17649035483183564,
      0.15020999059409101,
      -0.003787212330915775,
      -0.9999928284859035,
      -0.10397899385828573,
      0.8178472077942154,
      -0.5754354392191489,
      -0.5104920106001846,
      0.6472880958971415,
      -0.2896693941044307,
      -0.2881753412141248,
      -0.6434786210541849,
      -0.24312919898174093,
      -0.023422717410144414,
      0.652635744229298,
      0.00027305605290237295,
      -0.7458688629408454,
      -0.6660927598688621,
      0.4173120313947689
    ],
    "final_E_line": 9.168366389111304e-06,
    "final_E_plane": 1.9061060279076627e-06,
    "final_E_pose": 1.0744099394791765e-07,
    "final_E_centroids": 0.0,
    "final_E_total": 2.2793590797725445e-06
  }
]