[
  {
    "mask_number": 7,
    "image_num": 3,
    "contour_noise": false,
    "canny": false,
    "generate_random": false,
    "all_edges_good": true,
    "is_vertical": "False",
    "edges_control": [
      0,
      0,
      0,
      0
    ],
    "no_canny": "True",
    "box_dimensions": [
      0.296,
      0.154,
      0.221
    ],
    "final_weights": [
      0.19999999999999998,
      0.6,
      0.19999999999999998,
      0.0
    ],
    "cntr_line_weights": [
      0.25,
      0.25,
      0.25,
      0.25
    ],
    "canny_seg_weights": [
      0.7,
      0.30000000000000004
    ],
    "init_params": [
      1.0,
      0.0,
      1.0,
      6.123233995736766e-17,
      1.0,
      1.0,
      -1.0,
      1.2246467991473532e-16,
      1.0,
      -1.8369701987210297e-16,
      -1.0,
      1.0,
      1.0,
      0.0,
      0.0,
      0.0,
      -0.23765375957657334,
      -0.019268952465087294,
      0.647619975160481,
      0.0,
      0.0,
      -1.0,
      0.647619975160481
    ],
    "final_loss": 0.18873091111160778,
    "time_duration": 1.1812342000193894,
    "optimized_parameters": [
      0.010526065112096271,
      0.9999445994421433,
      -0.05004107561449073,
      -0.9794938262825695,
      0.20147417769210618,
      0.15343235091299542,
      -0.006852374439093222,
      -0.9999765222068073,
      -0.10230542990122643,
      0.804661535828636,
      -0.5937337894696586,
      -0.5043930457250818,
      0.6494313900144478,
      -0.29570657670007805,
      -0.2874931574023993,
      -0.6388616239905192,
      -0.24496936672374367,
      -0.023606426640229508,
      0.6531647747085759,
      -0.0044169755184703145,
      -0.751418772876528,
      -0.6598108199300092,
      0.41214486204317047
    ],
    "final_E_line": 6.989486138644111e-06,
    "final_E_plane": 1.97884076316202e-06,
    "final_E_pose": 1.56072884600452e-07,
    "final_E_centroids": 0.0,
    "final_E_total": 1.8873091111214967e-06
  }
]