[
  {
    "mask_number": 17,
    "image_num": 3,
    "contour_noise": false,
    "canny": false,
    "generate_random": false,
    "all_edges_good": true,
    "is_vertical": "True",
    "edges_control": [
      0,
      0,
      0,
      0
    ],
    "no_canny": "True",
    "box_dimensions": [
      0.296,
      0.154,
      0.221
    ],
    "final_weights": [
      0.19999999999999998,
      0.6,
      0.19999999999999998,
      0.0
    ],
    "cntr_line_weights": [
      0.25,
      0.25,
      0.25,
      0.25
    ],
    "canny_seg_weights": [
      0.7,
      0.30000000000000004
    ],
    "init_params": [
      1.0,
      0.0,
      1.0,
      6.123233995736766e-17,
      1.0,
      1.0,
      -1.0,
      1.2246467991473532e-16,
      1.0,
      -1.8369701987210297e-16,
      -1.0,
      1.0,
      1.0,
      0.0,
      0.0,
      0.0,
      -0.012765977378006417,
      -0.5426501261088968,
      1.2572350078354557,
      0.0,
      0.0,
      -1.0,
      1.2572350078354557
    ],
    "final_loss": 0.810083905621096,
    "time_duration": 1.5803434000117704,
    "optimized_parameters": [
      -0.007858810223261495,
      0.9999691190741246,
      0.390924535671198,
      -0.9848423788615243,
      -0.17345169009953212,
      -0.12528241409435703,
      0.006829538157009017,
      -0.999976678432335,
      -0.4672709358108484,
      0.9946107475107818,
      -0.10367960713729879,
      -0.11606743365920434,
      0.6358729777958063,
      -0.2932494846231381,
      -0.2982859229852603,
      -0.648610672149476,
      -0.012956654240614046,
      -0.5442325102203507,
      1.258481783711802,
      -0.001065646082371491,
      -0.7598816910422186,
      -0.6500605202727393,
      0.40452319924563257
    ],
    "final_E_line": 2.5978116439090508e-05,
    "final_E_plane": 1.4066913708632986e-05,
    "final_E_pose": 1.5305504440392925e-07,
    "final_E_centroids": 0.0,
    "final_E_total": 8.100839056187057e-06
  }
]