[
  {
    "mask_number": 3,
    "image_num": 3,
    "contour_noise": false,
    "canny": true,
    "is_vertical": "False",
    "edges_control": [
      1,
      1,
      1,
      1
    ],
    "no_canny": "False",
    "box_dimensions": [
      0.296,
      0.154,
      0.221
    ],
    "final_weights": [
      0.3333333333333333,
      0.3333333333333333,
      0.3333333333333333,
      0.0
    ],
    "cntr_line_weights": [
      0.25,
      0.25,
      0.25,
      0.25
    ],
    "canny_seg_weights": [
      0.7,
      0.30000000000000004
    ],
    "init_params": [
      1.0,
      0.0,
      1.0,
      6.123233995736766e-17,
      1.0,
      1.0,
      -1.0,
      1.2246467991473532e-16,
      1.0,
      -1.8369701987210297e-16,
      -1.0,
      1.0,
      1.0,
      0.0,
      0.0,
      0.0,
      -0.23732602223206167,
      0.08632896012840939,
      0.5313725792644183,
      0.0,
      0.0,
      -1.0,
      0.5313725792644183
    ],
    "final_loss": 0.8974076295463118,
    "time_duration": 1.1978084000002127,
    "optimized_parameters": [
      0.018877180155417873,
      0.9998218101588808,
      -0.2893989868403276,
      -0.9843197500560678,
      0.17639339457474135,
      0.14653713412391034,
      -0.012972509021527514,
      -0.9999158534645333,
      0.053581946858068254,
      0.8287022921479356,
      -0.5596896559602031,
      -0.5165318575945422,
      0.6557789587234504,
      -0.2774478819672345,
      -0.2785538981157744,
      -0.6445031853544363,
      -0.2417510630312513,
      0.08166590414494021,
      0.5367817354100936,
      0.007707501144433755,
      -0.7229466716818647,
      -0.6908608429563242,
      0.4317448827657311
    ],
    "final_E_line": 2.0621691670290197e-05,
    "final_E_plane": 4.8893142085646125e-06,
    "final_E_pose": 1.4112230101243643e-06,
    "final_E_centroids": 0.0,
    "final_E_total": 8.97407629632639e-06
  }
]