[
  {
    "mask_number": 14,
    "image_num": 6,
    "contour_noise": false,
    "canny": true,
    "generate_random": false,
    "all_edges_good": true,
    "is_vertical": "False",
    "edges_control": [
      1,
      1,
      1,
      1
    ],
    "no_canny": "False",
    "final_weights": [
      0.19999999999999998,
      0.6,
      0.19999999999999998,
      0.0
    ],
    "cntr_line_weights": [
      0.25,
      0.25,
      0.25,
      0.25
    ],
    "canny_seg_weights": [
      0.7,
      0.30000000000000004
    ],
    "init_params": [
      1.0,
      0.0,
      1.0,
      6.123233995736766e-17,
      1.0,
      1.0,
      -1.0,
      1.2246467991473532e-16,
      1.0,
      -1.8369701987210297e-16,
      -1.0,
      1.0,
      1.0,
      0.0,
      0.0,
      0.0,
      -0.9521250269475907,
      -0.5631255512001928,
      1.1853283833441997,
      0.0,
      0.0,
      -1.0,
      1.1853283833441997,
      0.15,
      0.15
    ],
    "final_loss": 5.630658183836622,
    "time_duration": 13.455264699994586,
    "optimized_parameters": [
      0.1193494413667609,
      0.9928558475407906,
      0.36612075628156815,
      -0.06145566288148889,
      0.9981118687742969,
      0.514236592662087,
      -0.005768841572670875,
      -0.9999836527335638,
      -0.48931758937999814,
      0.05543248346610252,
      -0.998464597255911,
      -0.5217853017363776,
      0.7944094813807788,
      -0.48200913198696105,
      -0.17439829410432484,
      -0.3258345662175676,
      -0.706862533316474,
      -0.5310557904684196,
      1.100937915632013,
      -0.0368091263258285,
      -0.8795397501577674,
      -0.4744051995567434,
      0.02922181685455281,
      0.5,
      0.36673953275159527
    ],
    "final_E_line": 0.0001061434841009,
    "final_E_plane": 5.6306583512874696e-05,
    "final_E_pose": 0.0,
    "final_E_centroids": 0.1193494413667609,
    "final_E_total": 0.9928558475407906
  }
]