[
  {
    "mask_number": 12,
    "image_num": 3,
    "contour_noise": false,
    "canny": true,
    "is_vertical": "True",
    "edges_control": [
      0,
      1,
      0,
      1
    ],
    "no_canny": "False",
    "box_dimensions": [
      0.296,
      0.154,
      0.221
    ],
    "final_weights": [
      0.3333333333333333,
      0.3333333333333333,
      0.3333333333333333,
      0.0
    ],
    "cntr_line_weights": [
      0.25,
      0.25,
      0.25,
      0.25
    ],
    "canny_seg_weights": [
      0.7,
      0.30000000000000004
    ],
    "init_params": [
      1.0,
      0.0,
      1.0,
      6.123233995736766e-17,
      1.0,
      1.0,
      -1.0,
      1.2246467991473532e-16,
      1.0,
      -1.8369701987210297e-16,
      -1.0,
      1.0,
      1.0,
      0.0,
      0.0,
      0.0,
      -0.013061568122930883,
      -0.3319027287529117,
      1.0060573587038906,
      0.0,
      0.0,
      -1.0,
      1.0060573587038906
    ],
    "final_loss": 0.3939711779402005,
    "time_duration": 2.1681286999955773,
    "optimized_parameters": [
      0.004695309929922479,
      0.999988976971667,
      0.2680047309157254,
      -0.9948761571160905,
      -0.10110109793121763,
      -0.09611070009375018,
      -0.004018625170757485,
      -0.9999919252934402,
      -0.38977420747882324,
      0.9847229162042588,
      -0.1741286257408674,
      -0.14735315519174744,
      0.6467293235611212,
      -0.29032390243112394,
      -0.2902999197625224,
      -0.642790144844564,
      -0.014083967972404295,
      -0.3409344694449834,
      1.0158516350902098,
      0.0022563422027248492,
      -0.7487258683820484,
      -0.6628759182047143,
      0.41814892611032134
    ],
    "final_E_line": 8.302421600359036e-06,
    "final_E_plane": 2.9628128194784832e-06,
    "final_E_pose": 5.539009179821166e-07,
    "final_E_centroids": 0.0,
    "final_E_total": 3.939711779273212e-06
  }
]