[
  {
    "mask_number": 3,
    "image_num": 3,
    "contour_noise": false,
    "canny": true,
    "is_vertical": "False",
    "edges_control": [
      1,
      1,
      1,
      1
    ],
    "no_canny": "False",
    "box_dimensions": [
      0.296,
      0.154,
      0.221
    ],
    "final_weights": [
      0.19999999999999998,
      0.6,
      0.19999999999999998,
      0.0
    ],
    "cntr_line_weights": [
      0.25,
      0.25,
      0.25,
      0.25
    ],
    "canny_seg_weights": [
      0.7,
      0.30000000000000004
    ],
    "init_params": [
      1.0,
      0.0,
      1.0,
      6.123233995736766e-17,
      1.0,
      1.0,
      -1.0,
      1.2246467991473532e-16,
      1.0,
      -1.8369701987210297e-16,
      -1.0,
      1.0,
      1.0,
      0.0,
      0.0,
      0.0,
      -0.23836306580649905,
      0.08550071321637688,
      0.5320383556650407,
      0.0,
      0.0,
      -1.0,
      0.5320383556650407
    ],
    "final_loss": 0.5449820767289343,
    "time_duration": 1.9777620999957435,
    "optimized_parameters": [
      0.017735101215839266,
      0.9998427207240601,
      -0.28883231917252894,
      -0.9839845151475187,
      0.17825395914258127,
      0.14585621770964322,
      -0.013506087953352636,
      -0.9999087886343426,
      0.05383124994552579,
      0.8267645659333754,
      -0.5625480890706122,
      -0.5151101730193383,
      0.6556931388054026,
      -0.2802455693013723,
      -0.2774649651371639,
      -0.6438494557984078,
      -0.24203137497327257,
      0.08164759071877173,
      0.536801420504555,
      0.002991847326278149,
      -0.724801484863546,
      -0.6889512728699967,
      0.4297324522353506
    ],
    "final_E_line": 2.124279577936508e-05,
    "final_E_plane": 5.29027675463981e-06,
    "final_E_pose": 2.386771007929276e-07,
    "final_E_centroids": 0.0,
    "final_E_total": 5.449820767276734e-06
  }
]