[
  {
    "mask_number": 10,
    "image_num": 4,
    "contour_noise": true,
    "canny": true,
    "is_vertical": "False",
    "edges_control": [
      0,
      0,
      1,
      0
    ],
    "no_canny": "False",
    "box_dimensions": [
      0.396,
      0.2,
      0.205
    ],
    "final_weights": [
      0.19999999999999998,
      0.6,
      0.19999999999999998,
      0.0
    ],
    "cntr_line_weights": [
      0.3214285714285714,
      0.3214285714285714,
      0.3214285714285714,
      0.035714285714285705
    ],
    "canny_seg_weights": [
      0.7,
      0.30000000000000004
    ],
    "init_params": [
      1.0,
      0.0,
      1.0,
      6.123233995736766e-17,
      1.0,
      1.0,
      -1.0,
      1.2246467991473532e-16,
      1.0,
      -1.8369701987210297e-16,
      -1.0,
      1.0,
      1.0,
      0.0,
      0.0,
      0.0,
      -0.24187448523245209,
      -0.5158958421960864,
      1.2234615580941222,
      0.0,
      0.0,
      -1.0,
      1.2234615580941222
    ],
    "final_loss": 0.7526097091941734,
    "time_duration": 2.887442099978216,
    "optimized_parameters": [
      -0.0039979408389942,
      0.999992008202966,
      0.39978193725742933,
      -0.9989350221684282,
      0.04613915355631554,
      0.06933643337151257,
      0.0029103934100782954,
      -0.9999957647965146,
      -0.4561177712147678,
      0.8110645250330435,
      -0.5849566960332856,
      -0.5510359891166263,
      0.6395913439890917,
      -0.2832060306626607,
      -0.29192845759853125,
      -0.6522998026482139,
      -0.260001988156692,
      -0.5322138844499827,
      1.2408387495272823,
      0.0039593240812570586,
      -0.7431217843911351,
      -0.669144481645445,
      0.4358301130600982
    ],
    "final_E_line": 3.276154481738844e-05,
    "final_E_plane": 4.458337026069758e-06,
    "final_E_pose": 1.3686787209187368e-07,
    "final_E_centroids": 2.0988837938573205e-18,
    "final_E_total": 7.526097091946764e-06
  }
]