[
  {
    "mask_number": 19,
    "image_num": 3,
    "contour_noise": false,
    "canny": false,
    "generate_random": false,
    "all_edges_good": true,
    "is_vertical": "False",
    "edges_control": [
      0,
      0,
      0,
      0
    ],
    "no_canny": "True",
    "box_dimensions": [
      0.296,
      0.154,
      0.221
    ],
    "final_weights": [
      0.19999999999999998,
      0.6,
      0.19999999999999998,
      0.0
    ],
    "cntr_line_weights": [
      0.25,
      0.25,
      0.25,
      0.25
    ],
    "canny_seg_weights": [
      0.7,
      0.30000000000000004
    ],
    "init_params": [
      1.0,
      0.0,
      1.0,
      6.123233995736766e-17,
      1.0,
      1.0,
      -1.0,
      1.2246467991473532e-16,
      1.0,
      -1.8369701987210297e-16,
      -1.0,
      1.0,
      1.0,
      0.0,
      0.0,
      0.0,
      -0.6344797108821684,
      0.3214533449966284,
      0.7796897626237536,
      0.0,
      0.0,
      -1.0,
      0.7796897626237536
    ],
    "final_loss": 19.212364910514793,
    "time_duration": 1.8384057999937795,
    "optimized_parameters": [
      -0.1271920081710319,
      0.9918781140127725,
      -0.3754850310087209,
      -0.9028060898333651,
      0.4300478626386477,
      0.46000176504460166,
      0.21844011435354044,
      -0.9758503555572846,
      0.12519155245731323,
      0.8476593922749646,
      -0.5305408134049147,
      -0.5653811769404878,
      0.6058872863435815,
      -0.3860118738728211,
      -0.10310131096486927,
      -0.6879429839411454,
      -0.6482992467710585,
      0.310576679091323,
      0.8001226455947895,
      -0.40617274880932885,
      -0.6096149508406494,
      -0.680729983059729,
      0.4706781834968364
    ],
    "final_E_line": 0.0004973996797706,
    "final_E_plane": 0.0004518989419436,
    "final_E_pose": 3.773207937158228e-06,
    "final_E_centroids": 0.0,
    "final_E_total": 0.0001921236491051
  }
]