[
  {
    "mask_number": 1,
    "image_num": 5,
    "contour_noise": false,
    "canny": true,
    "generate_random": false,
    "all_edges_good": false,
    "is_vertical": "False",
    "edges_control": [
      1,
      0,
      1,
      1
    ],
    "no_canny": "False",
    "box_dimensions": [
      0.396,
      0.2,
      0.205
    ],
    "final_weights": [
      0.19999999999999998,
      0.6,
      0.19999999999999998,
      0.0
    ],
    "cntr_line_weights": [
      0.25,
      0.25,
      0.25,
      0.25
    ],
    "canny_seg_weights": [
      0.7,
      0.30000000000000004
    ],
    "init_params": [
      1.0,
      0.0,
      1.0,
      6.123233995736766e-17,
      1.0,
      1.0,
      -1.0,
      1.2246467991473532e-16,
      1.0,
      -1.8369701987210297e-16,
      -1.0,
      1.0,
      1.0,
      0.0,
      0.0,
      0.0,
      0.1881950056152121,
      0.11282241297229852,
      0.486218161611667,
      0.0,
      0.0,
      -1.0,
      0.486218161611667
    ],
    "final_loss": 0.44791797240896414,
    "time_duration": 7.005870299995877,
    "optimized_parameters": [
      -0.015744507506432345,
      0.9998760475595905,
      -0.4096478172399403,
      -0.8078618211080341,
      -0.5893719351954384,
      -0.5042971463064093,
      0.0031491609024798545,
      -0.9999950413805115,
      0.06361105052177696,
      0.9997956310202444,
      0.0202162358720109,
      -0.012736941208090515,
      0.6411025706188505,
      -0.27398999711210975,
      -0.29810500266800144,
      -0.6519588812285098,
      0.19323023599548203,
      0.10316029793543292,
      0.4978663724210984,
      0.02497135222120869,
      -0.74001576686184,
      -0.6721258039713667,
      0.40614387383986306
    ],
    "final_E_line": 1.866195988342169e-05,
    "final_E_plane": 2.5730621463420883e-06,
    "final_E_pose": 3.869589927746779e-07,
    "final_E_centroids": 0.0,
    "final_E_total": 4.4791798016175625e-06
  }
]