[
  {
    "mask_number": 11,
    "image_num": 6,
    "contour_noise": false,
    "canny": true,
    "generate_random": false,
    "all_edges_good": true,
    "is_vertical": "False",
    "edges_control": [
      1,
      1,
      1,
      1
    ],
    "no_canny": "False",
    "final_weights": [
      0.19999999999999998,
      0.6,
      0.19999999999999998,
      0.0
    ],
    "cntr_line_weights": [
      0.25,
      0.25,
      0.25,
      0.25
    ],
    "canny_seg_weights": [
      0.7,
      0.30000000000000004
    ],
    "init_params": [
      1.0,
      0.0,
      1.0,
      6.123233995736766e-17,
      1.0,
      1.0,
      -1.0,
      1.2246467991473532e-16,
      1.0,
      -1.8369701987210297e-16,
      -1.0,
      1.0,
      1.0,
      0.0,
      0.0,
      0.0,
      -1.173211671207746,
      -0.5559264001411193,
      1.170456342196003,
      0.0,
      0.0,
      -1.0,
      1.170456342196003,
      0.1,
      0.1
    ],
    "final_loss": 7.6377009107849805,
    "time_duration": 13.243666999995185,
    "optimized_parameters": [
      0.0641863068057792,
      -0.9979380371421465,
      -0.5411546658511647,
      -0.09612144297204732,
      0.9953698294781982,
      0.5702412348446907,
      -0.04923127087260948,
      -0.9987938542934178,
      -0.4330587046438579,
      0.0696105074521643,
      -0.9975743068010913,
      -0.5459782600046181,
      -0.0035055488928837485,
      0.3777509188917136,
      -0.3742389820192793,
      0.8478721486007849,
      -0.11865613668849209,
      -0.06016681538025119,
      0.12514424353492398,
      0.057136868312299735,
      0.8780709707551592,
      0.47510736848358676,
      0.00019908337131258476,
      0.005,
      0.018192833349910658
    ],
    "final_E_line": 0.000103423627428,
    "final_E_plane": 7.637700777503893e-05,
    "final_E_pose": 0.0,
    "final_E_centroids": 0.0641863068057792,
    "final_E_total": -0.9979380371421464
  }
]