[
  {
    "mask_number": 13,
    "image_num": 7,
    "contour_noise": false,
    "canny": true,
    "generate_random": false,
    "all_edges_good": true,
    "is_vertical": "False",
    "edges_control": [
      1,
      1,
      1,
      1
    ],
    "no_canny": "False",
    "final_weights": [
      0.19999999999999998,
      0.6,
      0.19999999999999998,
      0.0
    ],
    "cntr_line_weights": [
      0.25,
      0.25,
      0.25,
      0.25
    ],
    "canny_seg_weights": [
      0.7,
      0.30000000000000004
    ],
    "init_params": [
      1.0,
      0.0,
      1.0,
      6.123233995736766e-17,
      1.0,
      1.0,
      -1.0,
      1.2246467991473532e-16,
      1.0,
      -1.8369701987210297e-16,
      -1.0,
      1.0,
      1.0,
      0.0,
      0.0,
      0.0,
      -0.3107813769720046,
      -0.40887298353540125,
      0.9981884974042742,
      0.0,
      0.0,
      -1.0,
      0.9981884974042742,
      0.1,
      0.1
    ],
    "final_loss": 1.2344016822406636,
    "time_duration": 1.7572387000036542,
    "optimized_parameters": [
      -0.030565433782606635,
      0.9995327679766426,
      0.3814374530164227,
      -0.8924731946063732,
      0.45110042885052076,
      0.3818194325699462,
      0.030831214455666136,
      -0.9995246051081315,
      -0.45785103170596475,
      0.7060867930521384,
      -0.7081253001252038,
      -0.5888492798532442,
      0.6310284100573291,
      -0.3094506548438062,
      -0.296648917135154,
      -0.6465623387424678,
      -0.32271083599165884,
      -0.4175347971044834,
      1.0092758534041477,
      -0.02577049740099359,
      -0.7741483190318531,
      -0.6324794554806068,
      0.3067959680550045,
      0.20752300590262615,
      0.25058457570807824
    ],
    "final_E_line": 2.6761286961123674e-06,
    "final_E_plane": 1.2344016822886494e-05,
    "final_E_pose": 0.0,
    "final_E_centroids": -0.0305654337826066,
    "final_E_total": 0.9995327679766426
  }
]