[
  {
    "mask_number": 8,
    "image_num": 3,
    "contour_noise": false,
    "canny": false,
    "generate_random": false,
    "all_edges_good": true,
    "is_vertical": "False",
    "edges_control": [
      0,
      0,
      0,
      0
    ],
    "no_canny": "True",
    "box_dimensions": [
      0.296,
      0.154,
      0.221
    ],
    "final_weights": [
      0.19999999999999998,
      0.6,
      0.19999999999999998,
      0.0
    ],
    "cntr_line_weights": [
      0.25,
      0.25,
      0.25,
      0.25
    ],
    "canny_seg_weights": [
      0.7,
      0.30000000000000004
    ],
    "init_params": [
      1.0,
      0.0,
      1.0,
      6.123233995736766e-17,
      1.0,
      1.0,
      -1.0,
      1.2246467991473532e-16,
      1.0,
      -1.8369701987210297e-16,
      -1.0,
      1.0,
      1.0,
      0.0,
      0.0,
      0.0,
      -0.23392948259909066,
      -0.3243010035759901,
      0.9901911652063989,
      0.0,
      0.0,
      -1.0,
      0.9901911652063989
    ],
    "final_loss": 0.370049115550124,
    "time_duration": 1.5734011000022292,
    "optimized_parameters": [
      0.007627609290437386,
      0.9999709093654806,
      0.29350508706256473,
      -0.994550620180032,
      0.10425480276494048,
      0.1272825243763965,
      -0.009965018115859132,
      -0.9999503479749263,
      -0.3566245472556659,
      0.8371448596170468,
      -0.5469812464953736,
      -0.509687057566763,
      0.6368744507888028,
      -0.28183573849237004,
      -0.30467009768234904,
      -0.6497196949604666,
      -0.24096243764498265,
      -0.3270147621512419,
      0.9937806222442627,
      0.021844507522142387,
      -0.7548883062300387,
      -0.6554894832173492,
      0.4098168370934356
    ],
    "final_E_line": 1.0995017545923502e-05,
    "final_E_plane": 6.696376587821711e-06,
    "final_E_pose": 2.703538812536835e-07,
    "final_E_centroids": 0.0,
    "final_E_total": 3.7004911555012527e-06
  }
]