[
  {
    "mask_number": 3,
    "image_num": 5,
    "contour_noise": false,
    "canny": true,
    "generate_random": false,
    "all_edges_good": false,
    "is_vertical": "False",
    "edges_control": [
      1,
      1,
      1,
      1
    ],
    "no_canny": "False",
    "box_dimensions": [
      0.396,
      0.2,
      0.205
    ],
    "final_weights": [
      0.19999999999999998,
      0.6,
      0.19999999999999998,
      0.0
    ],
    "cntr_line_weights": [
      0.3333333333333333,
      0.3333333333333333,
      0.0,
      0.3333333333333333
    ],
    "canny_seg_weights": [
      0.7,
      0.30000000000000004
    ],
    "init_params": [
      1.0,
      0.0,
      1.0,
      6.123233995736766e-17,
      1.0,
      1.0,
      -1.0,
      1.2246467991473532e-16,
      1.0,
      -1.8369701987210297e-16,
      -1.0,
      1.0,
      1.0,
      0.0,
      0.0,
      0.0,
      -0.22059072580603076,
      -0.1513881983254711,
      0.7854729517257932,
      0.0,
      0.0,
      -1.0,
      0.7854729517257932
    ],
    "final_loss": 0.5470958007776436,
    "time_duration": 1.702798999962397,
    "optimized_parameters": [
      -0.0177893015550189,
      0.9998417578548495,
      0.1333685958250216,
      -0.9999222749314487,
      0.012467722850791884,
      0.027654858183785217,
      0.017045607588897803,
      -0.9998547130768526,
      -0.2613730921000017,
      0.8017717440848099,
      -0.5976303794167662,
      -0.5362628052049242,
      0.6373382276663048,
      -0.2942056740694369,
      -0.2912282996246077,
      -0.649945445711816,
      -0.21760658661091112,
      -0.15762605241689384,
      0.7932710831219006,
      -0.01121348572271788,
      -0.7535826523231239,
      -0.6572575171578053,
      0.4001590212064728
    ],
    "final_E_line": 2.3495194140091e-05,
    "final_E_plane": 3.505320643474741e-06,
    "final_E_pose": 1.1809175278160903e-07,
    "final_E_centroids": 0.0,
    "final_E_total": 5.470958008382114e-06
  }
]