[
  {
    "mask_number": 1,
    "image_num": 3,
    "contour_noise": false,
    "canny": true,
    "is_vertical": "True",
    "edges_control": [
      1,
      1,
      1,
      1
    ],
    "no_canny": "False",
    "box_dimensions": [
      0.296,
      0.154,
      0.221
    ],
    "final_weights": [
      0.19999999999999998,
      0.6,
      0.19999999999999998,
      0.0
    ],
    "cntr_line_weights": [
      0.25,
      0.25,
      0.25,
      0.25
    ],
    "canny_seg_weights": [
      0.7,
      0.30000000000000004
    ],
    "init_params": [
      1.0,
      0.0,
      1.0,
      6.123233995736766e-17,
      1.0,
      1.0,
      -1.0,
      1.2246467991473532e-16,
      1.0,
      -1.8369701987210297e-16,
      -1.0,
      1.0,
      1.0,
      0.0,
      0.0,
      0.0,
      0.2934811591559175,
      0.08991118566204957,
      0.5466833429389957,
      0.0,
      0.0,
      -1.0,
      0.5466833429389957
    ],
    "final_loss": 0.19613007703170868,
    "time_duration": 1.8966370999696665,
    "optimized_parameters": [
      0.01392137015727173,
      0.9999030930313019,
      -0.3635648352150385,
      -0.846486143128351,
      -0.5324107526085015,
      -0.4899210855748821,
      -0.021690198265318452,
      -0.9997647399760504,
      -0.0541194864824563,
      0.9367429327822479,
      0.3500181107939088,
      0.3220863791533313,
      0.6514450081460821,
      -0.27305954245189146,
      -0.2928567929131122,
      -0.644432142651657,
      0.2975622801778156,
      0.07045191580619035,
      0.5676243098224439,
      0.029623694917880663,
      -0.7332192120949806,
      -0.6793467624963746,
      0.42845554401405517
    ],
    "final_E_line": 8.289106447824586e-06,
    "final_E_plane": 1.2540871464516557e-06,
    "final_E_pose": 8.777009512970557e-08,
    "final_E_centroids": 0.0,
    "final_E_total": 1.961300775933072e-06
  }
]