[
  {
    "mask_number": 8,
    "image_num": 4,
    "contour_noise": false,
    "canny": true,
    "is_vertical": "True",
    "edges_control": [
      1,
      1,
      1,
      1
    ],
    "no_canny": "False",
    "box_dimensions": [
      0.396,
      0.2,
      0.205
    ],
    "final_weights": [
      0.3333333333333333,
      0.3333333333333333,
      0.3333333333333333,
      0.0
    ],
    "cntr_line_weights": [
      0.25,
      0.25,
      0.25,
      0.25
    ],
    "canny_seg_weights": [
      0.7,
      0.30000000000000004
    ],
    "init_params": [
      1.0,
      0.0,
      1.0,
      6.123233995736766e-17,
      1.0,
      1.0,
      -1.0,
      1.2246467991473532e-16,
      1.0,
      -1.8369701987210297e-16,
      -1.0,
      1.0,
      1.0,
      0.0,
      0.0,
      0.0,
      0.23607780862212338,
      -0.4312339610274826,
      1.13221520243801,
      0.0,
      0.0,
      -1.0,
      1.13221520243801
    ],
    "final_loss": 1.2807049579131695,
    "time_duration": 1.629846900003031,
    "optimized_parameters": [
      -0.006282888260067727,
      0.9999802624627782,
      0.32472467772759006,
      -0.8482915613721508,
      -0.5295294391304752,
      -0.4602620258106177,
      0.0047515344443437475,
      -0.999988711396496,
      -0.45578661388240627,
      0.9577288204140108,
      0.28767256829531207,
      0.23354905717156674,
      0.6403704486728433,
      -0.2803928847036886,
      -0.2885398982481492,
      -0.6542554896927683,
      0.2448569008360263,
      -0.46904979006650854,
      1.1740092284529045,
      0.0026475656649353673,
      -0.7366682353264292,
      -0.6762491415574396,
      0.44774039853501185
    ],
    "final_E_line": 1.6349646492973578e-05,
    "final_E_plane": 2.140614797194789e-05,
    "final_E_pose": 6.653542542271032e-07,
    "final_E_centroids": 0.0,
    "final_E_total": 1.2807049573049522e-05
  }
]