[
  {
    "mask_number": 4,
    "image_num": 6,
    "contour_noise": false,
    "canny": false,
    "generate_random": false,
    "all_edges_good": true,
    "is_vertical": "False",
    "edges_control": [
      0,
      0,
      0,
      0
    ],
    "no_canny": "True",
    "box_dimensions": [
      0.387,
      0.22,
      0.213
    ],
    "final_weights": [
      0.19999999999999998,
      0.6,
      0.19999999999999998,
      0.0
    ],
    "cntr_line_weights": [
      0.25,
      0.25,
      0.25,
      0.25
    ],
    "canny_seg_weights": [
      0.7,
      0.30000000000000004
    ],
    "init_params": [
      1.0,
      0.0,
      1.0,
      6.123233995736766e-17,
      1.0,
      1.0,
      -1.0,
      1.2246467991473532e-16,
      1.0,
      -1.8369701987210297e-16,
      -1.0,
      1.0,
      1.0,
      0.0,
      0.0,
      0.0,
      -0.6531566095696024,
      -0.16082102110903443,
      0.7505111950204111,
      0.0,
      0.0,
      -1.0,
      0.7505111950204111
    ],
    "final_loss": 4.063363526530309,
    "time_duration": 1.8844399000081467,
    "optimized_parameters": [
      -0.02856101631499938,
      0.9995920509623206,
      0.17376464955840623,
      -0.5938219163294367,
      0.8045965024077819,
      0.5793683643685262,
      0.06233108373841179,
      -0.9980555275133738,
      -0.3329287643581339,
      0.46213860711888427,
      -0.8868077062194613,
      -0.6799464971176082,
      0.6725461465057037,
      -0.35904165781580655,
      -0.22717940525220734,
      -0.6059375269798881,
      -0.6696301583232399,
      -0.17136849125516024,
      0.7688284618311554,
      -0.12953635548618864,
      -0.7582570758694728,
      -0.6389573847301959,
      0.27456581438596905
    ],
    "final_E_line": 8.947769220789942e-05,
    "final_E_plane": 0.0001122113029004,
    "final_E_pose": 4.930604060117551e-07,
    "final_E_centroids": 0.0,
    "final_E_total": 4.063363526528157e-05
  }
]