[
  {
    "mask_number": 10,
    "image_num": 4,
    "contour_noise": false,
    "canny": true,
    "is_vertical": "False",
    "edges_control": [
      0,
      0,
      1,
      1
    ],
    "no_canny": "False",
    "box_dimensions": [
      0.396,
      0.2,
      0.205
    ],
    "final_weights": [
      0.19999999999999998,
      0.6,
      0.19999999999999998,
      0.0
    ],
    "cntr_line_weights": [
      0.25,
      0.25,
      0.25,
      0.25
    ],
    "canny_seg_weights": [
      0.7,
      0.30000000000000004
    ],
    "init_params": [
      1.0,
      0.0,
      1.0,
      6.123233995736766e-17,
      1.0,
      1.0,
      -1.0,
      1.2246467991473532e-16,
      1.0,
      -1.8369701987210297e-16,
      -1.0,
      1.0,
      1.0,
      0.0,
      0.0,
      0.0,
      -0.242562770611668,
      -0.5162894993183658,
      1.2238363889726047,
      0.0,
      0.0,
      -1.0,
      1.2238363889726047
    ],
    "final_loss": 0.318537387435043,
    "time_duration": 2.984025500016287,
    "optimized_parameters": [
      -0.015087985332411173,
      0.9998861698706556,
      0.40200542555889507,
      -0.9931676192572187,
      0.11669652976439383,
      0.09372387781838355,
      0.016081562287383454,
      -0.9998706833157965,
      -0.4583758242794146,
      0.7904054598705352,
      -0.6125840424030404,
      -0.5457607870754337,
      0.6459258937488652,
      -0.2943142277632627,
      -0.2806298853739323,
      -0.646069456448662,
      -0.25172430500121395,
      -0.5334364119805101,
      1.244103034321413,
      -0.017762636279241333,
      -0.7428231233923295,
      -0.6692520422875728,
      0.4318983207234753
    ],
    "final_E_line": 1.0063082622079454e-05,
    "final_E_plane": 5.182214443174768e-06,
    "final_E_pose": 2.271907688326421e-07,
    "final_E_centroids": 0.0,
    "final_E_total": 3.18537387435043e-06
  }
]