[
  {
    "mask_number": 10,
    "image_num": 5,
    "contour_noise": false,
    "canny": true,
    "generate_random": false,
    "all_edges_good": false,
    "is_vertical": "False",
    "edges_control": [
      1,
      1,
      1,
      1
    ],
    "no_canny": "False",
    "box_dimensions": [
      0.396,
      0.2,
      0.205
    ],
    "final_weights": [
      0.19999999999999998,
      0.6,
      0.19999999999999998,
      0.0
    ],
    "cntr_line_weights": [
      0.3333333333333333,
      0.3333333333333333,
      0.0,
      0.3333333333333333
    ],
    "canny_seg_weights": [
      0.7,
      0.30000000000000004
    ],
    "init_params": [
      1.0,
      0.0,
      1.0,
      6.123233995736766e-17,
      1.0,
      1.0,
      -1.0,
      1.2246467991473532e-16,
      1.0,
      -1.8369701987210297e-16,
      -1.0,
      1.0,
      1.0,
      0.0,
      0.0,
      0.0,
      -0.22068147308473754,
      -0.4486235847894568,
      1.1281433694135141,
      0.0,
      0.0,
      -1.0,
      1.1281433694135141
    ],
    "final_loss": 0.39338281958778426,
    "time_duration": 1.551195399952121,
    "optimized_parameters": [
      0.0034183278281209603,
      0.9999941575010837,
      0.34564314910057603,
      -0.9991318627394292,
      0.04165958318372314,
      0.04330048377861641,
      -0.003890129121707386,
      -0.9999924334201079,
      -0.41360948788415564,
      0.7843043535758422,
      -0.6203762414607839,
      -0.5431239976655055,
      0.6435302604973309,
      -0.29021239813054406,
      -0.29433551653602397,
      -0.6442143831845367,
      -0.2278202952221453,
      -0.4189324711817146,
      1.0946000328834171,
      0.004909595948708519,
      -0.7527514096199782,
      -0.6582865722358575,
      0.40632699837902675
    ],
    "final_E_line": 1.652329279727629e-05,
    "final_E_plane": 2.849423442828761e-06,
    "final_E_pose": 9.880824730202757e-08,
    "final_E_centroids": 0.0,
    "final_E_total": 3.933828196402227e-06
  }
]