[
  {
    "mask_number": 19,
    "image_num": 3,
    "contour_noise": false,
    "canny": true,
    "is_vertical": "False",
    "edges_control": [
      1,
      1,
      1,
      1
    ],
    "no_canny": "False",
    "box_dimensions": [
      0.296,
      0.154,
      0.221
    ],
    "final_weights": [
      0.3333333333333333,
      0.3333333333333333,
      0.3333333333333333,
      0.0
    ],
    "cntr_line_weights": [
      0.25,
      0.25,
      0.25,
      0.25
    ],
    "canny_seg_weights": [
      0.7,
      0.30000000000000004
    ],
    "init_params": [
      1.0,
      0.0,
      1.0,
      6.123233995736766e-17,
      1.0,
      1.0,
      -1.0,
      1.2246467991473532e-16,
      1.0,
      -1.8369701987210297e-16,
      -1.0,
      1.0,
      1.0,
      0.0,
      0.0,
      0.0,
      -0.6352381447563111,
      0.32153626963769155,
      0.7795383572968051,
      0.0,
      0.0,
      -1.0,
      0.7795383572968051
    ],
    "final_loss": 39.31154387423277,
    "time_duration": 2.035604200005764,
    "optimized_parameters": [
      -0.09315940371796266,
      0.9956512067480985,
      -0.40058231706840763,
      -0.9085004644273939,
      0.417883842874194,
      0.4792051653829056,
      0.22051533890058614,
      -0.9753835067856989,
      0.12318775217136026,
      0.8524776579732839,
      -0.5227636585077369,
      -0.5693476296996641,
      0.609639208652116,
      -0.3885055586330654,
      -0.08129496193110358,
      -0.6861447335291992,
      -0.6525889537549001,
      0.30998907996641295,
      0.8028930582051891,
      -0.43402091459081216,
      -0.5852566709295931,
      -0.6849090996842085,
      0.44809469709066296
    ],
    "final_E_line": 0.0006447445048938,
    "final_E_plane": 0.0004974706254104,
    "final_E_pose": 3.713118592269585e-05,
    "final_E_centroids": 0.0,
    "final_E_total": 0.0003931154387423
  }
]