[
  {
    "mask_number": 17,
    "image_num": 3,
    "contour_noise": false,
    "canny": true,
    "is_vertical": "True",
    "edges_control": [
      0,
      1,
      0,
      0
    ],
    "no_canny": "False",
    "box_dimensions": [
      0.296,
      0.154,
      0.221
    ],
    "final_weights": [
      0.3333333333333333,
      0.3333333333333333,
      0.3333333333333333,
      0.0
    ],
    "cntr_line_weights": [
      0.25,
      0.25,
      0.25,
      0.25
    ],
    "canny_seg_weights": [
      0.7,
      0.30000000000000004
    ],
    "init_params": [
      1.0,
      0.0,
      1.0,
      6.123233995736766e-17,
      1.0,
      1.0,
      -1.0,
      1.2246467991473532e-16,
      1.0,
      -1.8369701987210297e-16,
      -1.0,
      1.0,
      1.0,
      0.0,
      0.0,
      0.0,
      -0.012883002449641023,
      -0.5431211674756556,
      1.2578164170720572,
      0.0,
      0.0,
      -1.0,
      1.2578164170720572
    ],
    "final_loss": 1.2863656993769,
    "time_duration": 2.0436839000030886,
    "optimized_parameters": [
      -0.007636061842895875,
      0.9999708448547545,
      0.3908683806596675,
      -0.985247803806362,
      -0.17113376374854086,
      -0.12351135986342943,
      0.00659199230072537,
      -0.9999782725827145,
      -0.46733689111321786,
      0.9958771996253696,
      -0.09071164901120334,
      -0.11137303539252139,
      0.6351831075891073,
      -0.2927928243334428,
      -0.29907437510147733,
      -0.6491296480749956,
      -0.013967894748341564,
      -0.5443907176926124,
      1.258791880160964,
      -0.00018675665149160605,
      -0.7602302053129244,
      -0.6496537539734716,
      0.4039140026984387
    ],
    "final_E_line": 2.3818873817001163e-05,
    "final_E_plane": 1.3719059558236308e-05,
    "final_E_pose": 1.053037605983392e-06,
    "final_E_centroids": 0.0,
    "final_E_total": 1.2863656993740283e-05
  }
]