[
  {
    "mask_number": 6,
    "image_num": 3,
    "contour_noise": false,
    "canny": true,
    "is_vertical": "True",
    "edges_control": [
      1,
      1,
      0,
      1
    ],
    "no_canny": "False",
    "box_dimensions": [
      0.296,
      0.154,
      0.221
    ],
    "final_weights": [
      0.3333333333333333,
      0.3333333333333333,
      0.3333333333333333,
      0.0
    ],
    "cntr_line_weights": [
      0.25,
      0.25,
      0.25,
      0.25
    ],
    "canny_seg_weights": [
      0.7,
      0.30000000000000004
    ],
    "init_params": [
      1.0,
      0.0,
      1.0,
      6.123233995736766e-17,
      1.0,
      1.0,
      -1.0,
      1.2246467991473532e-16,
      1.0,
      -1.8369701987210297e-16,
      -1.0,
      1.0,
      1.0,
      0.0,
      0.0,
      0.0,
      -0.016037426367701828,
      -0.12756126406621138,
      0.7724450536620608,
      0.0,
      0.0,
      -1.0,
      0.7724450536620608
    ],
    "final_loss": 0.20707355959590096,
    "time_duration": 1.374595799978124,
    "optimized_parameters": [
      0.02877492225438908,
      0.9995859161919293,
      0.057661547618789874,
      -0.9969775686100782,
      -0.0776899458640668,
      -0.09101081076702291,
      -0.023768498213639657,
      -0.9997174893402002,
      -0.26745654982535566,
      0.9819220585531797,
      -0.18928568600624782,
      -0.15104360998305846,
      0.654965013483727,
      -0.28127597551756045,
      -0.28879073979622905,
      -0.6391436186936921,
      -0.01627432583095183,
      -0.13962681087107195,
      0.7853748935606126,
      0.018744156016449524,
      -0.7376093569395095,
      -0.6749674756390346,
      0.42741752404535377
    ],
    "final_E_line": 4.559738050655791e-06,
    "final_E_plane": 1.3026575247305927e-06,
    "final_E_pose": 3.498112151922692e-07,
    "final_E_centroids": 0.0,
    "final_E_total": 2.0707355968595507e-06
  }
]