[
  {
    "mask_number": 9,
    "image_num": 6,
    "contour_noise": false,
    "canny": true,
    "generate_random": false,
    "all_edges_good": true,
    "is_vertical": "False",
    "edges_control": [
      1,
      1,
      0,
      1
    ],
    "no_canny": "False",
    "final_weights": [
      0.19999999999999998,
      0.6,
      0.19999999999999998,
      0.0
    ],
    "cntr_line_weights": [
      0.25,
      0.25,
      0.25,
      0.25
    ],
    "canny_seg_weights": [
      0.7,
      0.30000000000000004
    ],
    "init_params": [
      1.0,
      0.0,
      1.0,
      6.123233995736766e-17,
      1.0,
      1.0,
      -1.0,
      1.2246467991473532e-16,
      1.0,
      -1.8369701987210297e-16,
      -1.0,
      1.0,
      1.0,
      0.0,
      0.0,
      0.0,
      0.1625544548703009,
      -0.21841184589670815,
      0.8789245241077841,
      0.0,
      0.0,
      -1.0,
      0.8789245241077841,
      0.1,
      0.1
    ],
    "final_loss": 19.475308809311002,
    "time_duration": 6.690741500002332,
    "optimized_parameters": [
      0.21872996518769783,
      0.9757854284262574,
      0.2222810429832203,
      -0.02931046829408999,
      0.9995703559271777,
      0.2403561995679601,
      0.2431526541117339,
      -0.9699880343583882,
      -0.2437920278003318,
      0.9980526273570766,
      -0.06237750416325143,
      -0.04929226668068259,
      -0.2613411218286228,
      -0.6395362379468832,
      0.6614384735329611,
      -0.2918790231048755,
      -0.03597707708991974,
      -0.2048672793218366,
      0.8568491283666044,
      0.0276118347401913,
      -0.720397096742155,
      -0.693011983725935,
      0.4472143244451628,
      0.012936105071697084,
      0.005930919958709175
    ],
    "final_E_line": 1.5432470750048697e-06,
    "final_E_plane": 0.0001947530880931,
    "final_E_pose": 0.0,
    "final_E_centroids": 0.2187299651876978,
    "final_E_total": 0.9757854284262574
  }
]