[
  {
    "mask_number": 12,
    "image_num": 7,
    "contour_noise": false,
    "canny": true,
    "generate_random": false,
    "all_edges_good": true,
    "is_vertical": "False",
    "edges_control": [
      1,
      1,
      1,
      1
    ],
    "no_canny": "False",
    "final_weights": [
      0.19999999999999998,
      0.6,
      0.19999999999999998,
      0.0
    ],
    "cntr_line_weights": [
      0.25,
      0.25,
      0.25,
      0.25
    ],
    "canny_seg_weights": [
      0.7,
      0.30000000000000004
    ],
    "init_params": [
      1.0,
      0.0,
      1.0,
      6.123233995736766e-17,
      1.0,
      1.0,
      -1.0,
      1.2246467991473532e-16,
      1.0,
      -1.8369701987210297e-16,
      -1.0,
      1.0,
      1.0,
      0.0,
      0.0,
      0.0,
      -0.11487105014404302,
      -0.41683868693447057,
      1.0044865485297754,
      0.0,
      0.0,
      -1.0,
      1.0044865485297754,
      0.1,
      0.1
    ],
    "final_loss": 1.0777758882041475,
    "time_duration": 1.713697700004559,
    "optimized_parameters": [
      -0.010678492145427494,
      0.9999429832784693,
      0.377158569341269,
      -0.9992631379942327,
      0.03838204067116009,
      0.03368115205126436,
      0.011170084179711073,
      -0.9999376126647823,
      -0.4528085521835331,
      0.8872213460069277,
      -0.46134399659054803,
      -0.3835801621036475,
      0.6383106387473902,
      -0.3036377774305325,
      -0.29720609602031894,
      -0.6418973166073977,
      -0.11803019420517595,
      -0.4213099364586481,
      1.009919989458194,
      -0.01038891762787662,
      -0.7691820272794534,
      -0.63894528662673,
      0.3199933905232257,
      0.20046205418607124,
      0.23878114265068198
    ],
    "final_E_line": 1.4619928766171672e-06,
    "final_E_plane": 1.0777758882043793e-05,
    "final_E_pose": 0.0,
    "final_E_centroids": -0.0106784921454274,
    "final_E_total": 0.9999429832784692
  }
]