[
  {
    "mask_number": 7,
    "image_num": 7,
    "contour_noise": false,
    "canny": true,
    "generate_random": false,
    "all_edges_good": true,
    "is_vertical": "False",
    "edges_control": [
      1,
      1,
      1,
      1
    ],
    "no_canny": "False",
    "final_weights": [
      0.19999999999999998,
      0.6,
      0.19999999999999998,
      0.0
    ],
    "cntr_line_weights": [
      0.25,
      0.25,
      0.25,
      0.25
    ],
    "canny_seg_weights": [
      0.7,
      0.30000000000000004
    ],
    "init_params": [
      1.0,
      0.0,
      1.0,
      6.123233995736766e-17,
      1.0,
      1.0,
      -1.0,
      1.2246467991473532e-16,
      1.0,
      -1.8369701987210297e-16,
      -1.0,
      1.0,
      1.0,
      0.0,
      0.0,
      0.0,
      -0.29939948590873616,
      -0.25002998527904047,
      0.8073172285513025,
      0.0,
      0.0,
      -1.0,
      0.8073172285513025,
      0.1,
      0.1
    ],
    "final_loss": 1.3356537576444656,
    "time_duration": 3.083552600000985,
    "optimized_parameters": [
      -0.0019527707273529445,
      0.9999980933414255,
      0.24617725121982204,
      -0.883738299265795,
      0.4679814295576271,
      0.3843718999593524,
      0.004417029420441289,
      -0.9999902448779683,
      -0.3775635512740338,
      0.7063423537975022,
      -0.7078703830729212,
      -0.5883084834255878,
      0.6429851810064283,
      -0.30194671676357304,
      -0.29438113509851216,
      -0.639326195724797,
      -0.32051872034986334,
      -0.261839655340405,
      0.8215788943327591,
      -0.007519603232602403,
      -0.7647057521939248,
      -0.644335757294866,
      0.3267321896301923,
      0.20473095126599175,
      0.2640136399950463
    ],
    "final_E_line": 2.3009533645359502e-06,
    "final_E_plane": 1.3356537577489795e-05,
    "final_E_pose": 0.0,
    "final_E_centroids": -0.0019527828841434,
    "final_E_total": 0.9999980933176876
  }
]