[
  {
    "mask_number": 14,
    "image_num": 3,
    "contour_noise": false,
    "canny": true,
    "is_vertical": "True",
    "edges_control": [
      0,
      0,
      0,
      1
    ],
    "no_canny": "False",
    "box_dimensions": [
      0.296,
      0.154,
      0.221
    ],
    "final_weights": [
      0.3333333333333333,
      0.3333333333333333,
      0.3333333333333333,
      0.0
    ],
    "cntr_line_weights": [
      0.25,
      0.25,
      0.25,
      0.25
    ],
    "canny_seg_weights": [
      0.7,
      0.30000000000000004
    ],
    "init_params": [
      1.0,
      0.0,
      1.0,
      6.123233995736766e-17,
      1.0,
      1.0,
      -1.0,
      1.2246467991473532e-16,
      1.0,
      -1.8369701987210297e-16,
      -1.0,
      1.0,
      1.0,
      0.0,
      0.0,
      0.0,
      0.2922489490906228,
      -0.4951802380031111,
      1.2004273052759051,
      0.0,
      0.0,
      -1.0,
      1.2004273052759051
    ],
    "final_loss": 0.2874147918654476,
    "time_duration": 1.8950407000083942,
    "optimized_parameters": [
      -0.0062009896655600225,
      0.9999807736789943,
      0.37578665049329363,
      -0.842392546514347,
      -0.5388643591656989,
      -0.4891060828542647,
      0.00739111489675857,
      -0.9999726853376962,
      -0.4600067631812168,
      0.9357350052451575,
      0.3527038417130587,
      0.32162312846244834,
      0.6462529172515334,
      -0.29467447194685464,
      -0.2858007671549293,
      -0.6433055603836577,
      0.3032046334610287,
      -0.5200587282060759,
      1.2283231091089328,
      -0.009732262356700126,
      -0.7485829131941986,
      -0.6629697618625585,
      0.42798488698179865
    ],
    "final_E_line": 3.963787867369884e-06,
    "final_E_plane": 4.432912865698039e-06,
    "final_E_pose": 2.2574302289561925e-07,
    "final_E_centroids": 0.0,
    "final_E_total": 2.874147918654514e-06
  }
]