[
  {
    "mask_number": 5,
    "image_num": 3,
    "contour_noise": false,
    "canny": true,
    "is_vertical": "True",
    "edges_control": [
      1,
      1,
      0,
      1
    ],
    "no_canny": "False",
    "box_dimensions": [
      0.296,
      0.154,
      0.221
    ],
    "final_weights": [
      0.19999999999999998,
      0.6,
      0.19999999999999998,
      0.0
    ],
    "cntr_line_weights": [
      0.25,
      0.25,
      0.25,
      0.25
    ],
    "canny_seg_weights": [
      0.7,
      0.30000000000000004
    ],
    "init_params": [
      1.0,
      0.0,
      1.0,
      6.123233995736766e-17,
      1.0,
      1.0,
      -1.0,
      1.2246467991473532e-16,
      1.0,
      -1.8369701987210297e-16,
      -1.0,
      1.0,
      1.0,
      0.0,
      0.0,
      0.0,
      0.1419562764154872,
      -0.11745251134377513,
      0.7667253136423275,
      0.0,
      0.0,
      -1.0,
      0.7667253136423275
    ],
    "final_loss": 0.1527613480738821,
    "time_duration": 1.399656200024765,
    "optimized_parameters": [
      0.024730248337184083,
      0.9996941606487396,
      0.05710080765834453,
      -0.9417005085106332,
      -0.3364523031662975,
      -0.3178024036188763,
      -0.022788393539171045,
      -0.9997403108479311,
      -0.262246567160953,
      0.9967159009663471,
      0.08097785354136532,
      0.0942377251198561,
      0.6525980743693229,
      -0.2867251284785967,
      -0.29289591400363846,
      -0.6372726556115942,
      0.14044181093992045,
      -0.13328739224760142,
      0.7843355366208943,
      0.016842635937845466,
      -0.7475415223124854,
      -0.6640015045459062,
      0.41879669827406574
    ],
    "final_E_line": 6.893348336244117e-06,
    "final_E_plane": 4.189940129244784e-07,
    "final_E_pose": 1.0857501495027009e-07,
    "final_E_centroids": 0.0,
    "final_E_total": 1.5276134788038817e-06
  }
]