[
  {
    "mask_number": 0,
    "image_num": 4,
    "contour_noise": true,
    "canny": true,
    "is_vertical": "True",
    "edges_control": [
      1,
      1,
      1,
      1
    ],
    "no_canny": "False",
    "box_dimensions": [
      0.396,
      0.2,
      0.205
    ],
    "final_weights": [
      0.19999999999999998,
      0.6,
      0.19999999999999998,
      0.0
    ],
    "cntr_line_weights": [
      0.04999999999999999,
      0.04999999999999999,
      0.45,
      0.45
    ],
    "canny_seg_weights": [
      0.7,
      0.30000000000000004
    ],
    "init_params": [
      1.0,
      0.0,
      1.0,
      6.123233995736766e-17,
      1.0,
      1.0,
      -1.0,
      1.2246467991473532e-16,
      1.0,
      -1.8369701987210297e-16,
      -1.0,
      1.0,
      1.0,
      0.0,
      0.0,
      0.0,
      -0.3148743038307082,
      0.11066819218063872,
      0.5463553036979966,
      0.0,
      0.0,
      -1.0,
      0.5463553036979966
    ],
    "final_loss": 0.6741202873159173,
    "time_duration": 1.8215750000090338,
    "optimized_parameters": [
      -0.05474921942746892,
      0.9985001366910694,
      -0.44456212293251346,
      -0.9623475521293361,
      0.2718219801831271,
      0.331768741949014,
      0.01808114161107768,
      -0.9998365227966318,
      -0.08289353898415959,
      0.8488272350004409,
      -0.5286703369033672,
      -0.5520458136010274,
      0.6287181404185925,
      -0.2686460207877037,
      -0.30494971574633906,
      -0.6629845294497854,
      -0.3242743469733098,
      0.07831147599144062,
      0.5817365700837364,
      0.027238543047132587,
      -0.7421591353141895,
      -0.6696699781552117,
      0.456523867680191
    ],
    "final_E_line": 2.9741079317141995e-05,
    "final_E_plane": 3.66347521266325e-06,
    "final_E_pose": 1.0048661201013077e-07,
    "final_E_centroids": 1.1108504643874553e-22,
    "final_E_total": 6.741202873167127e-06
  }
]