[
  {
    "mask_number": 15,
    "image_num": 3,
    "contour_noise": false,
    "canny": true,
    "is_vertical": "True",
    "edges_control": [
      0,
      1,
      0,
      1
    ],
    "no_canny": "False",
    "box_dimensions": [
      0.296,
      0.154,
      0.221
    ],
    "final_weights": [
      0.3333333333333333,
      0.3333333333333333,
      0.3333333333333333,
      0.0
    ],
    "cntr_line_weights": [
      0.25,
      0.25,
      0.25,
      0.25
    ],
    "canny_seg_weights": [
      0.7,
      0.30000000000000004
    ],
    "init_params": [
      1.0,
      0.0,
      1.0,
      6.123233995736766e-17,
      1.0,
      1.0,
      -1.0,
      1.2246467991473532e-16,
      1.0,
      -1.8369701987210297e-16,
      -1.0,
      1.0,
      1.0,
      0.0,
      0.0,
      0.0,
      0.14689015118473733,
      -0.5126707496616038,
      1.2203498117289286,
      0.0,
      0.0,
      -1.0,
      1.2203498117289286
    ],
    "final_loss": 0.37885395807579153,
    "time_duration": 3.839352400013013,
    "optimized_parameters": [
      0.023164659348614877,
      0.9997316632763327,
      0.3900134098969594,
      -0.9315490616171148,
      -0.36361565670398843,
      -0.32249902482818943,
      -0.021730755401526403,
      -0.9997638592536134,
      -0.46565112569134043,
      0.9968230475235033,
      0.07964805035878385,
      0.08828752266450096,
      0.6485205540677103,
      -0.2945629389616969,
      -0.30083066701015637,
      -0.6341566649718209,
      0.1453976113314463,
      -0.5337936056094064,
      1.2449892385218986,
      0.016591383108177402,
      -0.7636077065491709,
      -0.6454672698946656,
      0.3935785558335714
    ],
    "final_E_line": 8.867810847690435e-06,
    "final_E_plane": 1.5107687046868842e-06,
    "final_E_pose": 9.87039193750739e-07,
    "final_E_centroids": 0.0,
    "final_E_total": 3.788539582042686e-06
  }
]