[
  {
    "mask_number": 26,
    "image_num": 6,
    "contour_noise": false,
    "canny": false,
    "generate_random": false,
    "all_edges_good": true,
    "is_vertical": "False",
    "edges_control": [
      0,
      0,
      0,
      0
    ],
    "no_canny": "True",
    "box_dimensions": [
      0.387,
      0.22,
      0.213
    ],
    "final_weights": [
      0.19999999999999998,
      0.6,
      0.19999999999999998,
      0.0
    ],
    "cntr_line_weights": [
      0.25,
      0.25,
      0.25,
      0.25
    ],
    "canny_seg_weights": [
      0.7,
      0.30000000000000004
    ],
    "init_params": [
      1.0,
      0.0,
      1.0,
      6.123233995736766e-17,
      1.0,
      1.0,
      -1.0,
      1.2246467991473532e-16,
      1.0,
      -1.8369701987210297e-16,
      -1.0,
      1.0,
      1.0,
      0.0,
      0.0,
      0.0,
      -0.21256606053186208,
      -0.06463266435492299,
      0.7058106520551489,
      0.0,
      0.0,
      -1.0,
      0.7058106520551489
    ],
    "final_loss": 0.193300424510992,
    "time_duration": 1.352165700009209,
    "optimized_parameters": [
      0.0005897177026938418,
      0.9999998261165006,
      -0.0045385016009193355,
      -0.9982104222734245,
      0.05979927143968558,
      0.04104481917201706,
      0.001845015283557478,
      -0.9999982979578533,
      -0.1865736198382776,
      0.8194036430977318,
      -0.5732169481777084,
      -0.5281245518668811,
      0.6509045029557895,
      -0.28512541957634974,
      -0.27676652079142366,
      -0.6468594253099359,
      -0.21818592881511759,
      -0.07258743974586156,
      0.7147137024633496,
      -0.008574980904765411,
      -0.7292368948977573,
      -0.6842075860602251,
      0.43420816416983127
    ],
    "final_E_line": 6.624274268512903e-06,
    "final_E_plane": 2.789790631084674e-06,
    "final_E_pose": 8.365210863666328e-08,
    "final_E_centroids": 0.0,
    "final_E_total": 1.933004245101513e-06
  }
]