[
  {
    "mask_number": 0,
    "image_num": 6,
    "contour_noise": false,
    "canny": true,
    "generate_random": false,
    "all_edges_good": true,
    "is_vertical": "False",
    "edges_control": [
      1,
      1,
      1,
      1
    ],
    "no_canny": "False",
    "final_weights": [
      0.19999999999999998,
      0.6,
      0.19999999999999998,
      0.0
    ],
    "cntr_line_weights": [
      0.25,
      0.25,
      0.25,
      0.25
    ],
    "canny_seg_weights": [
      0.7,
      0.30000000000000004
    ],
    "init_params": [
      1.0,
      0.0,
      1.0,
      6.123233995736766e-17,
      1.0,
      1.0,
      -1.0,
      1.2246467991473532e-16,
      1.0,
      -1.8369701987210297e-16,
      -1.0,
      1.0,
      1.0,
      0.0,
      0.0,
      0.0,
      -0.647360599816408,
      -0.04326574881311332,
      0.6199085947003248,
      0.0,
      0.0,
      -1.0,
      0.6199085947003248,
      0.15,
      0.15
    ],
    "final_loss": 1.1919227060431405,
    "time_duration": 3.268837600000552,
    "optimized_parameters": [
      -0.020831883908424987,
      0.9997829927620893,
      -0.005053494085019223,
      -0.7266355468370822,
      0.687023130673827,
      0.6510806879619362,
      0.014407251226759855,
      -0.9998962101703912,
      -0.16637898866050152,
      0.5712429248620369,
      -0.820781043152247,
      -0.7650646802402784,
      0.6342243689487779,
      -0.28093515199675717,
      -0.2960125454769695,
      -0.6566669347073635,
      -0.6411819851142915,
      -0.04466766262074953,
      0.6215349346317675,
      0.006515527986558803,
      -0.7451148977362632,
      -0.6669042937995203,
      0.38539945663075537,
      0.2507199679982628,
      0.18227453088766413
    ],
    "final_E_line": 1.2705357710286043e-06,
    "final_E_plane": 1.1919227058952248e-05,
    "final_E_pose": 0.0,
    "final_E_centroids": -0.0208319177240704,
    "final_E_total": 0.9997829920575054
  }
]