[
  {
    "mask_number": 7,
    "image_num": 6,
    "contour_noise": false,
    "canny": false,
    "generate_random": false,
    "all_edges_good": true,
    "is_vertical": "False",
    "edges_control": [
      0,
      0,
      0,
      0
    ],
    "no_canny": "True",
    "box_dimensions": [
      0.387,
      0.22,
      0.213
    ],
    "final_weights": [
      0.19999999999999998,
      0.6,
      0.19999999999999998,
      0.0
    ],
    "cntr_line_weights": [
      0.25,
      0.25,
      0.25,
      0.25
    ],
    "canny_seg_weights": [
      0.7,
      0.30000000000000004
    ],
    "init_params": [
      1.0,
      0.0,
      1.0,
      6.123233995736766e-17,
      1.0,
      1.0,
      -1.0,
      1.2246467991473532e-16,
      1.0,
      -1.8369701987210297e-16,
      -1.0,
      1.0,
      1.0,
      0.0,
      0.0,
      0.0,
      -0.8257045646004426,
      -0.3051871777342677,
      0.9095869474006001,
      0.0,
      0.0,
      -1.0,
      0.9095869474006001
    ],
    "final_loss": 6.5206937121113935,
    "time_duration": 1.5573002000019187,
    "optimized_parameters": [
      0.06479217159091735,
      0.9978987796870055,
      0.2177128118208947,
      -0.42880949956414616,
      0.9033949374906318,
      0.634816556083937,
      0.05328464133917119,
      -0.9985793643960815,
      -0.4348064752801663,
      0.38593752783601204,
      -0.922524918150107,
      -0.686967800271991,
      0.7497084189729485,
      -0.40708971621448886,
      -0.13446830229538873,
      -0.5041165789294113,
      -0.75,
      -0.2971650221959705,
      0.8645081714256511,
      -0.2088173432247407,
      -0.7459725481532912,
      -0.6323925004066508,
      0.16831497676468543
    ],
    "final_E_line": 0.0001170490449921,
    "final_E_plane": 0.000207872736709,
    "final_E_pose": 3.709680499865552e-07,
    "final_E_centroids": 0.0,
    "final_E_total": 6.520693717022775e-05
  }
]