[
  {
    "mask_number": 6,
    "image_num": 3,
    "contour_noise": false,
    "canny": true,
    "generate_random": false,
    "all_edges_good": true,
    "is_vertical": "True",
    "edges_control": [
      1,
      1,
      0,
      1
    ],
    "no_canny": "False",
    "box_dimensions": [
      0.296,
      0.154,
      0.221
    ],
    "final_weights": [
      0.19999999999999998,
      0.6,
      0.19999999999999998,
      0.0
    ],
    "cntr_line_weights": [
      0.25,
      0.25,
      0.25,
      0.25
    ],
    "canny_seg_weights": [
      0.7,
      0.30000000000000004
    ],
    "init_params": [
      1.0,
      0.0,
      1.0,
      6.123233995736766e-17,
      1.0,
      1.0,
      -1.0,
      1.2246467991473532e-16,
      1.0,
      -1.8369701987210297e-16,
      -1.0,
      1.0,
      1.0,
      0.0,
      0.0,
      0.0,
      -0.016037426367701828,
      -0.12756126406621138,
      0.7724450536620608,
      0.0,
      0.0,
      -1.0,
      0.7724450536620608
    ],
    "final_loss": 0.14694390020538964,
    "time_duration": 1.658121200001915,
    "optimized_parameters": [
      0.02877575176961281,
      0.999585892312591,
      0.056915511839932834,
      -0.9971580370446319,
      -0.07533823171245818,
      -0.09037232121775789,
      -0.02705302535318464,
      -0.9996339999317072,
      -0.2671612409524656,
      0.9820684374430042,
      -0.18852475746872002,
      -0.15082941459358962,
      0.6556347188298702,
      -0.2799029281516559,
      -0.28909514930128766,
      -0.6389221086545952,
      -0.016302742315298754,
      -0.13914182982120096,
      0.7847510386984446,
      0.02140923309513982,
      -0.7364467074837402,
      -0.6761567065225347,
      0.42849317325341724
    ],
    "final_E_line": 5.492330370242124e-06,
    "final_E_plane": 1.665635265055458e-06,
    "final_E_pose": 6.307647663930694e-08,
    "final_E_centroids": 0.0,
    "final_E_total": 1.4694390130431009e-06
  }
]