[
  {
    "mask_number": 16,
    "image_num": 3,
    "contour_noise": false,
    "canny": true,
    "is_vertical": "False",
    "edges_control": [
      1,
      0,
      0,
      0
    ],
    "no_canny": "False",
    "box_dimensions": [
      0.296,
      0.154,
      0.221
    ],
    "final_weights": [
      0.19999999999999998,
      0.6,
      0.19999999999999998,
      0.0
    ],
    "cntr_line_weights": [
      0.25,
      0.25,
      0.25,
      0.25
    ],
    "canny_seg_weights": [
      0.7,
      0.30000000000000004
    ],
    "init_params": [
      1.0,
      0.0,
      1.0,
      6.123233995736766e-17,
      1.0,
      1.0,
      -1.0,
      1.2246467991473532e-16,
      1.0,
      -1.8369701987210297e-16,
      -1.0,
      1.0,
      1.0,
      0.0,
      0.0,
      0.0,
      -0.23467229683768012,
      -0.44037410973298124,
      1.1277596013345643,
      0.0,
      0.0,
      -1.0,
      1.1277596013345643
    ],
    "final_loss": 0.24616268507271685,
    "time_duration": 2.197948599990923,
    "optimized_parameters": [
      0.02322550438701766,
      0.9997302515915717,
      0.36046576811103975,
      -0.9914110888593719,
      0.13078246398961968,
      0.13420496746542562,
      -0.02487655863645818,
      -0.9996905305302232,
      -0.4085166513415539,
      0.8170113849592819,
      -0.5766215369360037,
      -0.5116403319419995,
      0.6401432323144756,
      -0.28373475045375246,
      -0.309223427620996,
      -0.6434998875817376,
      -0.24325668763258335,
      -0.4414094546641481,
      1.1288205776127505,
      0.030728042308824664,
      -0.7612320473178429,
      -0.6477511540356117,
      0.402654619354319
    ],
    "final_E_line": 7.484405481453149e-06,
    "final_E_plane": 4.728946382387968e-06,
    "final_E_pose": 3.1594129820234456e-08,
    "final_E_centroids": 0.0,
    "final_E_total": 2.461626850660364e-06
  }
]