[
  {
    "mask_number": 10,
    "image_num": 6,
    "contour_noise": false,
    "canny": false,
    "generate_random": false,
    "all_edges_good": true,
    "is_vertical": "False",
    "edges_control": [
      0,
      0,
      0,
      0
    ],
    "no_canny": "True",
    "box_dimensions": [
      0.387,
      0.22,
      0.213
    ],
    "final_weights": [
      0.19999999999999998,
      0.6,
      0.19999999999999998,
      0.0
    ],
    "cntr_line_weights": [
      0.25,
      0.25,
      0.25,
      0.25
    ],
    "canny_seg_weights": [
      0.7,
      0.30000000000000004
    ],
    "init_params": [
      1.0,
      0.0,
      1.0,
      6.123233995736766e-17,
      1.0,
      1.0,
      -1.0,
      1.2246467991473532e-16,
      1.0,
      -1.8369701987210297e-16,
      -1.0,
      1.0,
      1.0,
      0.0,
      0.0,
      0.0,
      -0.6644694424880192,
      -0.45170772165746453,
      1.0631992559300847,
      0.0,
      0.0,
      -1.0,
      1.0631992559300847
    ],
    "final_loss": 2.0735999734941917,
    "time_duration": 1.7739167000108864,
    "optimized_parameters": [
      -0.020724950883656165,
      0.999785215140221,
      0.40795033002948117,
      -0.4666322478811797,
      0.8844514374701511,
      0.6033110203282676,
      0.039366326717831225,
      -0.9992248457289937,
      -0.47982466075710245,
      0.3678884531900479,
      -0.9298699296198518,
      -0.6748813013482281,
      0.699161098366761,
      -0.3652351856264827,
      -0.2284338933404616,
      -0.5706093007378722,
      -0.6725106047312709,
      -0.4615962884685603,
      1.0777421833110388,
      -0.09738898887600585,
      -0.7714094841705087,
      -0.6288424226923026,
      0.2561551501612719
    ],
    "final_E_line": 4.824537507657075e-05,
    "final_E_plane": 5.518696836965275e-05,
    "final_E_pose": 8.255174282900348e-08,
    "final_E_centroids": 0.0,
    "final_E_total": 2.0735999734942103e-05
  }
]