[
  {
    "mask_number": 11,
    "image_num": 3,
    "contour_noise": false,
    "canny": true,
    "is_vertical": "False",
    "edges_control": [
      1,
      1,
      1,
      1
    ],
    "no_canny": "False",
    "box_dimensions": [
      0.296,
      0.154,
      0.221
    ],
    "final_weights": [
      0.3333333333333333,
      0.3333333333333333,
      0.3333333333333333,
      0.0
    ],
    "cntr_line_weights": [
      0.25,
      0.25,
      0.25,
      0.25
    ],
    "canny_seg_weights": [
      0.7,
      0.30000000000000004
    ],
    "init_params": [
      1.0,
      0.0,
      1.0,
      6.123233995736766e-17,
      1.0,
      1.0,
      -1.0,
      1.2246467991473532e-16,
      1.0,
      -1.8369701987210297e-16,
      -1.0,
      1.0,
      1.0,
      0.0,
      0.0,
      0.0,
      -0.229852707023574,
      -0.12322365698075798,
      0.7654386855643879,
      0.0,
      0.0,
      -1.0,
      0.7654386855643879
    ],
    "final_loss": 0.29187154997381776,
    "time_duration": 1.4052379000058863,
    "optimized_parameters": [
      0.018306476001440045,
      0.9998324224293279,
      0.09881556935069356,
      -0.9816117880769043,
      0.1908881807488844,
      0.15289147911556514,
      -0.01564275674903985,
      -0.9998776446001956,
      -0.2129247938909459,
      0.8146331205703475,
      -0.5799766192450176,
      -0.5117812440805641,
      0.6557005917519249,
      -0.2836226696390289,
      -0.2817624667386114,
      -0.6404879605333957,
      -0.24364160435944393,
      -0.12733133395094906,
      0.7695991735641683,
      0.006189969807192742,
      -0.7328739159156831,
      -0.6803363195267161,
      0.4317765999595255
    ],
    "final_E_line": 6.577224197364736e-06,
    "final_E_plane": 2.015403245233408e-06,
    "final_E_pose": 1.6351905619832134e-07,
    "final_E_centroids": 0.0,
    "final_E_total": 2.918715499598821e-06
  }
]