[
  {
    "mask_number": 10,
    "image_num": 3,
    "contour_noise": false,
    "canny": false,
    "generate_random": false,
    "all_edges_good": true,
    "is_vertical": "True",
    "edges_control": [
      0,
      0,
      0,
      0
    ],
    "no_canny": "True",
    "box_dimensions": [
      0.296,
      0.154,
      0.221
    ],
    "final_weights": [
      0.19999999999999998,
      0.6,
      0.19999999999999998,
      0.0
    ],
    "cntr_line_weights": [
      0.25,
      0.25,
      0.25,
      0.25
    ],
    "canny_seg_weights": [
      0.7,
      0.30000000000000004
    ],
    "init_params": [
      1.0,
      0.0,
      1.0,
      6.123233995736766e-17,
      1.0,
      1.0,
      -1.0,
      1.2246467991473532e-16,
      1.0,
      -1.8369701987210297e-16,
      -1.0,
      1.0,
      1.0,
      0.0,
      0.0,
      0.0,
      0.14599408608556905,
      -0.3249330531484343,
      1.0015194304043171,
      0.0,
      0.0,
      -1.0,
      1.0015194304043171
    ],
    "final_loss": 0.5758677968878645,
    "time_duration": 1.5015765000134706,
    "optimized_parameters": [
      0.02330372706804778,
      0.999728431277651,
      0.26373219071155946,
      -0.9302301312482064,
      -0.3669767062336879,
      -0.3236889001509083,
      -0.025180557656348485,
      -0.999682919488152,
      -0.3904437278309604,
      0.9915497256139513,
      0.12972718156162294,
      0.1085172710480469,
      0.6482910061910854,
      -0.27562444959322796,
      -0.2959658524144814,
      -0.645100107179437,
      0.1438051398970228,
      -0.3342356216283389,
      1.0109626919004846,
      0.0281332825001927,
      -0.7392249098156525,
      -0.6728707536550564,
      0.4291262231522738
    ],
    "final_E_line": 1.9782805709880163e-05,
    "final_E_plane": 8.424171238916246e-06,
    "final_E_pose": 1.9547096513771106e-07,
    "final_E_centroids": 0.0,
    "final_E_total": 5.7586779688419085e-06
  }
]