[
  {
    "mask_number": 18,
    "image_num": 6,
    "contour_noise": false,
    "canny": false,
    "generate_random": false,
    "all_edges_good": true,
    "is_vertical": "False",
    "edges_control": [
      0,
      0,
      0,
      0
    ],
    "no_canny": "True",
    "box_dimensions": [
      0.387,
      0.22,
      0.213
    ],
    "final_weights": [
      0.19999999999999998,
      0.6,
      0.19999999999999998,
      0.0
    ],
    "cntr_line_weights": [
      0.25,
      0.25,
      0.25,
      0.25
    ],
    "canny_seg_weights": [
      0.7,
      0.30000000000000004
    ],
    "init_params": [
      1.0,
      0.0,
      1.0,
      6.123233995736766e-17,
      1.0,
      1.0,
      -1.0,
      1.2246467991473532e-16,
      1.0,
      -1.8369701987210297e-16,
      -1.0,
      1.0,
      1.0,
      0.0,
      0.0,
      0.0,
      0.1525304399985275,
      -0.4802286077088653,
      1.1590439754088444,
      0.0,
      0.0,
      -1.0,
      1.1590439754088444
    ],
    "final_loss": 0.16087757291078864,
    "time_duration": 1.9668242000043392,
    "optimized_parameters": [
      0.0057513053938866455,
      0.9999834611097231,
      0.38753199393645443,
      -0.8216344902945092,
      -0.5700147054071123,
      -0.48939969144724893,
      -0.0073252385294165345,
      -0.9999731700838705,
      -0.45375793232890205,
      0.999967808870465,
      0.008023791358468303,
      -0.019577681699797664,
      0.6410381477363224,
      -0.28133185027287755,
      -0.2956125375876685,
      -0.6500274692596096,
      0.16621241729911984,
      -0.49769505257949004,
      1.1792719036507404,
      0.013250837012605625,
      -0.7450012893399027,
      -0.6669314014299144,
      0.413507547290385
    ],
    "final_E_line": 4.077141669319531e-06,
    "final_E_plane": 3.76594787841609e-06,
    "final_E_pose": 6.69296993066053e-08,
    "final_E_centroids": 0.0,
    "final_E_total": 1.6087757291310871e-06
  }
]