[
  {
    "mask_number": 3,
    "image_num": 3,
    "contour_noise": false,
    "canny": true,
    "is_vertical": "False",
    "edges_control": [
      1,
      1,
      1,
      1
    ],
    "no_canny": "False",
    "box_dimensions": [
      0.296,
      0.154,
      0.221
    ],
    "final_weights": [
      0.3333333333333333,
      0.3333333333333333,
      0.3333333333333333,
      0.0
    ],
    "cntr_line_weights": [
      0.25,
      0.25,
      0.25,
      0.25
    ],
    "canny_seg_weights": [
      0.7,
      0.30000000000000004
    ],
    "init_params": [
      1.0,
      0.0,
      1.0,
      6.123233995736766e-17,
      1.0,
      1.0,
      -1.0,
      1.2246467991473532e-16,
      1.0,
      -1.8369701987210297e-16,
      -1.0,
      1.0,
      1.0,
      0.0,
      0.0,
      0.0,
      -0.23553417323808115,
      0.08684464683852504,
      0.5308766942186245,
      0.0,
      0.0,
      -1.0,
      0.5308766942186245
    ],
    "final_loss": 0.9064597345997027,
    "time_duration": 1.2035813999827951,
    "optimized_parameters": [
      0.018916318646423562,
      0.9998210704365457,
      -0.2894314168025912,
      -0.9843607919338907,
      0.1761642168648659,
      0.1465604786727322,
      -0.01311125610173387,
      -0.9999140437874829,
      0.05361846950836158,
      0.8289148477444872,
      -0.5593748074313017,
      -0.516755706427609,
      0.6558457201280096,
      -0.27711071086334454,
      -0.27857913384939703,
      -0.6445694000637071,
      -0.2417399430140889,
      0.08167109524055806,
      0.536803186334191,
      0.008175651491589166,
      -0.7226109388633652,
      -0.6912066187168457,
      0.4320347298873872
    ],
    "final_E_line": 2.0673968389925462e-05,
    "final_E_plane": 5.054111293702895e-06,
    "final_E_pose": 1.465712354449128e-06,
    "final_E_centroids": 0.0,
    "final_E_total": 9.064597346025828e-06
  }
]