[
  {
    "mask_number": 5,
    "image_num": 3,
    "contour_noise": false,
    "canny": true,
    "is_vertical": "True",
    "edges_control": [
      1,
      1,
      0,
      1
    ],
    "no_canny": "False",
    "box_dimensions": [
      0.296,
      0.154,
      0.221
    ],
    "final_weights": [
      0.3333333333333333,
      0.3333333333333333,
      0.3333333333333333,
      0.0
    ],
    "cntr_line_weights": [
      0.25,
      0.25,
      0.25,
      0.25
    ],
    "canny_seg_weights": [
      0.7,
      0.30000000000000004
    ],
    "init_params": [
      1.0,
      0.0,
      1.0,
      6.123233995736766e-17,
      1.0,
      1.0,
      -1.0,
      1.2246467991473532e-16,
      1.0,
      -1.8369701987210297e-16,
      -1.0,
      1.0,
      1.0,
      0.0,
      0.0,
      0.0,
      0.1419562764154872,
      -0.11745251134377513,
      0.7667253136423275,
      0.0,
      0.0,
      -1.0,
      0.7667253136423275
    ],
    "final_loss": 0.2384826272907068,
    "time_duration": 1.464370300003793,
    "optimized_parameters": [
      0.02790778253994464,
      0.9996105019825006,
      0.05772630906579552,
      -0.9409311449213147,
      -0.3385979629548205,
      -0.3182735933527237,
      -0.023182710029777034,
      -0.9997312448631762,
      -0.2623059967380014,
      0.9968553638651384,
      0.07924256137525794,
      0.0936087725728845,
      0.6528052183738711,
      -0.28623730461808167,
      -0.29314628376897517,
      -0.6371646636633855,
      0.14047123818036894,
      -0.13327663714620583,
      0.7843741776537415,
      0.017974298443818506,
      -0.7472792976935393,
      -0.6642669462152295,
      0.41891410929692685
    ],
    "final_E_line": 6.234873510694244e-06,
    "final_E_plane": 3.760465160553751e-07,
    "final_E_pose": 5.435587925962112e-07,
    "final_E_centroids": 0.0,
    "final_E_total": 2.384826273115276e-06
  }
]