[
  {
    "mask_number": 2,
    "image_num": 4,
    "contour_noise": false,
    "canny": true,
    "is_vertical": "False",
    "edges_control": [
      1,
      1,
      1,
      1
    ],
    "no_canny": "False",
    "box_dimensions": [
      0.396,
      0.2,
      0.205
    ],
    "final_weights": [
      0.3333333333333333,
      0.3333333333333333,
      0.3333333333333333,
      0.0
    ],
    "cntr_line_weights": [
      0.25,
      0.25,
      0.25,
      0.25
    ],
    "canny_seg_weights": [
      0.7,
      0.30000000000000004
    ],
    "init_params": [
      1.0,
      0.0,
      1.0,
      6.123233995736766e-17,
      1.0,
      1.0,
      -1.0,
      1.2246467991473532e-16,
      1.0,
      -1.8369701987210297e-16,
      -1.0,
      1.0,
      1.0,
      0.0,
      0.0,
      0.0,
      0.16674475054082086,
      0.10133488154686664,
      0.5672377581089594,
      0.0,
      0.0,
      -1.0,
      0.5672377581089594
    ],
    "final_loss": 109.41023083485862,
    "time_duration": 4.284102900011931,
    "optimized_parameters": [
      -0.03077092425698869,
      0.9995264629915842,
      -0.4262872842915733,
      -0.8867345902877051,
      -0.4622788837783306,
      -0.5066292359987418,
      -0.031081713967344476,
      -0.9995168468099772,
      -0.039624446474872885,
      0.9999789069325404,
      0.006495051194525585,
      -0.035271919114905056,
      0.667310637148612,
      -0.20282011624123436,
      -0.23827761047638413,
      -0.6758581910003089,
      0.17821040201553331,
      0.09000424568949791,
      0.5637965641589948,
      0.04385509361964424,
      -0.5927717047522489,
      -0.8041756255999061,
      0.4989279976111706
    ],
    "final_E_line": 0.0013276758040339,
    "final_E_plane": 0.0005447430631688,
    "final_E_pose": 0.0014098880296548,
    "final_E_centroids": 0.0,
    "final_E_total": 0.0010941022989525
  }
]