[
  {
    "mask_number": 15,
    "image_num": 3,
    "contour_noise": false,
    "canny": true,
    "is_vertical": "True",
    "edges_control": [
      0,
      1,
      0,
      1
    ],
    "no_canny": "False",
    "box_dimensions": [
      0.296,
      0.154,
      0.221
    ],
    "final_weights": [
      0.19999999999999998,
      0.6,
      0.19999999999999998,
      0.0
    ],
    "cntr_line_weights": [
      0.25,
      0.25,
      0.25,
      0.25
    ],
    "canny_seg_weights": [
      0.7,
      0.30000000000000004
    ],
    "init_params": [
      1.0,
      0.0,
      1.0,
      6.123233995736766e-17,
      1.0,
      1.0,
      -1.0,
      1.2246467991473532e-16,
      1.0,
      -1.8369701987210297e-16,
      -1.0,
      1.0,
      1.0,
      0.0,
      0.0,
      0.0,
      0.14630707153022546,
      -0.518457486970284,
      1.227615577836858,
      0.0,
      0.0,
      -1.0,
      1.227615577836858
    ],
    "final_loss": 0.28191216672554265,
    "time_duration": 1.5141167999827303,
    "optimized_parameters": [
      0.01795137832817501,
      0.9998388610263166,
      0.38974399064225496,
      -0.931413183973394,
      -0.3639635705998646,
      -0.322200458171291,
      -0.017203665872318648,
      -0.999852005990665,
      -0.4646578057492881,
      0.9964424595349238,
      0.08427588527808319,
      0.09062567309300604,
      0.6473748965925553,
      -0.29712122100335225,
      -0.30055136895516477,
      -0.6342661885289487,
      0.14538369360941109,
      -0.5338951730258759,
      1.2455974373023468,
      0.012231064073297165,
      -0.7659567946676926,
      -0.6427756916510574,
      0.3899209278937712
    ],
    "final_E_line": 1.0465613158502911e-05,
    "final_E_plane": 3.1742057215815325e-06,
    "final_E_pose": 1.519298185442746e-07,
    "final_E_centroids": 0.0,
    "final_E_total": 2.8191216671434537e-06
  }
]