[
  {
    "mask_number": 11,
    "image_num": 3,
    "contour_noise": false,
    "canny": true,
    "is_vertical": "False",
    "edges_control": [
      1,
      1,
      1,
      1
    ],
    "no_canny": "False",
    "box_dimensions": [
      0.296,
      0.154,
      0.221
    ],
    "final_weights": [
      0.19999999999999998,
      0.6,
      0.19999999999999998,
      0.0
    ],
    "cntr_line_weights": [
      0.25,
      0.25,
      0.25,
      0.25
    ],
    "canny_seg_weights": [
      0.7,
      0.30000000000000004
    ],
    "init_params": [
      1.0,
      0.0,
      1.0,
      6.123233995736766e-17,
      1.0,
      1.0,
      -1.0,
      1.2246467991473532e-16,
      1.0,
      -1.8369701987210297e-16,
      -1.0,
      1.0,
      1.0,
      0.0,
      0.0,
      0.0,
      -0.22949072921635466,
      -0.12136359346240137,
      0.7638021245796189,
      0.0,
      0.0,
      -1.0,
      0.7638021245796189
    ],
    "final_loss": 0.18640720123109233,
    "time_duration": 1.2391097000217997,
    "optimized_parameters": [
      0.016791469776022323,
      0.9998590133327738,
      0.09946783446770206,
      -0.9809257551619928,
      0.19438277408296775,
      0.1536908813258036,
      -0.014921186074526867,
      -0.9998886729062039,
      -0.2130711292637706,
      0.8154199385041841,
      -0.5788698678373589,
      -0.5115885741877833,
      0.6554230491706193,
      -0.28445524224698976,
      -0.2815765238941847,
      -0.6404845844874918,
      -0.24376204802554996,
      -0.12741428009804484,
      0.7699789813738778,
      0.004725142844373421,
      -0.7335677337197999,
      -0.6795999213291469,
      0.4309624761152807
    ],
    "final_E_line": 6.904642709339312e-06,
    "final_E_plane": 2.2935842108103035e-06,
    "final_E_pose": 4.0711047172029776e-08,
    "final_E_centroids": 0.0,
    "final_E_total": 1.8640720123331408e-06
  }
]