[
  {
    "mask_number": 14,
    "image_num": 3,
    "contour_noise": false,
    "canny": true,
    "is_vertical": "True",
    "edges_control": [
      0,
      0,
      0,
      1
    ],
    "no_canny": "False",
    "box_dimensions": [
      0.296,
      0.154,
      0.221
    ],
    "final_weights": [
      0.3333333333333333,
      0.3333333333333333,
      0.3333333333333333,
      0.0
    ],
    "cntr_line_weights": [
      0.25,
      0.25,
      0.25,
      0.25
    ],
    "canny_seg_weights": [
      0.7,
      0.30000000000000004
    ],
    "init_params": [
      1.0,
      0.0,
      1.0,
      6.123233995736766e-17,
      1.0,
      1.0,
      -1.0,
      1.2246467991473532e-16,
      1.0,
      -1.8369701987210297e-16,
      -1.0,
      1.0,
      1.0,
      0.0,
      0.0,
      0.0,
      0.2922727094823765,
      -0.49692070143727296,
      1.2025935325658503,
      0.0,
      0.0,
      -1.0,
      1.2025935325658503
    ],
    "final_loss": 0.3144700043518016,
    "time_duration": 13.753412699996261,
    "optimized_parameters": [
      -0.005577853927182753,
      0.9999844436554167,
      0.3760915213665934,
      -0.8420946518827924,
      -0.5393297668194621,
      -0.48918241669847234,
      0.00679152182130279,
      -0.9999769373611702,
      -0.4599513164235653,
      0.9358433929175071,
      0.3524161516493267,
      0.3215495921202331,
      -0.6463713115135659,
      0.2950923901757392,
      0.2862121102822601,
      0.6428119762786624,
      0.30332800484728417,
      -0.5201741136917007,
      1.2287125977917446,
      -0.009379911435011667,
      -0.749439608528198,
      -0.6620062616420131,
      0.4264215794199077
    ],
    "final_E_line": 4.255653283909547e-06,
    "final_E_plane": 4.947171667337436e-06,
    "final_E_pose": 2.3127517770324626e-07,
    "final_E_centroids": 0.0,
    "final_E_total": 3.144700042983409e-06
  }
]