[
  {
    "mask_number": 9,
    "image_num": 4,
    "contour_noise": true,
    "canny": true,
    "is_vertical": "False",
    "edges_control": [
      1,
      1,
      1,
      1
    ],
    "no_canny": "False",
    "box_dimensions": [
      0.396,
      0.2,
      0.205
    ],
    "final_weights": [
      0.19999999999999998,
      0.6,
      0.19999999999999998,
      0.0
    ],
    "cntr_line_weights": [
      0.45,
      0.45,
      0.04999999999999999,
      0.04999999999999999
    ],
    "canny_seg_weights": [
      0.7,
      0.30000000000000004
    ],
    "init_params": [
      1.0,
      0.0,
      1.0,
      6.123233995736766e-17,
      1.0,
      1.0,
      -1.0,
      1.2246467991473532e-16,
      1.0,
      -1.8369701987210297e-16,
      -1.0,
      1.0,
      1.0,
      0.0,
      0.0,
      0.0,
      0.1451675729764913,
      -0.2747396317179582,
      0.972901685417005,
      0.0,
      0.0,
      -1.0,
      0.972901685417005
    ],
    "final_loss": 0.4446671689383249,
    "time_duration": 2.303065299987793,
    "optimized_parameters": [
      -0.020253287563501504,
      0.9997948811345637,
      0.22768098102465092,
      -0.8460817539499764,
      -0.5330531546037691,
      -0.45378306083563474,
      0.01745836828879561,
      -0.9998475910741066,
      -0.32640323452907594,
      0.9999747201157086,
      0.007110494353004021,
      -0.04567326196060481,
      0.6360028035757823,
      -0.276884927591383,
      -0.2869447776220584,
      -0.660679850844504,
      0.15116354427646067,
      -0.276911245567669,
      0.976026286693228,
      -0.0008692053682601412,
      -0.7313564254073577,
      -0.6819948852428728,
      0.4632555188775876
    ],
    "final_E_line": 1.911308681350912e-05,
    "final_E_plane": 2.5624100429833384e-06,
    "final_E_pose": 1.8595383902563397e-07,
    "final_E_centroids": 2.6282023795768628e-22,
    "final_E_total": 4.446671674713871e-06
  }
]