[
  {
    "mask_number": 4,
    "image_num": 4,
    "contour_noise": false,
    "canny": true,
    "is_vertical": "False",
    "edges_control": [
      1,
      1,
      1,
      1
    ],
    "no_canny": "False",
    "box_dimensions": [
      0.396,
      0.2,
      0.205
    ],
    "final_weights": [
      0.19999999999999998,
      0.6,
      0.19999999999999998,
      0.0
    ],
    "cntr_line_weights": [
      0.25,
      0.25,
      0.25,
      0.25
    ],
    "canny_seg_weights": [
      0.7,
      0.30000000000000004
    ],
    "init_params": [
      1.0,
      0.0,
      1.0,
      6.123233995736766e-17,
      1.0,
      1.0,
      -1.0,
      1.2246467991473532e-16,
      1.0,
      -1.8369701987210297e-16,
      -1.0,
      1.0,
      1.0,
      0.0,
      0.0,
      0.0,
      -0.24221481873895936,
      -0.2581792738107317,
      0.9549154924771897,
      0.0,
      0.0,
      -1.0,
      0.9549154924771897
    ],
    "final_loss": 0.3063129481843278,
    "time_duration": 1.9411380999954417,
    "optimized_parameters": [
      -0.011857192572538013,
      0.999929701021193,
      0.2230184953266825,
      -0.9999369300259061,
      -0.011231027149225374,
      0.04112524200274911,
      0.008223739691044445,
      -0.9999661844810127,
      -0.32103369836584617,
      0.8435408520070862,
      -0.5370650156129649,
      -0.5333626352453328,
      0.6359268029614916,
      -0.2767086300132217,
      -0.2932677755822306,
      -0.6580451710608167,
      -0.24038337415172173,
      -0.26231258895869614,
      0.959806045370145,
      0.00882011707713858,
      -0.7378997129362006,
      -0.6748527388871044,
      0.45628757596360253
    ],
    "final_E_line": 1.2987131324887582e-05,
    "final_E_plane": 2.14507005014578e-06,
    "final_E_pose": 6.11486780219539e-08,
    "final_E_centroids": 0.0,
    "final_E_total": 3.063129481819845e-06
  }
]