[
  {
    "mask_number": 2,
    "image_num": 5,
    "contour_noise": false,
    "canny": true,
    "generate_random": false,
    "all_edges_good": false,
    "is_vertical": "False",
    "edges_control": [
      1,
      1,
      1,
      1
    ],
    "no_canny": "False",
    "box_dimensions": [
      0.396,
      0.2,
      0.205
    ],
    "final_weights": [
      0.19999999999999998,
      0.6,
      0.19999999999999998,
      0.0
    ],
    "cntr_line_weights": [
      0.25,
      0.25,
      0.25,
      0.25
    ],
    "canny_seg_weights": [
      0.7,
      0.30000000000000004
    ],
    "init_params": [
      1.0,
      0.0,
      1.0,
      6.123233995736766e-17,
      1.0,
      1.0,
      -1.0,
      1.2246467991473532e-16,
      1.0,
      -1.8369701987210297e-16,
      -1.0,
      1.0,
      1.0,
      0.0,
      0.0,
      0.0,
      0.18711712684710136,
      -0.021890090366999702,
      0.6362859971406049,
      0.0,
      0.0,
      -1.0,
      0.6362859971406049
    ],
    "final_loss": 0.4634439303307115,
    "time_duration": 1.6258330999989994,
    "optimized_parameters": [
      -0.010814053187698833,
      0.9999415264172486,
      -0.06631669380273586,
      -0.799839851281261,
      -0.6002134722767033,
      -0.505878086916587,
      0.005950164932513341,
      -0.9999822976119507,
      -0.13253173596021325,
      0.9997009416650153,
      0.024454595369965335,
      -0.008945422878203931,
      0.6383712076198724,
      -0.28400481905771796,
      -0.29651535977203286,
      -0.6510776493270407,
      0.19083953351754476,
      -0.030486427746999962,
      0.6473400010415155,
      0.008755398659233566,
      -0.7487099926001964,
      -0.662839867520815,
      0.40458640286282466
    ],
    "final_E_line": 1.4987816820629344e-05,
    "final_E_plane": 6.88302227189399e-06,
    "final_E_pose": 4.3378580802824406e-07,
    "final_E_centroids": 0.0,
    "final_E_total": 4.634439303321613e-06
  }
]